368 30
_set_name_name 0.312510179758 -0.263831701845 -0.312799598345 -0.853396161331 0.463926904228 0.545637423116 -0.461942501725 0.647316739095 -0.612605363877 0.191638608023 0.20812322403 0.126030729008 0.547998925556 -0.877091856512 0.202537600558 -0.221756798632 -0.314659752489 0.656904773934 -0.311260149692 0.941384262215 0.0962230640261 0.421602041456 -0.402309694026 0.138838805199 0.359868787659 0.252917805877 0.290627203977 0.14008104388 0.161387740969 0.492499110569
_string_val_val_name -0.103979992006 0.0967165291155 -0.0902588022413 -0.644875265346 0.11220694761 -0.050030898002 -0.569793807901 0.459917783125 -0.580861042687 0.425551370083 0.178170563983 -0.41525370854 0.367963717693 0.370886970436 0.0748054950377 -0.056717607646 -0.061337326414 0.526357063424 -0.570818193 0.0435212309988 0.235239381608 0.438369063458 -0.0559107145935 0.156797994278 -0.222195348649 0.53728883475 0.0565672224712 -0.229153307061 0.332777916559 -0.188282815705
imull_reg_reg 0.0672196456974 0.25204310824 -0.748934686292 0.188967112529 -0.729605319434 -0.495388548523 0.35759599859 0.741603821928 0.058150050005 0.557551077651 0.23860450858 0.875317743276 0.533818370866 -0.241124210536 -0.618207143055 0.688961868931 -0.427379571806 0.481537891447 0.234698444149 -0.0301738793773 -0.514813462074 0.664022780133 0.324145751132 -0.467273129085 -0.183929060301 0.783758941185 0.503031804816 -0.355108776464 0.740059915172 0.20559777806
_align_val -0.156542295632 0.484411086905 -0.678556842485 -0.410128193401 -0.0971557097495 -0.250187085788 -0.453149225543 -0.006741227928 -0.609516401718 0.748174238377 0.251693130614 -0.68173149641 0.108614598846 0.417940827723 0.024188535407 0.024146492178 -0.550037138382 -0.14181253909 -0.701260168516 -0.669490987624 -0.001403438685 0.095772436501 -0.553928652919 0.523472400844 -0.595339260485 0.536115666715 0.0399841425055 -0.075630159187 -0.246490137337 -0.724355657986
_string_val_name_name 0.0785089251328 -0.275709005399 0.0802287414986 -0.700372273796 0.347034692582 0.198150946064 -0.452169972892 0.483643941014 -0.525576450655 0.221358202629 0.376659288813 -0.0978189349278 0.4093841234 -0.052448445287 0.115630616648 -0.180247016471 -0.0900092601418 0.576674820368 -0.341325529036 0.480959015249 0.0672442844146 0.445378242302 -0.0987241474585 -0.0527099454792 -0.0663010082435 0.614581188984 0.02042384509 -0.0479901907183 0.474002228117 0.224551482869
_cfi_startproc 0.638353755664 -0.666392534872 -0.591076528923 0.674723809495 -0.388967218122 -0.149411087975 -0.908244694812 -0.249795435062 -0.882812620941 0.517841225924 -0.45230480585 -0.625679757695 -0.879432008904 0.177229190843 0.413149375643 0.151312929838 -0.819931734733 -0.333306785598 0.128645147018 -0.915422240448 0.322120782147 0.143725742859 0.174845843768 0.484128950341 -0.692029780004 0.94468544383 0.961342836638 0.535696507553 -0.564705457665 0.470927502647
pushq_reg 0.297580887697 0.030575757464 -0.0519986506035 0.605151904364 -0.811395731692 0.181947133967 -0.0692555199905 0.299176254646 0.0520939876595 0.0954965399465 0.255910938937 0.543261156928 0.794955118633 -0.255399932303 -0.0031814310265 0.063321251689 -0.685863928497 0.539120588393 -0.229224358877 -0.283769545961 -0.04530151744 0.359739929241 -0.0286862256705 -0.57005309518 -0.38401820389 0.727310711216 0.253612519127 -0.246194197991 0.448082262343 -0.198340104583
_string_val_name_reg_name_name_reg 0.159014009991 -0.168885813605 -0.171681156471 -0.387691011891 0.038130050817 0.12389386101 -0.273697347508 0.645866867513 -0.331063583368 0.311172245657 0.319623160321 0.276100262978 0.546292278146 -0.123503985511 -0.167466811773 0.049897350718 -0.286138689198 0.628813362663 -0.171758466123 0.273587910087 -0.0988314348415 0.576289808165 0.0521027387901 -0.220861191993 0.0425449131114 0.723078942242 0.233855666942 -0.195601283384 0.610614162073 0.303563366137
fucomip_reg_reg 0.300273164012 0.0759134017947 -0.27860741342 0.535821418043 -0.40885100031 -0.195780321714 -0.193572796726 0.296293707103 -0.123542268544 0.589119121747 -0.0324658033113 0.385375277339 0.246075323728 -0.0430352356483 -0.35851218829 0.439232820182 -0.270296942049 0.56088074456 0.381634952785 -0.527780936321 -0.531537192789 0.559303494947 0.234639152579 -0.451759357408 0.1193771667 0.691079079924 0.744098002491 -0.222574998418 0.559800662751 0.185478900888
_string_val_reg_name_name_name_reg_name_reg_name_reg_name_name_name 0.328572235023 -0.313479757004 -0.192170746747 -0.430046700087 0.0680628503154 0.296725171452 -0.28856330434 0.7424971002 -0.402691219476 0.190873967814 0.341724685962 0.462958122942 0.625731110627 -0.362833654274 -0.10009177582 -0.094200475427 -0.380063324578 0.615103623863 -0.0738944512142 0.416002946447 -0.0950660147487 0.576788928346 -0.0128627522694 -0.268626266157 0.15543083058 0.768937675768 0.247488721594 -0.195800788724 0.656089278279 0.463578198479
_string_val_name_name_name_name_name_name_name_name_val 0.3898017292 -0.462331684964 -0.0274026345682 -0.774529212615 0.328311293293 0.492845466934 -0.528052816748 0.690238129129 -0.705214219089 0.0276731901435 0.353707695986 0.202933653679 0.571254102761 -0.431560738178 0.250847697957 -0.456272389675 -0.288778881224 0.527842126879 -0.206807555453 0.639087856503 0.136720028146 0.443941126764 -0.227851492868 -0.0829110871134 0.128437865972 0.688614784843 0.0639314222249 -0.114312040374 0.523933419101 0.430826591786
movw_val_reg 0.302681916277 0.604669082637 -0.320670717993 0.180465388579 -0.461428872654 -0.161211330352 -0.113531531884 0.529023754973 -0.0969829085687 0.600298730773 0.235652659449 -0.236884035617 0.738466294107 0.222860796236 -0.371885050123 0.409114592606 -0.478844583006 0.325472245871 -0.247017855542 -0.568639287009 0.178659427344 0.324827795493 0.158719145228 -0.0109446417686 -0.238951482187 0.724945612046 0.474709063226 -0.577965300215 0.233727345927 -0.214806515101
_string_val_name_val_name_name_name_name 0.28399136037 -0.34253563909 -0.0408718133553 -0.746746223915 0.282003219218 0.376514817305 -0.536997314852 0.640883769271 -0.67856710986 0.11293280013 0.316092596271 0.0704649332034 0.52769187739 -0.25960765776 0.21312436876 -0.370653507812 -0.240041405193 0.527523898995 -0.284809834928 0.511466436752 0.157831318173 0.442747113198 -0.19100704038 -0.0315448553867 0.0533021771245 0.656187795537 0.0623533794206 -0.138920883235 0.482971525699 0.298160290181
movl_name_reg 0.549230735111 0.0963550243257 -0.370289253329 -0.185202267612 -0.209921560838 -0.180339341473 -0.182632003619 0.603633539096 -0.463765439478 0.423535355857 0.33005554941 0.579554220253 0.66140203857 -0.563215774128 -0.153835091657 -0.188180461699 -0.574098729687 0.655491848463 -0.176696039585 0.393457251535 -0.30542837605 0.713423752348 0.194444744737 -0.417552279375 0.28574228962 0.841169334964 0.582675180095 -0.206636497228 0.291788265534 0.389516692962
jnb_name 0.758691620761 -0.825419995652 0.0891883583239 -0.176260341004 0.511372136492 0.347493045651 -0.674263932343 0.51320183067 -0.655716741112 -0.2132072781 0.428469711069 -0.19728692332 0.807283352503 -0.0870518050445 -0.294048327748 0.069087466242 -0.175071739144 0.448832524423 0.410139448031 0.680661168454 -0.435577907243 0.646268680028 -0.219363386448 0.155076679555 0.363547004388 0.344690278127 0.264886617474 -0.232529775935 -0.149576685827 0.075923811073
leave -0.0144779595164 0.417627176403 0.00274220263116 -0.347764123828 -0.0215453211088 -0.335040793898 0.940331165973 0.777681381048 0.854405216146 -0.15136406648 -0.675031535367 -0.929049310049 -0.841562768496 0.540039856304 -0.370013333257 -0.237872165451 0.797674624812 -0.0272645840015 -0.454285015242 0.0164496872055 -0.872087472699 -0.932839188556 0.931940113037 0.764314522876 -0.730440384026 -0.656615730063 0.926258260136 -0.512682748822 -0.316550446556 -0.670408148411
_cfi_def_cfa_offset_val 0.0597597425522 -0.0324003429465 0.161456621585 0.0174156899915 -0.097415181937 -0.401115533674 -0.635670102185 0.422594711224 -0.818396597261 -0.0323396797295 -0.303272296386 -0.596536892358 -0.168430517914 0.738838737846 0.28511829607 0.237276199787 -0.254754557337 -0.159797430312 -0.306480187791 -0.495355947773 0.817356447873 -0.082830457295 0.144120765766 0.399419414395 0.22715870521 -0.102880765198 0.26688553892 -0.5550171236 0.0389419312277 -0.150801659665
_string_val_name_name_name_name_name_name_val_name_val_name 0.352485505449 -0.364811183653 -0.0812386649732 -0.762204207288 0.26032606143 0.435969441052 -0.565273095506 0.693297045357 -0.729563996262 0.0767909992975 0.295903698757 0.126559555914 0.567127795386 -0.328660728585 0.245622286131 -0.434122338259 -0.29005212021 0.511140258538 -0.265971270225 0.521635577254 0.188026996093 0.441870070163 -0.221768004687 -0.0244898253559 0.0931699055805 0.670056664388 0.0763298908641 -0.169231114074 0.48596129156 0.322696559285
ucomiss_reg_reg -0.237005040472 0.275265392594 -0.535327537735 0.0256760981513 -0.559551898112 -0.252188361546 0.024250400591 0.320459814694 0.28546623077 0.701806536236 0.344342306045 0.646397540835 0.57947795522 0.356811073561 -0.836446877281 0.435291812564 -0.0791287705747 0.635999945396 0.0900711078779 -0.58687540429 -0.066127657808 0.906416618251 0.232778359455 -0.590638170518 0.0773848519601 0.407741633891 0.572559076868 -0.527678021971 0.720683363499 0.428568347069
jns_name 0.0283451495885 -0.604051452413 -0.377587129718 -0.618016671244 0.035243444865 0.085973063381 -0.183114012821 0.646624673153 -0.682703312941 -0.0898479713445 -0.118087625894 0.753470269529 0.163974261161 -0.440537520633 0.344498366304 -0.5067283748 -0.234264726958 0.666022064558 0.0507370000129 0.195136486041 0.433290193894 0.007752013051 -0.399954258592 -0.104823839251 0.280996872344 0.624784988837 -0.216068594279 -0.497213368324 -0.062231558513 0.553013758812
_string_val_name_name_name_name 0.276326854338 -0.444401939364 0.0563242195093 -0.749787243358 0.381956291997 0.399787474914 -0.469513589196 0.596379212482 -0.609142026114 0.0810102118123 0.402444402062 0.120181901697 0.502062761295 -0.331666392177 0.19423482526 -0.348361146973 -0.199588001418 0.560680125101 -0.227150844976 0.647109891001 0.0716372745228 0.445960549181 -0.174517220361 -0.108435865337 0.0653992288037 0.668083044764 0.0363290755166 -0.0482229469487 0.527056530357 0.411235453935
divq_reg -0.174840360374 0.270256717064 -0.676035724623 0.707428628684 -0.146775886272 -0.162952016575 0.420245636038 0.250824852391 -0.109436880402 0.565953659025 0.226197811704 0.918986484802 0.82807541295 -0.230215606777 -0.773843391668 0.191435816225 -0.257358070757 -0.0909474829795 0.256982120553 -0.459102973681 0.0854512398605 0.437039158766 0.007864995921 -0.2441400944 -0.066512638352 0.696665161461 0.207989020776 -0.23525979011 0.621166647279 0.220239767591
mulss_reg_reg -0.17109456469 0.315341775834 -0.477820510971 0.465361553924 -0.41651463073 -0.0569163279623 0.18677376862 0.651783641615 0.157105874879 0.70097126229 -0.17070861383 0.743119779622 0.575519429728 -0.231505734041 -0.854375441655 0.358807003527 -0.273809781063 0.616554562391 0.121258361729 -0.546801991785 -0.600214459045 0.882551430017 0.248566170715 -0.687434740177 0.0814572452822 0.759046370388 0.48504849265 -0.531153376438 0.801073777424 0.134673946911
addq_name_reg 0.426775051902 -0.363833300852 -0.329123532209 0.154221543863 -0.197940267414 -0.012286725151 -0.408061121995 0.366074610828 0.122534750822 0.420142445549 0.316471897359 0.26620455433 0.310850225228 -0.18033291836 -0.437889841294 -0.09548818569 -0.110744507499 0.452332844214 -0.0571354987373 -0.0361283010337 -0.105339700628 0.602104634628 -0.148775749319 0.0309306134523 0.344076570081 0.688741758796 0.377929179329 0.0753585735195 0.69322723343 0.0976502756847
_string_val_val -0.362627560257 0.389551307919 -0.123183461499 -0.576961292967 -0.000990566796 -0.334394708207 -0.591658136599 0.339273792361 -0.515723664572 0.633963750051 0.0862225424577 -0.739066136369 0.261478277896 0.791216722567 -0.017407087444 0.152572992465 0.0577987261053 0.525579173043 -0.761490431715 -0.268442239504 0.28684475723 0.435450363632 0.0341535025977 0.282359894054 -0.405860365831 0.458022860892 0.052709784505 -0.289308256278 0.232648843799 -0.51257821963
_string_val_name_name_name_name_name_name 0.37523581894 -0.528748406347 0.0443719585147 -0.774494728139 0.399417091704 0.500605739338 -0.478185397348 0.652746848215 -0.650924813844 0.0108362164037 0.415336958686 0.22918232001 0.548402080243 -0.471275365622 0.233536929565 -0.432418212224 -0.254377372057 0.552682777468 -0.170063502946 0.730185328877 0.0738337695769 0.44625170262 -0.212413756813 -0.136298825265 0.131249347327 0.694833972654 0.0442816907299 -0.0483393250639 0.553583681478 0.504577439468
_string_val_reg_name -0.073594295972 0.0075408381315 -0.113299831987 -0.371184328871 0.037456331696 -0.0936650983138 -0.276494857339 0.498761821299 -0.261366419387 0.457836979948 0.297744423978 -0.0158905779635 0.42491529117 0.199498147268 -0.220509367908 0.210257701635 -0.13834642663 0.640290077052 -0.321400868555 0.112589563011 -0.0830140838062 0.559270767194 0.118516585025 -0.137150626339 -0.119223593736 0.649327135333 0.189283304981 -0.176888046041 0.533851580307 0.083667413279
_string_val_name_name_name_name_name_reg_reg_reg_reg_reg 0.220639415034 -0.141011800779 -0.290127924955 -0.250555638046 -0.0990860433983 0.115063929799 -0.194065346244 0.734310951092 -0.25235754946 0.334793516526 0.296704740585 0.474729999929 0.620626678808 -0.190973351475 -0.287394273722 0.134365919367 -0.389728686842 0.65071085764 -0.079768393447 0.199311679691 -0.17440034907 0.636363730878 0.111757594208 -0.304896253294 0.108895156697 0.779494811125 0.333666739095 -0.263285462051 0.679859752916 0.363112642351
_string_val_name_name_name_reg_name_val 0.207939749818 -0.200910717325 -0.137636100098 -0.582152251452 0.127214038775 0.230606795116 -0.449159757075 0.648442709414 -0.546462094226 0.23117218879 0.276635163853 0.111429111685 0.535457461275 -0.133634361483 0.0450543764824 -0.175401148759 -0.264209988437 0.559331527337 -0.274847504687 0.327281710634 0.082702134063 0.499693375644 -0.0823866741386 -0.0737651958169 0.0268408843783 0.673560768711 0.146783109366 -0.203369810897 0.512896201794 0.227718255386
shrq_reg 0.333778654499 -0.32394767034 -0.0948632569565 0.502091952528 -0.787049432048 0.0004366698955 0.517506286464 0.362739749843 0.48541918046 0.009716977227 0.567717553815 0.108292413215 -0.0935833163665 -0.069068100952 -0.94377681372 0.909207463736 -0.533450593047 0.226238730688 0.0461243901882 -0.38564458255 -0.0688070308525 0.656586098682 0.44486609213 -0.254269867193 -0.250529315264 0.764135896642 -0.058457567724 -0.740956515537 0.572460974693 -0.149711594107
_string_val_reg_name_reg -0.0461654711121 0.0762749838704 -0.243759689271 -0.203320543654 -0.127337725187 -0.147772807631 -0.181495957789 0.575473712351 -0.152979745902 0.515515451848 0.265866573026 0.16406693819 0.489841174569 0.183135334667 -0.375030833475 0.343692054196 -0.233095971289 0.668862413901 -0.24094126183 -0.0087415828802 -0.170533310674 0.627955666256 0.203385180773 -0.22125058677 -0.0719570028032 0.70227581661 0.300142119171 -0.254366412973 0.601593772966 0.111147354165
setge_reg 0.0630197770608 -0.089154497486 -0.571204509821 0.492910253104 0.068323353823 0.20199454409 0.0956036350575 0.448312699278 -0.094501764088 0.710015976836 -0.0428619595615 0.237987020127 0.7737248993 -0.31329204883 -0.423651412168 0.546856733933 0.042092371034 0.566209835082 -0.0994812245234 -0.326387613668 -0.119025722844 0.430832175385 0.765757696677 -0.261393643712 0.516962406825 0.819727446189 0.184300248143 0.001001444798 0.766387543611 -0.110959352275
rep_name_reg_reg -0.0469054587386 -0.217744402812 -0.217145478102 0.0838045652175 -0.395203746664 0.205834123411 0.0827905429687 0.791705910664 0.096810517581 0.112712651482 0.376921301109 0.794906868309 0.660602463185 -0.011136309637 -0.51918394909 0.246454555327 -0.433383144689 0.704239343143 0.115386892741 -0.0768959901332 -0.0495095402142 0.470923749737 0.157654854304 -0.199241036393 -0.0643552533463 0.629577274044 0.199066627994 -0.255661442143 0.558628369643 0.418579645097
movsd_reg_reg_name_reg 0.316355227437 0.217494481342 -0.600157488884 0.18014139238 -0.523910136102 -0.189887452032 -0.112714409202 0.803232219013 -0.0583375367034 0.565597271412 0.182109982931 0.736821193103 0.411614690698 -0.151479578899 -0.445014918533 0.527130492516 -0.587476500974 0.523073315864 -0.110283628086 -0.199994834295 -0.301515842583 0.541517128398 0.146413739978 -0.485892317206 0.068635575576 0.878525218321 0.423010918519 -0.309528204895 0.678451138288 0.414093993127
shrq_val_reg 0.20318811773 0.020006330027 -0.287720504447 0.125851585457 -0.687203451053 -0.062931167954 0.0201054703633 0.484141541182 -0.00885772808133 0.212173618149 0.265164945622 -0.165656897691 0.111523927176 0.221701058344 -0.566470290466 0.542647718264 -0.456986311718 0.259965722722 -0.274841117445 -0.513876219865 0.204929860602 0.577420214975 0.244960849851 0.0365347731964 -0.265278763084 0.66472971089 0.0319326368157 -0.751751318619 0.404396612665 -0.388718995481
leaq_name_reg_name_reg 0.179224545528 -0.0981174129348 -0.490058812032 -0.302245549302 -0.035183003513 0.246186694611 -0.23755538789 0.666683499963 -0.165979041106 0.402342219755 0.129324695178 0.453481144381 0.506684287854 -0.291473470423 -0.383900870993 0.0351184065456 -0.574226982228 0.560996727689 -0.0477647230439 0.293537226943 -0.204442233857 0.474534148913 -0.0404903174902 -0.36855564676 0.308923021045 0.602591656446 0.243048041417 -0.092956871789 0.59423355467 0.241807513055
_string_val_name_name_reg_name_reg_name_reg_name 0.252057332376 -0.2394564743 -0.195033686264 -0.394293685099 0.0383995384654 0.210917444739 -0.272578343575 0.704708885998 -0.35894244896 0.25250635194 0.328374654858 0.392896599354 0.594843072936 -0.252704838623 -0.146249789318 -0.0142467896487 -0.345255594226 0.624222676908 -0.11190150515 0.337987248918 -0.105158375256 0.583097424553 0.0255372002963 -0.254345418255 0.10725231585 0.752579665006 0.251684611727 -0.203086578321 0.641319194779 0.39152174728
_byte_val -0.265107753251 0.370590059147 -0.181018208201 0.14343014958 -0.345352380114 -0.343821868199 -0.929279655836 0.563644341322 -0.810509850677 0.451386389052 -0.133735297289 -0.562558704276 0.158157989452 0.769489477825 0.52733224051 -0.573421283366 0.194633663566 -0.126943626566 -0.14774590278 -0.59533932858 -0.0936198142005 0.288578262434 -0.145236861835 0.64954274639 -0.0930509777685 0.502726631896 0.0088189865375 -0.244181648171 -0.0471998785141 -0.591912769283
fldcw_reg 0.373173161199 0.642792779279 -0.219758440583 0.514610873332 0.059406503792 0.114005384739 -0.26275216889 0.90752921565 0.007889907904 0.58376251538 0.194367576654 0.58628523965 0.027432541633 0.135416328089 -0.511617122039 0.724220169218 0.162052037075 0.596746107761 -0.178114455889 0.0795689434265 -0.402060419622 0.079328270002 0.372640786608 -0.740979029573 0.175256396273 0.031969064541 0.277873269812 -0.521336121411 0.804551966876 0.112219626691
movss_reg_reg_name_reg 0.051081955391 0.214120237195 -0.261547198611 0.20868874908 -0.425599326361 -0.240580077391 -0.0398513220172 0.781369051621 -0.156845166984 0.483777325755 0.227510899262 0.619611769812 0.652487881352 -0.198623737506 -0.69060388841 0.540720001619 -0.404350443362 0.659642133825 0.0652462629347 -0.119138241038 -0.17883264163 0.515508302352 0.275000945058 -0.501974135296 0.293791501636 0.843582165519 0.447019540435 -0.473647993814 0.757921280579 0.372741888757
cvttss2si_reg_reg 0.322662265591 0.330675448657 -0.302282233927 0.446077516069 -0.368190847142 -0.568555432691 0.175353559706 0.713939895746 0.08715838263 0.435354108788 0.389833694603 0.353227674362 0.569948223594 -0.084874142714 -0.397940700233 0.635876416642 -0.53010236854 0.267473701597 0.151958265975 -0.558204098732 -0.38162715334 0.476631603363 0.179229021747 -0.220944124509 -0.24641780656 0.38904228258 0.586779279362 -0.599960364738 0.675285030568 0.0545266288927
_cfi_personality_name_name 0.380072235931 -0.328249336286 -0.0560343440588 -0.800578273379 0.416354027295 0.702182602868 -0.617516664857 0.443569206928 -0.819465419623 0.0796190090023 0.190276850698 0.046083070806 0.561260910489 -0.467782829334 0.162577367433 -0.423186449983 0.0507309985047 0.137067854599 0.00124605443255 0.627412031455 -0.270420698719 0.17243469257 -0.433638462989 -0.228792972968 0.23962499185 0.204399201277 0.156372808631 0.114797224656 0.444338039114 0.428983132985
_string_val_name_name_name_name_val_name_name 0.327099288412 -0.391341435557 -0.0353843701457 -0.758065219311 0.300869471619 0.423908785672 -0.533353260069 0.660991101065 -0.689423339546 0.0781974034691 0.331417266525 0.124433671175 0.545439450689 -0.329662616449 0.228493132507 -0.405535274497 -0.259897413946 0.527653547392 -0.253031128475 0.563460348503 0.149230422236 0.443233563169 -0.206017743245 -0.0524718386828 0.0839130133216 0.66939879118 0.0629962857483 -0.128895058366 0.499659704492 0.352209524168
_string_val_name_reg_name_reg_name_reg 0.147080987283 -0.103873641051 -0.245920901713 -0.280712810753 -0.0649504496247 0.0628816727711 -0.214672724018 0.675423668644 -0.254609766942 0.365554382381 0.296964661433 0.352074855456 0.571698831898 -0.0933554767891 -0.270673047269 0.153338864934 -0.326883121789 0.648105662493 -0.140176512224 0.177631150521 -0.151553782754 0.617090489957 0.113447341912 -0.262959846555 0.0518654690885 0.746952892177 0.297570880566 -0.241686108049 0.643357709764 0.293251335083
jne_name 0.419898342885 0.0265412028455 0.470200494825 -0.000592055895 -0.147831268968 0.736061374434 -0.741721580658 -0.044460925055 -0.182886770019 -0.476893685931 0.321181274487 -0.202298358123 0.330696718395 -0.852399102021 0.163100543068 -0.782181004968 0.259550794648 -0.191306954028 -0.475176753345 0.975152072469 0.513756569593 -0.119440253965 -0.128004080037 -0.129532884172 0.583645641581 0.606751528206 -0.34414586282 -0.0202659625965 0.203696498911 -0.003313298065
subq_reg_reg 0.0069084363658 0.563179820173 -0.446051339662 0.50505427589 -0.824170969017 -0.00117619488033 0.151555292343 0.842412745229 0.032873821066 0.312080518092 -0.201041421754 0.681627626821 0.327144785066 -0.109657158245 -0.748351010374 0.346540814224 -0.7141590781 0.391100376408 0.28190926097 -0.197627954615 -0.130370505625 0.839238832723 0.368364123622 -0.402611640558 0.240554758924 0.379865373571 0.681293716031 -0.29346696227 0.688265998898 -0.0300384151037
_string_val_name_name_name_name_reg_reg_reg 0.205401179001 -0.179197437301 -0.217650226464 -0.3438132965 -0.00753378957467 0.145123768309 -0.246842512661 0.691693233841 -0.312572368063 0.302749921025 0.31441465778 0.374753602066 0.584556743586 -0.18188290003 -0.201549015074 0.060235723499 -0.337090050921 0.634837337168 -0.124468174961 0.266717871852 -0.125778556366 0.598205453622 0.0646083743478 -0.258174053055 0.0826359395118 0.750078877082 0.272078508989 -0.220241924866 0.642225201439 0.347846008526
unpcklps_reg_reg 0.211452365926 0.470382050866 -0.501667634488 0.327221609369 -0.526403006573 -0.539444977741 -0.0676764185723 0.899716317925 -0.011322638959 0.71434614825 0.320296330929 0.446509893043 0.632390611061 -0.120079582167 -0.376856740841 0.846122580867 -0.61264822355 0.853428003961 -0.0840050325468 -0.431248669815 -0.152825586512 0.284877335691 0.227761508468 -0.0787055990337 -0.0224293179167 0.540487423798 0.224504813036 -0.349164595643 0.699326858368 0.3069916329
_string_val_reg_name_name_name_reg_name_reg_name_reg_name 0.271340488736 -0.235428415289 -0.22561840046 -0.360284953021 0.00410674356358 0.212335944592 -0.252623718095 0.729271657663 -0.340427559883 0.255967257419 0.32300969553 0.447420547608 0.615449622884 -0.274955548993 -0.175347612203 0.00419767999817 -0.373616298013 0.629505772079 -0.0864099469407 0.322101497103 -0.12431422633 0.598399555915 0.0393440167135 -0.276749359674 0.126536018527 0.767912829009 0.277380252464 -0.220319510277 0.659909968852 0.410073998881
_string_val_name_name_name_name_reg_reg_name 0.273002610603 -0.305086256648 -0.131637527137 -0.4901190498 0.130056593041 0.274819788033 -0.324920341796 0.684974175936 -0.429999048627 0.197648242217 0.34948793104 0.338340998971 0.577654002355 -0.293859163388 -0.0521534663824 -0.113321928992 -0.315606865815 0.606563889753 -0.133323579619 0.430437628403 -0.0589970593791 0.54758655367 -0.0319430623114 -0.220644861562 0.10615708862 0.734636234261 0.197029860148 -0.162953989167 0.615625489354 0.410461150566
movzwl_reg_reg_name_reg 0.20806477884 0.116661137393 -0.314964871324 0.171061231523 -0.543558432196 -0.196300786282 -0.0828850631962 0.686401018914 0.0131089825406 0.398845494207 0.307672625006 0.636543787771 0.754807734238 0.0517886074716 -0.563984416145 0.431638619781 -0.593009790747 0.410453482728 0.175938035267 0.0055005412672 -0.33385576573 0.7291360538 0.323265098359 -0.261123797263 0.0835303084362 0.893493270061 0.268723044547 -0.187328127963 0.773068989574 0.434544605045
cmovbe_reg_reg 0.118139051235 0.338368752702 -0.685283671299 0.100975028894 -0.513017424346 -0.550919981843 -0.119120365722 0.546310082121 -0.0340373082583 0.646291109992 -0.125070578234 0.296684494282 0.644645463604 0.352763323851 -0.951745425829 0.577903791698 -0.343708862408 0.52951076524 -0.0109466419088 -0.365364350582 -0.667727895186 0.676108466792 0.282119271607 -0.0618610013123 0.149218999675 0.430312179017 0.565574073661 -0.170293478461 0.847871146243 0.380084509918
movq_reg_name_reg_name 0.148121847609 -0.315958190784 -0.383705848635 -0.156896591193 -0.0268125180938 0.31844063216 -0.292336879591 0.880845088473 -0.131983685168 0.11590055268 0.104198144813 0.412284413268 0.494059604832 -0.35770000855 -0.197888232182 0.275574507541 -0.279846221044 0.416299438001 0.190549298817 0.316624097034 -0.369634999789 0.370748941243 -0.0909267810386 -0.21425873828 0.172357650282 0.601834903939 0.150475441776 -0.405222443409 0.571502808515 0.493769857401
movq_name_reg 0.0016988989909 -0.38307157115 -0.387148433432 -0.134666790232 0.0668839571407 0.384448757696 -0.385327738854 0.900018136796 -0.054737398949 0.0109863979243 -0.0237930245707 0.20711382953 0.344444426303 -0.338693947019 -0.115922569217 0.39501082708 -0.122797157108 0.256551564713 0.290216935291 0.365925003037 -0.46932934518 0.167974760258 -0.223796700931 -0.0979185192863 0.138626395862 0.440005740551 -0.0197799011417 -0.471047958977 0.450595454712 0.487726257743
xorl_reg_reg -0.108695075 -0.01725764055 -0.385104397763 0.295291908868 -0.240407547858 -0.130665355003 0.350931374081 0.320704943551 0.271191667342 0.635560884549 -0.0807340573117 0.681209778149 0.509000641758 0.224275641629 -0.946101508421 0.332705611484 -0.382447449235 0.226053382051 -0.21062563851 -0.516941832771 -0.121660579266 0.669929980455 0.513574842328 -0.580294168524 -0.090790920453 0.823433939933 0.565742644904 -0.558752623445 0.595464851795 0.265677133576
testq_reg_reg 0.351550839921 0.202613011129 -0.459534198218 0.118052080973 -0.60922812104 -0.027502725012 0.053591515667 0.28787949583 0.42162618707 0.393915804262 0.176983954447 0.468740837594 0.642020938607 0.345384949822 -0.795471415623 0.75643449507 -0.552555668526 0.854122000431 0.129420609255 -0.530640849782 -0.398153619437 0.277423072443 0.414202502653 -0.452732933078 -0.0503351991817 0.36003296791 0.352552635597 -0.291547255398 0.732937187277 0.0466894532037
jg_name -0.078984191667 -0.7021432944 0.333221189986 -0.47020860517 -0.063305922989 -0.0758924415075 -0.174072580816 0.322540115061 -0.616366295406 -0.128123915304 0.0191794825045 -0.127115246404 0.290917938301 -0.275893274526 0.622729922845 0.117460477121 0.023479850863 -0.129999278976 0.301488478107 0.483678688878 0.301505305978 0.288161454768 0.200013941576 -0.163648908294 -0.261306161413 0.0827791230195 -0.129488740655 0.0249796356879 0.47599215115 0.475119772292
_string_val_name_name_reg_name_reg_name_reg 0.205401179001 -0.179197437301 -0.217650226464 -0.3438132965 -0.00753378957467 0.145123768309 -0.246842512661 0.691693233841 -0.312572368063 0.302749921025 0.31441465778 0.374753602066 0.584556743586 -0.18188290003 -0.201549015074 0.060235723499 -0.337090050921 0.634837337168 -0.124468174961 0.266717871852 -0.125778556366 0.598205453622 0.0646083743478 -0.258174053055 0.0826359395118 0.750078877082 0.272078508989 -0.220241924866 0.642225201439 0.347846008526
_string_val_name_name_val 0.0512085489443 -0.0789843381666 -0.0705040066869 -0.685623648774 0.180125456253 0.120587388121 -0.556675210681 0.532304177583 -0.619943469556 0.300503942102 0.233339376898 -0.220966251843 0.431854981572 0.118689119158 0.130133044527 -0.182291967712 -0.132818957926 0.526823797652 -0.456414849771 0.2306993133 0.204276156234 0.440120283354 -0.109949244908 0.0814608544118 -0.11199633834 0.584848419065 0.058881685251 -0.193060337531 0.392855360215 0.006294426649
addsd_reg_reg -0.136948514531 0.042385260508 -0.65685510517 0.364288330637 -0.24466166905 -0.243977627836 0.0516192282963 0.424748682933 0.332313752764 0.58498646973 0.424517535871 0.340299004767 0.490257068069 0.198174815001 -0.647712242703 0.277621107679 -0.096456104063 0.391897730284 0.0777135940205 -0.167842534704 -0.113033356819 0.855397135158 0.266485334204 -0.663210694372 0.299625399369 0.687394596538 0.763880822794 -0.412884221014 0.545886296765 0.342201363275
sall_reg -0.160370415452 0.331989115164 0.0717579641925 0.0609583237745 -0.582244534121 -0.100708338195 0.107156679836 0.0709330859075 0.567853963174 0.36913924529 0.219181299704 0.422271066048 0.626233902607 0.359499050022 -0.0963577238155 0.592579846442 0.0712458026985 -0.0528251782165 0.422700484619 -0.474001033217 0.215037422214 0.75252329978 0.138152589111 -0.719203926753 0.488463625822 0.672835818406 -0.101687115027 0.206924212391 0.196391461198 0.583260368038
_string_val_name_name_name_name_reg_name_name_val 0.300744342404 -0.317086135319 -0.108405844972 -0.635445237659 0.192131129185 0.345097542615 -0.460167970021 0.683124118614 -0.592424310787 0.145000597067 0.312111056794 0.200380004338 0.565849976437 -0.284927946378 0.106332149683 -0.277238800603 -0.295117087544 0.553203368783 -0.219638299121 0.457707697008 0.0822463581982 0.489179733103 -0.131130012544 -0.102989697664 0.0872326480822 0.693865966234 0.131054394767 -0.172433540599 0.536949988403 0.339095283522
_uleb128_val -0.0394340346969 0.639360154948 -0.761742145095 -0.221080717285 -0.356229637819 -0.291597771507 -0.241943220229 0.244466854384 -0.525990278859 0.573969841793 -0.500421338855 -0.799471493232 0.209762830494 0.342458396125 0.242431616558 0.288161385992 -0.61838652056 0.125468603455 -0.336397531907 0.0671429667575 0.167704402304 0.268911418852 -0.49584382528 0.408023961165 -0.593471724708 -0.009947962278 0.310285748507 -0.117198479532 -0.457633857585 -0.0918736043115
andpd_reg_reg -0.266281927514 0.398591315029 -0.341723597967 0.411376240971 -0.23535699142 -0.0138945538537 -0.0555232871237 0.906111562956 0.0480080411567 0.355173906738 0.157082873289 0.860838722903 0.182817540181 -0.0647444407103 -0.732521960243 0.838284324977 -0.542871261687 0.396208841129 0.309603503565 -0.551632555673 -0.0721763352593 0.522152972925 0.641414978788 -0.536945592127 -0.221749614121 0.299838415951 0.211341545388 -0.23651998236 0.503314680865 -0.121851141951
_string_val_name_name_name_name_name_name_name_name_name_name_name_name_name_name_name_name_name 0.547025073249 -0.675244901633 0.0236127683661 -0.817407728023 0.429743743827 0.67571114597 -0.493246958875 0.750648531332 -0.723494918848 -0.111044933516 0.437729293876 0.418498836026 0.62888616052 -0.713754108974 0.301798479149 -0.578412062397 -0.349537857902 0.538792647367 -0.0709118036301 0.874474247294 0.0776487346709 0.446757390173 -0.278234056965 -0.184692387246 0.245620605816 0.741296110568 0.0580941276794 -0.0485414554745 0.599657154476 0.666697730131
setnb_reg 0.0421377012021 -0.249658132931 -0.599511113186 0.712819902489 -0.394800264228 -0.214745639082 -0.229308408156 0.532626812431 -0.15242015863 -0.011667748492 0.252573186366 0.89160759401 0.698902372346 0.545662010219 -0.938039810475 0.530479321832 -0.42256969785 0.751141972765 0.475448433836 -0.529697615567 -0.259765836502 0.408275864235 0.52954732485 -0.296157005599 -0.142001296408 0.425599793061 0.340960634392 0.015981904585 0.830441562425 0.0090020496275
_string_val_name_name_name_name_name_name_name_val_name_name 0.413315144496 -0.488953028492 -0.0244094837266 -0.780703210104 0.338601976421 0.518696722407 -0.526065150503 0.701205764653 -0.711135798918 0.00872661014633 0.362066607034 0.232371147118 0.580934597288 -0.469772533826 0.259230660001 -0.475298807867 -0.299609431453 0.527912844186 -0.18947371557 0.667448172004 0.132028630362 0.444206463111 -0.236039148976 -0.0943258052748 0.145134685716 0.695820782466 0.0642820984037 -0.108843408627 0.533036062079 0.460307992143
xorpd_reg_reg -0.253068404773 -0.0814496697663 -0.789937398102 0.373813777887 -0.327186016157 0.08874362186 -0.147879444009 0.260946172015 0.0271004493347 0.724880873463 0.149036547772 0.507792647054 0.706902841457 0.172089599931 -0.634145187402 0.887993700208 -0.495793988392 0.672555883249 0.07422217618 -0.0711808300977 -0.565614285917 0.694600259829 0.235179510444 -0.632276345683 0.13344424442 0.404011588447 0.760682636 -0.616272030025 0.475961931088 0.338525161024
_long_val -0.205445716464 0.436904233372 -0.272649679217 -0.552896116472 -0.580336359892 0.311729823762 -0.986049474515 0.218624357261 -0.0180010445015 0.155071297993 0.267053960812 -0.13153574162 0.599523894078 -0.013450595554 0.021038445248 0.35083113244 -0.606648874464 0.208803642208 -0.468502175099 -0.652939489973 -0.057971833361 0.159286121153 -0.018493025875 0.439402989734 -0.0231191778355 0.54514284398 -0.287813662088 -0.722790376397 0.199756517771 -0.472646468552
xorq_reg_reg 0.318308086617 0.251908061935 -0.266690700566 0.221811388533 -0.378575591302 -0.00618211263533 -0.0688889695733 0.848171442826 0.301190960631 0.640423304504 -0.00566240176933 0.86576801799 0.628201007493 -0.223331958439 -0.466562233335 0.764067032553 -0.359640869359 0.19664457848 0.379742830693 -0.488737739258 -0.0800446742367 0.868143246158 0.542423807085 -0.459196066437 0.369149016614 0.511292397597 0.637010024393 -0.570128137494 0.804771229968 -0.166003938357
negl_reg 0.104708934422 0.119756270181 -0.263501928273 0.273566490613 -0.249533323171 -0.301430737925 -0.362369314226 0.681340777229 -0.24378035698 0.382923641593 -0.353417879818 0.615609826099 0.266007373716 -0.234068110919 -0.676079156992 0.911038482841 -0.499274958362 0.100726753732 0.264944638719 -0.171405571413 0.092476821999 0.600270637631 0.638228590878 -0.474205407286 0.184242942646 0.22445397969 0.662162553236 -0.119171018976 0.128411853253 -0.239393099962
_string_val_name_reg_name_reg_name_reg_name 0.205401179001 -0.179197437301 -0.217650226464 -0.3438132965 -0.00753378957467 0.145123768309 -0.246842512661 0.691693233841 -0.312572368063 0.302749921025 0.31441465778 0.374753602066 0.584556743586 -0.18188290003 -0.201549015074 0.060235723499 -0.337090050921 0.634837337168 -0.124468174961 0.266717871852 -0.125778556366 0.598205453622 0.0646083743478 -0.258174053055 0.0826359395118 0.750078877082 0.272078508989 -0.220241924866 0.642225201439 0.347846008526
jb_name 0.431619378617 -0.79599948886 -0.384980841331 -0.539439882576 0.497501398519 0.264618470602 -0.244248438573 0.718471506893 -0.720088475306 -0.494900305506 -0.081805833766 0.0055422763255 0.452344707121 -0.596204838406 0.2102138395 -0.31895615128 0.0506775428795 0.0031509954665 -0.0324015586798 0.954863899832 0.370569344614 -0.139176556509 -0.281989149867 -0.148692003294 0.0191188971025 0.397885406019 -0.228910379698 0.236686468523 0.249038714872 0.29556588135
movw_reg_reg_reg 0.273284590324 0.452129012701 -0.454943847843 0.526073627213 -0.617450758583 -0.255593609301 0.257775211751 0.656192173544 0.316899178884 0.669066992807 0.330902146886 0.442674354565 0.798187471099 0.025177795075 -0.822507824474 0.793168619846 -0.589166074952 0.553825138356 0.0843782240562 -0.480927674856 -0.314411449442 0.590196365981 0.429181549481 -0.441569709066 -0.0469645164955 0.884265145047 0.674642223913 -0.522278684317 0.594509809094 0.166112122086
cmovl_reg_reg 0.150775350259 0.403616724817 -0.834643691472 0.303022586303 -0.742870737742 -0.329107859534 0.0242276699957 0.693060752624 0.3354031303 0.320124080515 -0.112278738281 0.394420772258 0.545919240005 -0.108913856091 -0.680707464107 0.690801399751 -0.350586465608 0.694573795997 -0.270745942424 -0.212723233767 -0.587042313881 0.67211539114 0.61865624409 -0.448657504294 -0.204800705105 0.941188721901 0.72709429658 -0.528235356178 0.403657000399 0.209582949648
movq_reg_reg_reg_name 0.0264392707256 -0.0893583159594 -0.538528707423 0.106453764747 -0.274475206802 0.0849877966574 -0.151796787148 0.892939392701 0.0793843398462 0.305083574535 0.0410662529444 0.47782709884 0.506484539049 -0.156142734506 -0.466800219827 0.587978282025 -0.318515954235 0.467191643348 0.206489027202 0.0219285352442 -0.489841694365 0.461862961156 0.082865804948 -0.281811282969 0.130019581888 0.629631661018 0.285563009688 -0.508340727667 0.619382290268 0.381062601729
_string_val_name_name_val_name_name 0.228566881459 -0.279785329346 -0.0479270974819 -0.732193229833 0.257746608988 0.315579715118 -0.541682528145 0.615031485536 -0.664609100264 0.157592595838 0.296389448801 0.00107655581143 0.504873568862 -0.169536996589 0.193364529657 -0.325805522074 -0.214512251082 0.527357208199 -0.325668171795 0.444617121645 0.16888961295 0.442121677521 -0.171707565268 -0.00463873400614 0.0139453877283 0.63920222971 0.0615267855707 -0.151811229496 0.461515295822 0.228668417911
_string_val_reg_val -0.256083213111 0.379966372646 -0.283787375726 -0.315687320422 -0.197371413276 -0.34184694238 -0.394118692347 0.47503566341 -0.316651011419 0.662030147401 0.0992556991475 -0.333325351576 0.383494885463 0.622833562992 -0.261334489518 0.333787110459 -0.109674492902 0.589972320107 -0.550893532519 -0.324848221239 0.0849810133867 0.55226158835 0.16133001789 0.0723573134173 -0.275117934141 0.572034781099 0.225426682362 -0.358051162384 0.39262726875 -0.329166885295
cmpw_reg_reg 0.0938158909568 0.164614413903 -0.302230805839 0.1306016906 -0.257695646617 -0.308407427531 0.145038529457 0.751877566248 -0.051024255307 0.697283068533 0.030390972312 0.301641436666 0.242553825767 -0.199483076257 -0.959960317653 0.678241450839 -0.294942872093 0.685965991261 0.218148033172 -0.227130546167 -0.405119102497 0.457626716488 0.194998300531 -0.242603240152 -0.0376325979587 0.554261666258 0.35048132244 -0.350063122819 0.435938343497 0.242142368898
movb_reg_reg_reg 0.159848976038 0.20865448291 -0.675657008733 0.598830125063 -0.637256260399 -0.101924205241 0.217581902071 0.68078753895 0.441462256757 0.785174224726 -0.126777610779 0.583199864536 0.494393668442 0.230190838158 -0.668054785998 0.82293397129 -0.651099538959 0.827227134734 -0.0396760427298 -0.369273601644 -0.255279045063 0.487321553629 0.634955415528 -0.396053833772 -0.102300366177 0.720732230457 0.461946659579 -0.662097832988 0.658941623191 0.00625924057525
movw_val_reg_reg_name 0.328711657981 0.276686201489 -0.343819219372 0.0321827160936 -0.34380021597 -0.00895542066874 -0.129259155409 0.658248459379 -0.15733099094 0.469487952389 0.259865555224 0.14588569418 0.730472725515 -0.020767162597 -0.351465720726 0.284036766856 -0.493474676583 0.457651846696 -0.131791575682 -0.244114476993 0.0191582637252 0.464860762384 0.138582726657 -0.16207441177 -0.0541890765472 0.772798826836 0.447168820396 -0.469372848152 0.441381943244 0.0722501936942
movq_reg_reg -0.201105395816 -0.00540511310933 -0.645186531412 0.304250469667 -0.345887190707 -0.004639301475 -0.151094251449 0.92017531051 0.297542642742 0.326291434349 -0.129012844351 0.316351638816 0.365152649997 -0.002765156945 -0.564109215292 0.915683784554 -0.187246712425 0.341371906957 0.316783149266 -0.125234266613 -0.669673836141 0.319831460113 0.065857609047 -0.210506093767 0.0680629485382 0.486333669016 0.205366045379 -0.642911766075 0.530394590966 0.299880831624
testb_reg_reg -0.0349790740722 0.018227353042 -0.392448434453 0.086795474502 -0.241729352504 -0.387691388128 0.462351187253 0.351608088834 -0.0686993874143 0.656409346806 0.171031790868 0.710893769558 0.550673449917 0.333707432037 -0.552508500337 0.692361230847 -0.731272991496 0.684824222918 0.259701164762 -0.0877420330943 -0.659636990453 0.365457248503 0.337815369974 -0.139591311435 0.150794786853 0.376635093784 0.209729961109 -0.40216096333 0.813026765026 0.189777263161
setp_reg -0.0177995664591 -0.09293948998 -0.462331560881 -0.0994591721915 0.0537065428585 -0.402325070259 0.588020556944 0.057116273424 0.429399860328 -0.104246472798 0.120482181058 0.008157712677 0.244587969908 -0.166467904454 -0.630778115506 0.34695530174 0.001961065118 0.241477620528 -0.0845307755863 -0.117081570462 -0.227171225315 0.502995177365 0.573076066997 -0.618468237282 -0.037930604708 0.923518219946 0.180232655615 -0.610102309854 0.648595517871 0.336221425214
fucomi_reg_reg 0.114872640184 -0.026906279933 -0.805803148017 0.152411238425 -0.471040146993 -0.332057508286 0.215535006032 0.347440661332 -0.00998865895967 0.701593599503 0.221837597576 0.806832882551 0.465101625481 -0.0127597426007 -0.595613439651 0.308296634906 -0.210068229229 0.405023861852 -0.0566675609678 -0.0760722240387 -0.0507544182533 0.61835494042 0.615143922605 -0.527150722788 0.0970995824868 0.723856383157 0.777742000775 -0.468013560305 0.337173647238 0.031039441425
_string_val_reg_name_val -0.0704740279395 0.147615536658 -0.225326865475 -0.422273292834 -0.0675372324558 -0.112865447382 -0.416135118238 0.544398481812 -0.408575444542 0.489686963957 0.17020748503 -0.155423566271 0.444279915788 0.320246393202 -0.138778943118 0.130111806772 -0.171488691116 0.577716002999 -0.440475121386 -0.06399624849 0.0840694616572 0.531234303267 0.0638433410784 0.0139083097236 -0.154334406734 0.612645176144 0.193969253164 -0.296178621789 0.440734841968 -0.106412829023
_string_val_name_name_name_name_name_name_name_name_name_name_name_name_name_val 0.477977036559 -0.562161723192 -0.0161783189123 -0.797681703199 0.366901355022 0.589787674958 -0.520599068328 0.731366762344 -0.727420143447 -0.0433764848458 0.385053612415 0.313324254075 0.607555957238 -0.574854971859 0.282283805622 -0.527621457895 -0.329393444583 0.528107316781 -0.141805655891 0.745439039629 0.119127286456 0.444936138068 -0.258555203274 -0.125716280219 0.191050940011 0.715637275931 0.0652464578952 -0.0938046713224 0.558068330269 0.541381843124
_string_val_name_name_name_name_reg_name_reg_name_reg 0.290230548773 -0.288759322754 -0.176529244283 -0.435595821225 0.0759813523164 0.264748634546 -0.293634932505 0.715358055946 -0.396881606058 0.211397977235 0.339796470649 0.407740869863 0.603259160586 -0.310650061108 -0.101004968245 -0.0751870276786 -0.351936493294 0.615537954877 -0.101619684396 0.396298557426 -0.0882873179833 0.570736309861 -0.00643012392764 -0.251212898872 0.1273929874 0.754625764217 0.234998695785 -0.189050385692 0.640577916602 0.427256442624
nop 0.849283607724 0.510635473877 0.907153274976 0.265194959262 -0.844991659964 0.458121131407 -0.228575949431 -0.472019491866 -0.492264373877 0.577765073003 0.905000009871 -0.894026412142 0.40258088404 -0.856494572558 -0.0122408323774 0.666415869833 -0.176784548576 0.0421362252099 -0.86279824604 0.907038867201 0.844016986688 0.0219100572057 0.330878112504 -0.254017397762 0.257365316274 0.177412133556 0.0915854744109 -0.396035293365 -0.721917098983 0.18863301903
addl_reg_reg -0.109278218702 -0.046074937535 -0.483094817534 0.358821270215 -0.594149387241 -0.0120743602497 0.456714275099 0.767458541957 0.45849090875 0.280835076809 0.00767962228167 0.534295063677 0.831519415631 0.34362610627 -0.460428414887 0.675796314187 -0.688648263413 0.742032218736 -0.121720581861 -0.372575547834 -0.420932443662 0.835717766608 0.429831579645 -0.0823196865873 0.107675851536 0.321924503097 0.33406716094 -0.307925773391 0.581010431023 -0.0596789835423
subss_reg_reg 0.193923377693 0.484753560797 -0.330938649029 0.171519676902 -0.441674941013 -0.571111581248 -0.0353751352107 0.521254448349 0.212163942753 0.506059063688 0.07656388166 0.404441781787 0.648862429434 -0.161974415689 -0.478680580651 0.423298147464 -0.154159990258 0.215669402639 0.381162827313 -0.125258902157 -0.553090431975 0.487204745778 0.131364709266 -0.588010802653 0.25695225485 0.69570153904 0.320111391352 -0.171140170066 0.46128887753 -0.130418926872
_cfi_def_cfa_val_val -0.0228532531515 0.25364803169 -0.276369821167 -0.593211915957 -0.346342597731 -0.0603782605407 -0.653003042321 0.524634760702 -0.7980716481 0.741774206177 -0.495012373315 -0.351893840031 0.173186708908 0.702341331368 -0.0510099065033 -0.223093571322 -0.0478895863843 0.28176233323 -0.848509703335 -0.656490756064 0.427267266461 0.405783447567 -0.158682762924 0.707570114663 0.0602909247507 0.0626889882847 -0.177986101431 -0.740969967388 -0.162249023157 -0.313410142934
_string_val_reg_name_reg_name_val 0.0547346287681 0.0439287775456 -0.269102610036 -0.355978435634 -0.0960572320243 -0.0179243355994 -0.340910967512 0.632309063005 -0.362654778815 0.42785405563 0.206201031846 0.0947089637706 0.522623474885 0.118401966331 -0.190795452693 0.120485584332 -0.269754727068 0.600060358695 -0.302897131245 0.0236234619444 -0.00283423644551 0.572284563111 0.0765675575701 -0.101142369275 -0.0465375671203 0.67891188268 0.254509025446 -0.299123064151 0.529914555468 0.0676580526659
_cfi_offset_val_val -0.256061319545 0.69270432539 -0.159801464363 -0.115379031266 -0.139007636821 -0.00725829756333 -0.398125104666 0.742666112728 -0.467329866512 0.416705080827 -0.345271285007 -0.183675514712 0.548107820682 0.654851258125 0.0115215109287 0.100457447507 -0.0634184844647 0.276540348997 -0.596953944646 -0.313936004174 0.415465519263 0.310050644325 -0.287490519402 0.0840250892577 -0.307025742081 0.491168846148 0.287927845538 -0.2395961034 -0.217840655305 -0.891218808653
mulq_reg 0.47353531971 0.52726229555 -0.739107883986 -0.248653499384 -0.762035596066 -0.466769616466 -0.022045658067 0.938785073246 -0.196643603197 0.762380476662 -0.371268360377 0.730025242978 0.624923836218 0.536494525508 -0.293201552096 0.442309576799 -0.502654576928 0.851901681896 -0.245772493203 -0.26093487733 -0.31001657721 0.724380184283 0.722543574878 -0.510372376372 -0.232004236006 0.483930925594 0.695957031797 -0.579495782443 0.110249017069 -0.315047139693
shrq_reg_reg 0.243702379109 -0.098894591285 -0.318441877441 0.49077283409 -0.786870938938 -0.121110101703 0.411170737779 0.535933592082 0.417135102986 0.255221097968 0.424596758949 0.366827276411 0.187459358478 -0.00681737254667 -0.96022344106 0.898614797305 -0.559665112006 0.411876407559 0.0577153151485 -0.421785110515 -0.219408093283 0.738622486622 0.477530582675 -0.35539672096 -0.127983089867 0.814114111667 0.208887413495 -0.682064303926 0.672494830996 -0.0261186901687
movl_reg_name_reg_name 0.476640949281 -0.0283022334984 -0.373590340573 -0.187217877621 -0.192895828881 -0.0204322273414 -0.17071943845 0.703014329853 -0.377400509486 0.36342992744 0.316507289201 0.635748647702 0.684234172193 -0.492413104815 -0.220635745646 -0.0743402657262 -0.550627164591 0.655663608251 -0.0895984861079 0.333143446133 -0.271294418311 0.698018336497 0.160018086362 -0.406038994334 0.260627186537 0.842533060587 0.511948490517 -0.246575566359 0.476218495009 0.434844118532
imulq_reg -0.314597133931 0.521988094253 -0.307290031431 0.027113655658 -0.015766044501 0.117982165044 -0.353719129553 0.14402383458 0.378956150013 0.56337569097 -0.219226798551 0.630689297179 0.061891775177 -0.231034879792 -0.153528401197 0.614645511833 -0.265129192931 0.301606649478 -0.310282817984 0.078499644906 -0.341214775781 0.163556388233 -0.0812343555295 -0.292003173806 0.364234060169 0.614511969426 0.787388662375 -0.51831157102 0.392221380835 -0.0429240055175
_string_val_name_name_name_name_name_name_val 0.327099288412 -0.391341435557 -0.0353843701457 -0.758065219311 0.300869471619 0.423908785672 -0.533353260069 0.660991101065 -0.689423339546 0.0781974034691 0.331417266525 0.124433671175 0.545439450689 -0.329662616449 0.228493132507 -0.405535274497 -0.259897413946 0.527653547392 -0.253031128475 0.563460348503 0.149230422236 0.443233563169 -0.206017743245 -0.0524718386828 0.0839130133216 0.66939879118 0.0629962857483 -0.128895058366 0.499659704492 0.352209524168
_string_val_name_val_val -0.094782584767 0.218956089445 -0.206894041679 -0.641226042014 -0.007736739725 -0.0779580871322 -0.650774278688 0.513323251272 -0.664171143182 0.463858476065 0.074548397034 -0.474914070733 0.398718657007 0.457357451736 0.0974729472388 -0.0834684406528 -0.109881410943 0.486569592097 -0.640008980942 -0.1192509141 0.338672233988 0.434512940279 -0.0756984986162 0.249067206217 -0.236711810664 0.523014535677 0.087796387156 -0.337990830605 0.279875910969 -0.32397301221
_string_val_name_name_name_name_name_name_name_reg_name_reg 0.372742636139 -0.424261644309 -0.0965993514701 -0.579743582971 0.210492317487 0.406879974177 -0.369740461798 0.719193070806 -0.516567580728 0.0983147392073 0.37561960542 0.392801642965 0.605095511037 -0.44291994403 0.0487457108339 -0.256138798739 -0.341391520354 0.587095600956 -0.0996930539281 0.567681131928 -0.0241419808495 0.522471205987 -0.105483138275 -0.220455572434 0.161817742189 0.744748864776 0.164807279204 -0.134387606728 0.620010400725 0.503996711941
ret -0.789383041112 0.181936502189 0.0556094327284 -0.925708044181 0.0576987273391 0.333496546457 -0.431643465147 0.905802907511 0.736478566888 0.905370259524 0.845061494702 0.396251495052 -0.583751771071 -0.138683970421 -0.476025856705 0.478792227256 -0.925790631913 0.795140426924 0.37706906579 0.719172437472 0.944139784045 -0.732571035774 0.61136294614 -0.685176034282 0.10137767704 -0.469730142167 0.102955397112 0.072839270793 -0.534495582711 0.808522277413
movl_val_name_reg_name 0.452332392454 0.0430383192888 -0.355157516777 -0.406170626801 -0.13309533615 0.014475132908 -0.4053585989 0.671939099313 -0.632996208126 0.337601439548 0.220848201206 0.316258143241 0.638672913411 -0.355302046281 0.0156161447108 -0.287920513151 -0.489019884419 0.564517197349 -0.289132345664 0.277888780524 -0.0166916459799 0.601296973509 0.0204762466674 -0.17088009784 0.178249782607 0.752902420121 0.40577562451 -0.288387775175 0.31535956401 0.217283935345
_string_val_name_reg_name_reg_name_val 0.131888139265 -0.0592857955595 -0.23440038684 -0.41755827899 -0.027575141668 0.084698772927 -0.361322199299 0.656001649556 -0.414357078592 0.349411577449 0.237177731435 0.152393290168 0.54322304516 -0.00766106520512 -0.123015615796 0.0198512102932 -0.288378571681 0.591139155679 -0.264885174447 0.143096984515 0.00757294995257 0.55663963809 0.026233692103 -0.115985536247 0.000379591632 0.690933741885 0.231212839311 -0.267818738558 0.54282087789 0.157276220591
sarq_val_reg 0.0787228164057 0.0771980315193 -0.499434244442 -0.0263924163569 -0.113436898827 -0.0275284302207 -0.401786002244 0.675157623961 -0.064840468643 0.324773276417 0.130648584833 -0.211576231885 0.677560005713 0.0311654470907 -0.264889454213 0.258213551845 -0.179088079754 0.663962392879 -0.215039180056 -0.533613298425 -0.0992249761453 0.249242411516 0.385965825722 0.0268813248336 0.211741395053 0.266955418507 0.641253852016 -0.686154615527 0.620002838504 0.07931315856
_string_val_name_reg_name_reg_name 0.159014009991 -0.168885813605 -0.171681156471 -0.387691011891 0.038130050817 0.12389386101 -0.273697347508 0.645866867513 -0.331063583368 0.311172245657 0.319623160321 0.276100262978 0.546292278146 -0.123503985511 -0.167466811773 0.049897350718 -0.286138689198 0.628813362663 -0.171758466123 0.273587910087 -0.0988314348415 0.576289808165 0.0521027387901 -0.220861191993 0.0425449131114 0.723078942242 0.233855666942 -0.195601283384 0.610614162073 0.303563366137
andq_reg_reg 0.228195070903 0.325403312216 -0.216792497067 0.204233379818 -0.72016890312 -0.516290654533 -0.0828706152687 0.394723798708 -0.102151201261 0.212028692614 -0.073019739654 0.704891430946 0.296763182577 0.193710753423 -0.594302581048 0.799624297241 -0.654865311689 0.617467118247 -0.260929587776 -0.626849527594 -0.398101358888 0.675342776772 0.556036663082 -0.698127999362 0.016576181547 0.874582332066 0.468479129944 -0.673835079857 0.821300876448 -0.116836752844
_string_val_name_reg_name_reg 0.0735225595311 -0.0667354813238 -0.201713878471 -0.310869983459 -0.0308148558512 0.0106994157428 -0.235280101791 0.616536386196 -0.256861984424 0.396315248237 0.297224582281 0.229419710983 0.522770984989 0.00426239789667 -0.253951820815 0.172311810501 -0.264037556736 0.645500467346 -0.200584631001 0.155950621351 -0.128707216438 0.597817249036 0.115137089616 -0.221023439817 -0.00516421851967 0.714410973229 0.261475022038 -0.220086754046 0.606855666611 0.223390027815
salq_reg 0.479098996404 0.399566609603 -0.0940509843365 -0.0296700108835 -0.475790573746 0.176362496655 0.202427189238 0.05422455874 0.58966348506 0.391561584599 0.170172539302 0.918513632411 0.0056820992495 -0.365221225446 -0.713205983771 0.558993890148 0.179034643687 0.806236155999 -0.162011998139 -0.28629959197 -0.366277493196 0.42246153236 0.0821957153405 -0.439411807 0.105378027601 0.888983159591 -0.025042628706 -0.104134495506 0.778169482324 0.397611400211
popq_reg 0.253243977157 0.515833955675 -0.59509208964 -0.174656263786 -0.348895472401 0.226450183423 -0.276146526635 0.467981513664 -0.03577935372 -0.103613527504 0.162584189765 0.380370030435 0.298376719851 -0.0924580899175 -0.466879975073 0.473731451629 -0.559930600502 0.063862939378 0.153343578035 -0.632940283966 -0.226717567456 0.829240982539 0.273467975369 -0.244468006006 -0.265337943049 0.567546336726 0.71542024249 0.001336221606 -0.026884127206 -0.010694048385
_string_val_name_name_name_name_name_name_name_name_name_name_name 0.489361547327 -0.626071252865 0.0305808881363 -0.803003364425 0.419564168289 0.616934505982 -0.488191329831 0.717786427908 -0.699135722763 -0.0701337782985 0.43021298556 0.354952033447 0.601870525183 -0.632362642674 0.278885511457 -0.529407133668 -0.31759587664 0.54345506866 -0.104193492911 0.82604160335 0.076368186947 0.446587648896 -0.256140529641 -0.168448394414 0.207230253316 0.725700427912 0.0534577852068 -0.0484736075045 0.584191932771 0.612279730468
movl_reg_reg_reg_name 0.354958372398 0.198297641326 -0.528413199362 0.0761324783186 -0.440558517589 -0.253885062844 -0.0301793460076 0.715108634081 -0.166032484471 0.552612949295 0.253375397333 0.701291333274 0.696659106409 -0.290855830771 -0.489547733291 0.238063508758 -0.589296897782 0.706555813598 -0.073658757723 0.0384478843432 -0.391501112888 0.78913235641 0.333810672349 -0.473591539022 0.218289118143 0.870329817666 0.64703605843 -0.349693850618 0.524097976761 0.32213686286
orq_val_reg 0.0126906276744 0.599086234983 -0.452530104979 -0.142126993873 -0.126773103381 -0.0255852323623 -0.155329621022 0.800373279633 -0.448248101168 0.68704296057 0.0568817035713 0.273017966327 0.417104325503 0.519638263861 -0.351574651139 0.515314335269 -0.034770761073 0.486810146666 -0.550509666909 -0.098738782433 0.393078222517 0.689418717408 0.316951139005 -0.306602276611 0.176479421131 0.737282332223 0.650959721017 -0.665060915328 0.321945872039 -0.309270703896
unpcklpd_reg_reg -0.269919463173 0.398637732565 -0.770576256305 0.041862523496 -0.738455835805 -0.39608876028 0.410575283134 0.912892353398 0.0282623834387 0.551444297173 0.396394842243 0.334005989956 0.620757030019 0.0528288160872 -0.781798832385 0.37195399137 -0.557774920322 0.294369537058 0.30815375571 -0.310137924536 -0.539069504435 0.631097624006 0.168647138555 -0.651397602153 -0.062943797927 0.469505444995 0.5558984686 -0.29433985759 0.70553730753 0.0847149301757
movabsq_val_reg 0.173511515636 0.27545826548 -0.706656151425 0.256624866028 -0.367958822618 -0.448631611958 -0.242728378599 0.632923150046 -0.0996989319567 0.72664957036 -0.135490650292 -0.114939961598 0.328210699231 0.616431591648 -0.137657647904 0.468484788308 -0.187248780169 0.286437382548 -0.127092720999 -0.221879739439 0.405405086738 0.119955953232 -0.000397855069333 -0.032038287866 -0.305457429105 0.536777244728 0.385572768961 -0.772531210561 0.0153225704516 -0.217166319619
fldt_reg -0.149836452157 0.438352001468 -0.134964740609 0.387544905256 -0.756395781524 -0.501359934375 -0.026429363334 0.793390325594 0.339178150079 0.245805257956 -0.105338892033 0.693912405419 -0.096313555789 0.463557239025 -0.756612753762 0.48226958779 -0.0027184990015 0.551557024179 -0.139912045453 -0.738430601541 -0.362296209003 0.476282094764 0.703992830406 -0.687791706412 0.522759648074 0.0201080557745 0.024695351016 -0.340723496256 0.505101660505 0.324102977936
testl_reg_reg -0.197017684341 0.49754251241 -0.416184380903 0.194364426962 -0.441376149602 -0.46484459432 -0.091377455974 0.721666672175 0.417035777515 0.384206754144 0.183251902696 0.886810417597 0.635753409346 -0.250380727515 -0.514462145032 0.772237979119 -0.679018204632 0.441226396237 0.0088730951912 -0.395274049485 -0.307612863309 0.632180490227 0.127515109922 -0.509130935868 0.0504852218603 0.283692383764 0.199889338625 -0.629682243112 0.667835470404 -0.184682556284
cltq -0.162825267709 0.268536770045 -0.939463160312 0.419498514594 0.319894064162 0.937005700899 0.979653134418 -0.644160768371 0.695464265261 -0.53881439727 0.176179834154 -0.370241960637 0.146358463802 -0.157646449927 0.305757922337 -0.550133667414 0.11147780172 -0.0597804648875 0.61430432155 -0.667709787 0.427394066602 0.584840790407 0.143060443757 -0.890336248903 -0.369765295075 0.339982813698 0.220792266249 0.802123811511 0.0603867626724 0.511410245793
_string_val_name_name_reg_val 0.0532654288415 -0.00728502066783 -0.186353191974 -0.493330607775 0.0190188880912 0.0397888826173 -0.430812735499 0.590640360746 -0.469858399957 0.374791508327 0.217508675618 -0.0368223760683 0.484803269338 0.118521613342 -0.0570752455178 -0.00567172901983 -0.212698156592 0.569545124927 -0.366862847298 0.109905066676 0.0834617605042 0.517216113212 -0.00114777679583 -0.0250576927388 -0.0738120551283 0.63971877284 0.172997633698 -0.254930261393 0.472806557446 0.0420898751588
sarl_reg -0.145382332805 0.417995408656 -0.257541586817 -0.0769457009165 -0.849532774223 0.086239563245 -0.128969781605 0.827526501676 0.0325440937265 0.187246302252 0.0343722460069 0.0459423222565 0.593578750039 -0.259008369385 -0.6725706687 0.332348728277 -0.372673030558 0.804398371184 -0.443349157563 -0.565080486203 -0.538254954128 0.713818673023 0.419459679217 -0.066459428254 -0.078575503732 0.787445197266 0.294370753642 0.002812950352 0.106046720298 0.185114917824
cltd -0.748174094491 0.349562302913 -0.406995674894 -0.983211459618 0.426895957559 -0.311752505 -0.463750018547 0.0909517765207 0.616144418851 -0.0428445217082 0.379087042737 0.401650999249 0.208889661841 -0.809289844524 -0.828441036136 -0.37909444213 -0.797398763693 0.279122233606 -0.658785630531 0.226359804678 0.733703627829 -0.0477448667144 -0.866343874815 0.659147245155 0.462913764642 -0.873838665019 -0.625610727052 -0.646687076076 -0.824069375108 0.878172261001
movswl_reg_reg 0.058089571813 0.285669991741 -0.194462313449 0.26616086223 -0.805036594932 -0.2964278215 0.0576228838743 0.360102256131 0.432346705459 0.293970241119 0.390817692726 0.80618542062 0.705615876632 0.226651251076 -0.416717535188 0.462195207021 -0.514601513652 0.341183141009 -0.10396761865 -0.51071209434 -0.509750942578 0.822142646907 0.15452511938 -0.447504956543 0.376134658981 0.555793171565 0.490906305105 -0.107660363741 0.446840896855 -0.151794182309
shrb_val_reg 0.116192273738 0.401727456744 -0.19120312511 -0.148610811698 -0.519638187687 -0.333391171541 0.0378624284577 0.264611416725 -0.10864779443 0.426273968464 0.144776221089 -0.248331749254 0.400289704592 0.107960041454 -0.083020795619 0.24758644011 -0.0888856860973 0.323000492798 -0.142652115268 -0.510962578994 0.20403695862 0.108908758715 0.158224674138 0.204405309878 -0.145481737231 0.76673901573 0.199684280077 -0.617161621183 0.565904984959 0.000921573951
orq_reg_reg 0.0532048890535 0.480185313671 -0.483251477973 0.222794254761 -0.226440591266 -0.0837641661113 0.235735646393 0.852165330533 -0.022255270101 0.73009044039 0.216313516898 0.805502140429 0.493039756805 0.29111983297 -0.745327801733 0.87128141431 -0.137449561361 0.638720831503 -0.217953234316 -0.00664767308333 -0.0312597313683 0.850620989055 0.549520871829 -0.698533770767 0.313775094348 0.886666733 0.827914497697 -0.595373900635 0.59004409037 0.0533296014163
cvttss2siq_reg_reg 0.00404660662913 0.179253962814 -0.729289011421 0.499229802147 -0.576792323988 0.0407682699487 -0.043994554261 0.765871829581 -0.052839787877 0.407706423697 0.215468950442 0.616357620864 0.599908619393 0.362821310168 -0.711891564962 0.264180896816 -0.659435928215 0.251363385962 0.0772571972791 -0.600956817778 -0.0372712212133 0.777534193617 0.236760536952 -0.489980015863 0.298463191324 0.597893385128 0.502879749217 -0.279121970268 0.426248974604 0.399616092285
cmpl_val_reg 0.129359117324 0.333892248531 -0.210997965935 -0.325921197643 -0.558249974933 -0.375092634195 -0.330733328525 0.657086922449 -0.224053181686 0.482876037819 0.0983582105957 0.310710771638 0.158287199289 0.363633444077 -0.54397959761 0.440586868401 -0.536408756965 0.401560148119 -0.198534062693 -0.387362178638 0.215545803402 0.429724830902 0.123979521933 -0.0759318975863 0.0402292960713 0.562849444703 0.168813934072 -0.236630865305 0.356952679869 -0.087488959658
rep_name -0.157360745805 -0.78670037245 0.331308162205 -0.30052546678 -0.0038935406105 0.775871891722 -0.0329185544725 0.701090544769 -0.086945912877 -0.520804036487 0.615487433002 0.705916733815 0.571660218204 -0.139956703538 -0.045251202438 -0.384520353789 -0.254672139454 0.625326924985 0.149876620413 0.340274186179 0.421591137716 0.0391522369715 -0.227549855158 0.159168355705 -0.245819867621 0.34508400637 -0.345444119945 0.0529569964168 0.244694195685 0.616092172485
imull_reg 0.0690545543822 0.202458878946 -0.740602470233 0.0493833701865 -0.701151002792 -0.560981000334 0.437144177681 0.671245094612 -0.053058399012 0.463211946751 0.288729178262 0.871028113512 0.425955202215 -0.420528357935 -0.430752366712 0.594728071175 -0.335022282746 0.33073095652 0.311599083688 0.201772264157 -0.511915084039 0.544686538949 0.214788844815 -0.422084479381 -0.334448270915 0.718603140918 0.382759019257 -0.250523224346 0.673808600958 0.197863108236
setb_reg 0.215596801007 0.585563004342 -0.382113981538 -0.217655528292 -0.81537780555 -0.650234840223 -0.157125986173 0.828792650576 0.0187241937515 0.444601454603 -0.174571156246 0.322845636881 -0.0990648767825 -0.361241352274 -0.898773264118 0.632720799927 -0.722003707735 0.493757598373 0.245868010103 -0.07321187846 0.228591645204 0.55848152732 0.374348183457 -0.12098655364 0.308499116827 0.197290704033 0.105497369692 0.048612879661 0.0492466347495 0.171563813093
divsd_reg_reg -0.269198355708 0.489159159353 -0.571560613679 0.52311729707 -0.772314464376 -0.108175345125 0.0962519333693 0.389773721183 0.419460683218 0.282204196591 -0.101737948589 0.725639606025 0.365211928861 -0.0238748796263 -0.709252098331 0.561581319612 -0.36672204082 0.655111917952 0.314301041954 -0.100245492592 -0.601373452727 0.684377530778 0.422917034374 -0.435392999653 0.140071532202 0.878860086575 0.707379187308 -0.159847345962 0.329831960762 -0.0427583920743
movss_reg_reg_reg_name 0.051081955391 0.214120237195 -0.261547198611 0.20868874908 -0.425599326361 -0.240580077391 -0.0398513220172 0.781369051621 -0.156845166984 0.483777325755 0.227510899262 0.619611769812 0.652487881352 -0.198623737506 -0.69060388841 0.540720001619 -0.404350443362 0.659642133825 0.0652462629347 -0.119138241038 -0.17883264163 0.515508302352 0.275000945058 -0.501974135296 0.293791501636 0.843582165519 0.447019540435 -0.473647993814 0.757921280579 0.372741888757
sarl_reg_reg -0.0757382790939 0.395734128046 -0.426894097348 0.104747731794 -0.828526500388 -0.0639081728033 -0.0198133076003 0.845791426637 0.115218378497 0.373573981319 0.0690332204103 0.325260549106 0.645567402748 -0.133444218168 -0.779419344381 0.514042306999 -0.452480070347 0.79731616789 -0.268600383352 -0.541409046283 -0.532373375467 0.776777536183 0.460592974067 -0.230189761667 -0.013347215512 0.829653645417 0.444106294406 -0.186217993333 0.361551994732 0.197098984452
sall_reg_reg -0.0857303341919 0.338396599051 -0.207361063342 0.196683748255 -0.650334340319 -0.188540107097 0.137604333361 0.341395816125 0.472091624795 0.494835943344 0.192239256208 0.5761463783 0.66733750446 0.278894061436 -0.395277381124 0.687529719109 -0.156534181509 0.225833801623 0.308766044769 -0.48068941096 -0.0301784579057 0.802580620688 0.273054913996 -0.665352760666 0.364678870857 0.753247392844 0.180067715293 -0.0501438186397 0.421781821999 0.462529284594
_string_val_name_name_name_name_name_name_name_reg_name_reg_name_reg_name_reg 0.371496044739 -0.372018263291 -0.167085006462 -0.482368010387 0.116029930379 0.360017091597 -0.315517994023 0.752416182102 -0.44938896417 0.142054000609 0.355760928787 0.474611304443 0.633442226435 -0.428742233234 -0.0436498985318 -0.167999091996 -0.384898594503 0.604302012701 -0.0645078294193 0.486429033454 -0.0731298560628 0.56058095767 -0.0520178290066 -0.262533946018 0.17710193962 0.769706310838 0.225070073441 -0.17741174756 0.653223760349 0.503706348178
fistpq_reg 0.025251415065 0.150258235938 -0.602609117286 0.053705988751 -0.577731212167 -0.502253285926 -0.231807790041 0.884503055392 0.223563824631 0.491196001693 -0.277086406622 0.934541246221 0.279675498695 0.516574363542 -0.371021245464 0.335637044344 -0.172717008712 -0.073399665971 0.535788913726 -0.233122994863 -0.471411382652 0.0660176362235 0.646014123655 -0.507292980361 0.309713908172 0.8841125593 0.620785084071 -0.557980273891 0.361592522752 -0.313115470781
_string_val_name_name_name_reg 0.174924706934 -0.255568710344 -0.0726948294808 -0.530328613409 0.175570718073 0.205243445328 -0.352396845494 0.606457799339 -0.433002005269 0.238662730024 0.349834492171 0.17480080634 0.512416873142 -0.16370199714 -0.0298584977778 -0.0880246682362 -0.231812779077 0.603090296223 -0.213867737989 0.401530256176 -0.0285349709577 0.521888899108 -0.0296900653725 -0.164729652577 0.030117505142 0.691247008997 0.148902048777 -0.134154850497 0.566956098484 0.317312740875
cvttsd2si_reg_reg 0.322503972058 0.534149986497 -0.47948103757 0.137171610273 -0.663500941415 -0.342561409487 0.163407416302 0.594828910886 -0.0630571427723 0.21976876319 -0.072274582819 0.397298117891 0.668331678082 -0.033277186223 -0.507352450261 0.912726860432 -0.632619267036 0.58376117188 -0.221000932609 -0.0325042233753 -0.0318859285923 0.562354831542 0.503167587376 -0.26571627814 -0.045428532016 0.561377214774 0.339086983458 -0.376926232901 0.534931712461 0.140869855544
movl_reg_reg 0.346426440304 0.474021482366 -0.62832735131 0.253714992287 -0.622692708685 -0.569427400644 0.0516014837853 0.62379071281 -0.111485397787 0.738840392282 0.22483572963 0.688792029539 0.682110262264 -0.227286984054 -0.602021737732 0.332492495775 -0.638548285004 0.740312190708 -0.15012982561 -0.097702018115 -0.505772867011 0.865280452203 0.484099054715 -0.530139853856 0.215178842297 0.887497263429 0.807821126616 -0.378500304326 0.371587401788 0.201671266842
orl_reg_reg -0.227975117087 0.292498485519 -0.623408403758 0.552678870442 -0.442069223485 -0.572225206846 0.368892529399 0.316949098071 -0.0304203392963 0.42235816615 0.0517690423347 0.734267949938 0.80207616059 -0.104245266302 -0.940299403191 0.725698983475 -0.142848628662 0.458072286834 0.0300039890207 -0.022063627738 -0.349003890525 0.558140884014 0.0486599470993 -0.421086518092 -0.118884555023 0.562772690235 0.404238480363 -0.6999511457 0.705865897565 0.167944066928
_string_val_name_name_name_val_name_name 0.28399136037 -0.34253563909 -0.0408718133553 -0.746746223915 0.282003219218 0.376514817305 -0.536997314852 0.640883769271 -0.67856710986 0.11293280013 0.316092596271 0.0704649332034 0.52769187739 -0.25960765776 0.21312436876 -0.370653507812 -0.240041405193 0.527523898995 -0.284809834928 0.511466436752 0.157831318173 0.442747113198 -0.19100704038 -0.0315448553867 0.0533021771245 0.656187795537 0.0623533794206 -0.138920883235 0.482971525699 0.298160290181
shrl_reg 0.337958937085 0.630125614536 -0.125737923949 -0.122176676783 -0.141392283758 -0.133621093652 -0.0206153500775 0.608467171552 0.136392175624 0.608633385957 0.451269882962 0.410092442313 0.263265893444 0.536015046938 -0.948872199348 0.706385731247 -0.0398172512175 -0.077168548164 0.00757793026185 -0.316287533819 -0.077813014438 0.234633556611 -0.062720874629 -0.620751963838 0.125219222848 0.693645851487 0.870482939413 0.0887401311075 0.55950560998 -0.379059334206
_string_val_name_name_name_name_name_name_name_val 0.361585630846 -0.430386072731 -0.0309944155781 -0.767120415628 0.315962473539 0.461823960366 -0.530438016243 0.6770769665 -0.698108323295 0.05040908614 0.343677002729 0.167608661552 0.559637509329 -0.3857065834 0.240788143505 -0.433440687845 -0.275782220949 0.52775726611 -0.227608163313 0.605055477903 0.142349705487 0.443622723146 -0.218026305538 -0.0692134253196 0.108401682279 0.679967587694 0.0635106108104 -0.12087439847 0.513010247527 0.395448911358
_string_val_name_name_name_val 0.154667576245 -0.196118249688 -0.057334142984 -0.712789237725 0.225404462015 0.234332912203 -0.547929479202 0.580561773889 -0.645998420803 0.217138990115 0.270118585508 -0.0914412807112 0.474449157491 -0.0494427816948 0.16701807752 -0.266008207757 -0.180473378933 0.527134953805 -0.380145954285 0.355484701501 0.183634005985 0.441287763285 -0.145974931785 0.0312360945013 -0.0385303314667 0.616554808608 0.0604246604375 -0.168998357844 0.432906989319 0.136012588219
leal_reg_reg_reg -0.174888445715 0.072311521012 -0.687365019555 0.370520976454 -0.83451500312 -0.341533197165 0.253892340238 0.532298906438 0.0840062212048 0.76882651409 0.332950555647 0.49008726709 0.7638867911 0.310753484534 -0.830778897777 0.698155642022 -0.612251380465 0.835530148099 0.0157423237167 -0.542129975154 -0.19064930371 0.474251373074 0.50790511538 -0.437193172494 -0.066476400511 0.673326229028 0.403744843862 -0.408271529423 0.794590882681 0.127745588801
fildl_reg 0.0926757186334 0.104615766738 -0.0930994925175 0.613969723382 -0.02556900511 -0.0766341806585 0.110426241245 0.0364521593185 0.542987830748 0.176955232835 -0.321552822993 0.40074720305 0.631142027338 -0.209833290876 -0.165407227515 0.388330252489 -0.226487676701 0.688530870577 0.364488644209 -0.214569966836 -0.513549200241 0.433645624496 0.334870851185 -0.331788960389 0.066081932788 0.496055459203 -0.0651113696955 -0.706271549056 0.382305683542 0.483468190156
_string_val_name_name_name_name_val 0.228566881459 -0.279785329346 -0.0479270974819 -0.732193229833 0.257746608988 0.315579715118 -0.541682528145 0.615031485536 -0.664609100264 0.157592595838 0.296389448801 0.00107655581143 0.504873568862 -0.169536996589 0.193364529657 -0.325805522074 -0.214512251082 0.527357208199 -0.325668171795 0.444617121645 0.16888961295 0.442121677521 -0.171707565268 -0.00463873400614 0.0139453877283 0.63920222971 0.0615267855707 -0.151811229496 0.461515295822 0.228668417911
imulq_val_reg_reg -0.155909348836 0.525775521523 -0.513403545175 -0.0260668100385 -0.326389382695 -0.0794765396165 -0.370908695133 0.474328517395 0.0102669257255 0.622516905345 -0.160009674662 0.357930019415 0.348766668195 0.114713425404 -0.278007685523 0.479062178857 -0.361602571212 0.428446191762 -0.364110150902 -0.276851592782 -0.112659031549 0.412224121633 0.0563853045 -0.130878180532 0.137699955635 0.652252954989 0.632766936645 -0.593560986881 0.43131829847 -0.182878672889
_string_val_val_name_name_name_name_name 0.28399136037 -0.34253563909 -0.0408718133553 -0.746746223915 0.282003219218 0.376514817305 -0.536997314852 0.640883769271 -0.67856710986 0.11293280013 0.316092596271 0.0704649332034 0.52769187739 -0.25960765776 0.21312436876 -0.370653507812 -0.240041405193 0.527523898995 -0.284809834928 0.511466436752 0.157831318173 0.442747113198 -0.19100704038 -0.0315448553867 0.0533021771245 0.656187795537 0.0623533794206 -0.138920883235 0.482971525699 0.298160290181
cvtsi2ss_reg_reg 0.209716274177 0.0397502705447 -0.297470488179 0.565068210802 -0.265634055991 -0.0751200104683 0.390306478131 0.892400281446 0.327738693587 0.771888672145 0.00680730109333 0.484154761436 0.295347623765 0.00750079951867 -0.964280539992 0.758877862507 -0.185777835193 0.41515726786 0.0735410539206 -0.241041479687 -0.24484246882 0.492460632335 0.506291785993 -0.388839683481 -0.0258860045277 0.814136264176 0.457994226071 -0.328372757151 0.262274113707 0.0770431910537
_string_val_name_name_name_val_name_name_name_name_name 0.3898017292 -0.462331684964 -0.0274026345682 -0.774529212615 0.328311293293 0.492845466934 -0.528052816748 0.690238129129 -0.705214219089 0.0276731901435 0.353707695986 0.202933653679 0.571254102761 -0.431560738178 0.250847697957 -0.456272389675 -0.288778881224 0.527842126879 -0.206807555453 0.639087856503 0.136720028146 0.443941126764 -0.227851492868 -0.0829110871134 0.128437865972 0.688614784843 0.0639314222249 -0.114312040374 0.523933419101 0.430826591786
xorq_val_reg 0.277793825238 0.370808983247 -0.235969327572 -0.1431098601 -0.278908103417 0.0519968211137 -0.459954236989 0.796379391926 -0.124801870436 0.597375824685 -0.165094215096 0.333283843887 0.552265576191 0.005186472452 -0.07280908274 0.408099953512 -0.256962069071 0.0447338936433 0.0471863980998 -0.580828848608 0.344293279648 0.706940974511 0.309854074261 -0.067264572281 0.231853343397 0.36190799682 0.460055247714 -0.639815152187 0.536673011637 -0.52860424367
cvtsi2sd_reg_reg 0.0754248712592 0.284064997927 -0.48559013531 0.173512381824 -0.705947639397 -0.207160215601 0.285261772995 0.539364679827 -0.14008074106 0.18906101735 0.151586468582 0.583553042001 0.222904471315 -0.134548249616 -0.842013802242 0.412291945547 -0.157312153787 0.569779421954 -0.243167529571 -0.495234963383 -0.442851411252 0.301234283791 0.36126389177 -0.538051749721 -0.0555146795893 0.807038471954 0.39565113179 -0.235898844753 0.72398135312 0.042361716355
sarl_val_reg -0.116252540473 0.514635049358 -0.396172724354 -0.260173516839 -0.728859012503 -0.00572923905433 -0.410878575016 0.793999375737 -0.31077445257 0.330526501499 -0.090398592916 -0.207223624997 0.569631971446 0.0950742127223 -0.385666193786 0.158075227958 -0.349801270059 0.645405483053 -0.601156815946 -0.633500155633 -0.108035421582 0.615575264536 0.228023241243 0.161741732489 -0.150642888729 0.68026924464 0.267151517726 -0.255905008026 0.0934537764016 -0.165501320861
movsd_reg_reg_reg_name 0.316355227437 0.217494481342 -0.600157488884 0.18014139238 -0.523910136102 -0.189887452032 -0.112714409202 0.803232219013 -0.0583375367034 0.565597271412 0.182109982931 0.736821193103 0.411614690698 -0.151479578899 -0.445014918533 0.527130492516 -0.587476500974 0.523073315864 -0.110283628086 -0.199994834295 -0.301515842583 0.541517128398 0.146413739978 -0.485892317206 0.068635575576 0.878525218321 0.423010918519 -0.309528204895 0.678451138288 0.414093993127
cmpq_reg_reg_reg -0.150480696382 0.165175234927 -0.705912980348 0.587313831656 -0.78347712576 -0.155271059239 0.379860516075 0.860196862947 0.0452765201353 0.581928635608 0.0675388378757 0.908276179808 0.788023758792 -0.008690060533 -0.587200723906 0.468047795362 -0.505173459993 0.594982090378 0.234202041054 -0.447592865527 -0.428801230335 0.718212008966 0.635130557517 -0.309257977428 0.304232838737 0.823405084362 0.575242891041 -0.549807633029 0.836221498721 0.396889572223
_string_val_name_reg_name 0.0755171057718 -0.150324890954 -0.0889368304831 -0.466670899594 0.120324963522 0.0856800278714 -0.322036050232 0.563379408123 -0.364347770916 0.326332429994 0.328998464894 0.0985242526186 0.477416240353 -0.0184219393768 -0.10611884583 0.0312882797122 -0.194426238098 0.617970208555 -0.256880990215 0.28595397891 -0.0503266160971 0.536841646343 0.0295925947864 -0.153698042082 -0.0296189344092 0.674479059531 0.165054551259 -0.151248128715 0.553714291214 0.223854609837
call_name 0.0567925179305 -0.056914840887 0.417990510714 -0.499362378276 0.541225780182 0.181134879041 0.0378370356985 0.27064582178 -0.669360464287 -0.0590105990109 0.698406591576 0.35526051617 0.720128950041 -0.330201379575 -0.0961932626925 0.142521170311 -0.0983646683975 -0.191144204451 0.0816254858494 0.251254832294 -0.433227445485 0.105069798286 0.0925641831565 0.149648424864 0.433819836413 -0.039562025444 0.481390250276 0.361762959883 0.182245028377 0.281773942589
_string_val_name_name_name_name_name_reg 0.299184208387 -0.387123484582 -0.0523923282279 -0.609900755677 0.244627911261 0.354697717149 -0.390347839571 0.660305788358 -0.51881979821 0.129075605063 0.375879526268 0.270146498492 0.556167664128 -0.345302069344 0.0654669372874 -0.237165853172 -0.278545955301 0.584490405809 -0.160101172705 0.546000602759 -0.0012954145335 0.503197965066 -0.103793390571 -0.178519165695 0.104788054581 0.712206945828 0.128711420675 -0.112788252725 0.583508357573 0.434135404673
_string_val_name_name_name_name_name_name_name_name 0.434581197701 -0.579356286537 0.0372006019179 -0.789319219008 0.409893571528 0.561096697993 -0.483388482239 0.686567429656 -0.675994486482 -0.0312681808414 0.423072492661 0.294582570997 0.576205671611 -0.555040749689 0.257118192149 -0.482852451375 -0.28725099444 0.547884368887 -0.135811097728 0.780030591603 0.0751516666094 0.446426394684 -0.235151678684 -0.153016601222 0.170759418441 0.710884529388 0.0490532598579 -0.048409151933 0.56949997215 0.560582630788
_cfi_lsda_name_name 0.436206360457 -0.494093837823 -0.170419006287 -0.290475377762 0.543166201817 0.562965653588 -0.567470801076 0.55714511243 -0.401653563068 -0.464602997119 0.005402953819 0.167653784132 0.414784505526 -0.859338355801 0.530931020559 -0.261961577372 -0.288290069005 0.469646757355 -0.202170330856 0.72792211968 0.0387562641992 0.020971155921 0.002014941691 -0.0985936681593 0.134369955891 0.410220617655 -0.00524282278673 0.280727280201 0.347365465716 0.379335380335
_string_val_name_val_name_val 0.033008298152 0.0521654399882 -0.170992505477 -0.675791232092 0.0688526320335 0.0688783494918 -0.626345369207 0.564744335296 -0.682854815491 0.353267768417 0.137792768955 -0.30306446312 0.446835553687 0.232780828787 0.139801329779 -0.18365526854 -0.161358756448 0.493589782509 -0.533141063595 0.0638595120012 0.295630737447 0.436614977389 -0.117432643208 0.170908054339 -0.142459891737 0.565026572452 0.0845202453583 -0.289773768739 0.338757448281 -0.139210277497
_bss -0.0659306891751 -0.715827486843 0.0532570438101 -0.937359900265 0.0771616442999 -0.383719675356 -0.514875687577 -0.095835684398 0.0705749304596 0.569981611826 0.734338216361 0.97056707087 -0.143865009096 0.746115325123 -0.197047572909 0.775925893962 0.122369422962 0.206127872445 0.682258729704 0.927977215332 -0.976598273004 -0.25852416473 -0.0935227687614 -0.696210554899 -0.365260271833 0.276015997084 0.265971467752 0.934272721147 0.56806063787 -0.930872851233
_string_val_name_reg -0.073594295972 0.0075408381315 -0.113299831987 -0.371184328871 0.037456331696 -0.0936650983138 -0.276494857339 0.498761821299 -0.261366419387 0.457836979948 0.297744423978 -0.0158905779635 0.42491529117 0.199498147268 -0.220509367908 0.210257701635 -0.13834642663 0.640290077051 -0.321400868555 0.112589563011 -0.0830140838062 0.559270767194 0.118516585025 -0.137150626339 -0.119223593736 0.649327135333 0.189283304981 -0.176888046041 0.533851580307 0.083667413279
cmovge_reg_reg 0.0340389585158 0.543319948617 -0.667743121381 0.105287467474 -0.686793980364 -0.530963327029 0.374958808706 0.619091853396 0.141354468329 0.536189147494 0.379298191982 0.616962883282 0.709650931652 0.0885755535313 -0.808827572882 0.539943036918 -0.67985728313 0.455333022949 -0.0393091305358 -0.252088350205 -0.0623691790507 0.292472600671 0.113227923079 -0.468575985274 0.408482196673 0.627916329541 0.737711841624 -0.52148320181 0.286080745997 0.433316685389
movzwl_reg_reg_reg 0.0920902953635 0.341273373565 -0.395834883037 0.425980835024 -0.792397912952 -0.446141116005 0.0224438764557 0.652538834788 0.210454522434 0.548478310214 0.271087124117 0.656633840977 0.771654658526 0.287261330829 -0.792841330802 0.710695626721 -0.636575867441 0.380894169768 0.219622913297 -0.237977234043 -0.437425520847 0.799638776516 0.485607214491 -0.271432820315 0.0222129598208 0.923094898495 0.318868921591 -0.221988045101 0.808044953258 0.34702990729
_string_val_name_name_name_name_reg_name_reg_name_reg_reg 0.271340488736 -0.235428415289 -0.22561840046 -0.360284953021 0.00410674356358 0.212335944592 -0.252623718095 0.729271657663 -0.340427559883 0.255967257419 0.32300969553 0.447420547608 0.615449622884 -0.274955548993 -0.175347612203 0.00419767999817 -0.373616298013 0.629505772079 -0.0864099469407 0.322101497103 -0.12431422633 0.598399555915 0.0393440167135 -0.276749359674 0.126536018527 0.767912829009 0.277380252464 -0.220319510277 0.659909968852 0.410073998881
_string_val_name_name_name_name_name_name_name_val_name_val_name_name_name_val_name_val_val 0.354931476261 -0.283218023197 -0.155847803992 -0.758989824391 0.182556643856 0.414467099585 -0.617061522042 0.725673628291 -0.781689226251 0.10389524275 0.228793794054 0.0843569690655 0.585285733461 -0.268137881897 0.258824666928 -0.44838110574 -0.319356875031 0.485826587426 -0.312483028855 0.414013421768 0.254485679084 0.439379307179 -0.233167285528 0.0358422861817 0.0815213001256 0.65993573769 0.0961397880807 -0.239239472678 0.450999984416 0.232135310579
_string_val_name_name_name_name_name_name_name_name_name_name_name_name 0.502404487714 -0.637193863896 0.0290047658073 -0.806261494287 0.421866691328 0.63022922217 -0.489334864972 0.72521952273 -0.704645540925 -0.0793874919787 0.431913102917 0.369325714983 0.607981204604 -0.650772617194 0.28406820653 -0.540491581833 -0.324820848592 0.542400473367 -0.096665491764 0.836996606147 0.0766578346465 0.446626042756 -0.261137875107 -0.172122630888 0.215913785429 0.729228022798 0.0545064817185 -0.0484889540691 0.587690018633 0.624588563725
jp_name 0.474056562562 -0.401496904191 0.365900094067 -0.120946957826 0.105555042204 0.674605803442 -0.472355322847 0.45735318301 -0.336088034084 -0.409210218301 0.595512192721 0.178245387447 0.0899884398365 -0.478013685689 0.0404283929545 0.139897123988 -0.621189215189 0.028427377156 -0.136368565672 0.495914004764 -0.372184126942 0.29581093435 -0.391715479195 -0.277925910669 -0.13574137857 0.590570022927 -0.308342840548 -0.304273196817 0.594568696851 0.127819185586
movslq_reg_reg 0.065984607362 0.0139761624927 -0.619937811879 0.30653512101 -0.838548012151 -0.370365452825 0.139877693475 0.267854829282 0.102738426828 0.535183237892 -0.234432790164 0.496706967605 0.239055981634 -0.105191800245 -0.534799908341 0.589436909847 -0.277854781824 0.442537745303 -0.230731194258 -0.567364726771 -0.539965720998 0.38019713267 0.0653277631137 -0.282417230691 0.318646044874 0.936326656985 0.746086780366 -0.574452158629 0.748653048373 0.280385937879
fnstcw_reg 0.354135497804 0.140178448549 -0.386342978555 0.721778705387 -0.035777444869 -0.185315321853 -0.199124647232 0.239066958567 0.267058065304 0.590783771648 -0.368661700479 0.142468852377 0.666226393917 -0.3984693727 -0.272239687348 0.328297049814 -0.061777739412 0.0364748870445 -0.0695244341118 0.173549304081 -0.0142499742075 0.0657309879995 -0.0023714784195 -0.317060408789 -0.0357762292545 0.950371573247 0.531203324435 -0.779183691934 0.486120250862 0.119481200812
subq_val_reg -0.0336058250133 0.682080741485 -0.415329966669 0.140133027257 -0.724503481133 0.0570027388687 -0.239509975072 0.790620694329 -0.393119010001 0.269033038272 -0.360473235081 0.149143452719 0.251209353764 0.118861272645 -0.354597859779 -0.00942626481733 -0.611480277812 0.239189691571 -0.0506471716232 -0.289719063965 0.29396744826 0.678036561076 0.135794390798 -0.0106801464015 0.103259085707 0.230480972794 0.504338939352 -0.363153976963 0.420167780567 -0.392638720416
cmovnb_reg_reg 0.073482418927 0.305324673347 -0.210483307866 0.0613001318207 -0.286150763015 -0.381844445201 0.327572456774 0.753677111715 0.169497214226 0.658526434297 0.425169902406 0.5143276197 0.185581471142 0.281798088624 -0.786828227115 0.458650242608 -0.275176323286 0.748831686148 -0.273435248533 -0.586427118969 -0.290536667399 0.808030655034 0.0809266297277 -0.279697346624 -0.0233246926103 0.40684741156 0.273251326698 -0.551742931966 0.261595286219 0.292061509835
_string_val_name_name_name_name_name 0.332846262682 -0.492599920497 0.0494943560838 -0.76390580609 0.391933891829 0.457397911728 -0.47446890814 0.628589290044 -0.633017904817 0.0409107858646 0.409811577276 0.182467855019 0.528542372122 -0.411442948431 0.216693170577 -0.396393755688 -0.230896213212 0.556110212168 -0.194529506673 0.694581569788 0.0728924145537 0.446126922575 -0.196172384048 -0.124357556724 0.10302786796 0.683369289273 0.0408734270671 -0.0482894487288 0.542214902426 0.464573731382
xorps_reg_reg -0.152121425099 0.537057834499 -0.202269522776 0.37023009665 -0.542600460377 -0.248810400305 -0.0495611171957 0.281335175252 -0.0824853437627 0.186414267137 -0.102166120389 0.685329902157 0.429476399138 -0.101481373949 -0.930130475633 0.344344598521 -0.739205999934 0.609899395271 0.219495941545 -0.228002731843 -0.504420537563 0.672436399743 0.689695189288 -0.231762937665 0.191681812256 0.492987608387 0.355470150318 -0.688019696962 0.457446028682 -0.15346299366
fildq_reg -0.448599425954 0.123968995677 -0.131333868091 0.580064655515 0.069729579078 -0.517947423779 0.449434877267 0.583420475311 -0.138369179975 0.218070543651 0.0597906518627 0.486081756849 -0.010068962838 0.367109215521 -0.305577800415 0.200038183915 -0.460962119905 -0.023108591424 0.105855409948 -0.0133661221745 -0.125650763009 0.238300731306 -0.203527556043 -0.408349686016 -0.269305582333 0.560157314467 0.287724290502 0.191470134108 0.278800746168 0.0381127188355
_string_val_name_name_name_name_reg_reg 0.223132597835 -0.245498562817 -0.14915661497 -0.445306783215 0.0898387308181 0.20878969496 -0.302510281795 0.667864728501 -0.386714782576 0.247314993722 0.336422093851 0.311110676974 0.563933248013 -0.219328773067 -0.102603054991 -0.041913494119 -0.302714538545 0.616298034151 -0.150138842465 0.36181587664 -0.0764245986439 0.560144227512 0.0048269756705 -0.220739506125 0.0783267618348 0.729579919003 0.213141150621 -0.177237180387 0.613433033668 0.363693369878
_string_val_name_val_name_name 0.154667576245 -0.196118249688 -0.057334142984 -0.712789237725 0.225404462015 0.234332912203 -0.547929479202 0.580561773889 -0.645998420803 0.217138990115 0.270118585508 -0.0914412807112 0.474449157491 -0.0494427816948 0.16701807752 -0.266008207757 -0.180473378933 0.527134953805 -0.380145954285 0.355484701501 0.183634005985 0.441287763285 -0.145974931785 0.0312360945013 -0.0385303314667 0.616554808608 0.0604246604375 -0.168998357844 0.432906989319 0.136012588219
cmpq_name_reg -0.0190199098124 -0.274503333747 -0.427979503014 0.188122983238 -0.369693702261 0.303461195152 0.206080653892 0.832664884696 -0.38543366419 0.211856697902 0.149153213876 0.807164762857 0.780141885306 -0.386743565539 -0.00370875388633 -0.189085718472 -0.405083674699 0.447438524493 0.258737452407 0.0590575044293 -0.197853743437 0.504860891265 0.376233245457 -0.11387291926 0.437170778664 0.746855336778 0.293985449555 -0.373119743374 0.744308680841 0.643342483181
salq_val_reg 0.300068345666 0.502349183323 -0.287178989367 -0.228656390151 -0.479697545519 0.0543527165523 -0.18994726112 0.278464747114 0.0606384749853 0.46673668973 0.000134935947667 0.374490581773 0.17770087092 0.024265642015 -0.412756403833 0.309172002539 0.0180038461047 0.646630672929 -0.413598709663 -0.447646226145 0.00661621903967 0.42133717076 0.003180598658 -0.086893186675 -0.0280072011741 0.747961219523 0.0542092628277 -0.327203305265 0.541535617752 -0.023836999269
_hidden_name -0.0910406402645 -0.214481562181 0.19525763031 -0.39030318312 0.074834737881 0.472804078867 -0.384059882771 0.356761499592 -0.679921619323 -0.0812097024877 0.124399737783 0.503914736788 -0.132701418214 -0.786780194562 0.584476911173 -0.452658325801 -0.097915609669 -0.118482960422 0.0568090894884 0.817799873862 -0.220789302451 0.369495996885 -0.0133986657265 -0.560935330802 0.374690221241 0.770742186283 0.357974184707 0.305424062974 -0.045847468114 0.753213156657
sqrtsd_reg_reg 0.334726358771 0.099752968593 -0.187604992981 0.481671870355 -0.486645304555 -0.168238029954 0.258684506373 0.508822880919 0.0563627328757 0.803343446627 0.248005342472 0.853529762957 0.562923833489 -0.0416223825847 -0.65875347897 0.36030027017 -0.166292380185 0.346617869769 0.138460013568 -0.644604802971 -0.636593367639 0.885577974602 0.66727892582 -0.544472864136 0.167285283532 0.933081968802 0.754164744287 -0.619454831221 0.517789348168 0.221294495782
cmpq_reg_reg -0.221824204619 0.103163124294 -0.686017600994 0.627040243137 -0.782464850108 -0.0856268640187 0.440314141297 0.85282205841 -0.0331536224993 0.527161734326 0.0439333940953 0.916402572142 0.800850109 -0.0508147754653 -0.451895399961 0.331587239002 -0.469533230016 0.532258866737 0.285303666382 -0.432101765221 -0.398198234398 0.65671759112 0.665887555434 -0.22646049374 0.36660733134 0.793183265243 0.519131396077 -0.544983550472 0.824107817095 0.455497057061
orb_val_reg 0.13747914926 0.456314679465 -0.508430264108 -0.0736267795666 -0.098526937336 0.0572307994323 -0.429833067229 0.275051699065 -0.077821583442 0.580213602917 0.0180633169933 0.16393476181 0.460591825455 0.172656928996 -0.297490380722 0.473456092379 -0.024110173508 0.250581271878 -0.0385923631536 -0.543884855909 -0.145325233726 0.746954231413 -0.113598620622 -0.0559099693357 -0.143925836772 0.377887104588 0.419687937544 -0.33261576545 0.32462208522 0.0343698312263
cmovle_reg_reg 0.0739271087832 0.260598977712 -0.839971397315 -0.016573156058 -0.621408011229 0.078881378358 -0.026955912026 0.28858580459 0.234537129257 0.615357317112 0.0817230883714 0.629855897863 0.507055474281 0.271267510063 -0.940918990426 0.634440784399 -0.425109166822 0.435021686019 0.32416753576 -0.233428801588 -0.123433579741 0.672049665252 0.571254833411 -0.700383080472 0.34747070894 0.590106014138 0.795339708352 -0.583939419668 0.536937174828 0.24912044177
movl_reg_reg_name_reg 0.354958372398 0.198297641326 -0.528413199362 0.0761324783186 -0.440558517589 -0.253885062844 -0.0301793460076 0.715108634081 -0.166032484471 0.552612949295 0.253375397333 0.701291333274 0.696659106409 -0.290855830771 -0.489547733291 0.238063508758 -0.589296897782 0.706555813598 -0.073658757723 0.0384478843432 -0.391501112888 0.78913235641 0.333810672349 -0.473591539022 0.218289118143 0.870329817666 0.64703605843 -0.349693850618 0.524097976761 0.32213686286
sall_val_reg -0.126244595571 0.457297520363 -0.176639690348 -0.168237500379 -0.550666852435 -0.130361173348 -0.253460934055 0.289603765225 0.046098793728 0.451788463524 0.032807442882 0.0436622041978 0.591402073158 0.507412492326 -0.00152423052933 0.331562640068 -0.0538553812213 0.0739231167857 -0.0237903878242 -0.572780520309 0.394159495979 0.641378349041 0.0404851811717 -0.27342126651 0.22738319764 0.603862992067 0.003112938614 -0.119830833333 0.153683603668 0.0999289792817
_string_val_name_name_name_reg_name_reg 0.223132597835 -0.245498562817 -0.14915661497 -0.445306783215 0.0898387308181 0.20878969496 -0.302510281795 0.667864728501 -0.386714782576 0.247314993722 0.336422093851 0.311110676974 0.563933248013 -0.219328773067 -0.102603054991 -0.041913494119 -0.302714538545 0.616298034151 -0.150138842465 0.36181587664 -0.0764245986439 0.560144227511 0.0048269756705 -0.220739506125 0.0783267618348 0.729579919003 0.213141150621 -0.177237180387 0.613433033668 0.363693369878
_string_val_name_name_name_name_name_name_name_val_name_val_val 0.320910239199 -0.282293836391 -0.126792229162 -0.751775356626 0.202800096007 0.387843572998 -0.596767177531 0.695885359088 -0.75016765387 0.118352222428 0.246992624179 0.0619353193432 0.56363630453 -0.241591489699 0.241200783817 -0.415379987061 -0.291129476276 0.497007908403 -0.316032875031 0.422252879427 0.231440584356 0.440117637656 -0.216620437766 0.0249435499773 0.0633277852494 0.654353639388 0.0868209027896 -0.215701099513 0.453831029794 0.231201916399
_string_val_name_name_name_name_name_reg_name_reg 0.312898620817 -0.352756411712 -0.11762225687 -0.525968863069 0.16223088282 0.327643862491 -0.342848389796 0.698661733884 -0.464626461467 0.157914841013 0.359940600792 0.360125256568 0.588630605828 -0.353483475645 -0.0117937954959 -0.170448676891 -0.325920727631 0.598776574234 -0.119871369343 0.485335029813 -0.0450550279673 0.537540414597 -0.061359092697 -0.220569145911 0.128421350047 0.738681286467 0.184140827771 -0.151527436191 0.617379453902 0.447875375116
negq_reg 0.138493327787 0.500434266708 -0.398249495652 0.551808164341 -0.123328646276 -0.434369490398 0.0439441741325 0.553697568047 0.0141998508425 -0.0619642425965 -0.217799780612 0.273879763351 0.300610352255 -0.211969529594 -0.886583070777 0.121456995928 -0.537681407499 0.38137376191 -0.0458649936554 0.0478169110365 -0.321332216413 -0.023672961151 0.352212793188 -0.331030083451 0.383504277936 0.171461195527 0.689435090309 -0.755316416079 0.166107339195 -0.361198021981
leaq_reg_reg -0.149267565951 0.357662849972 -0.822441470408 0.0620022061517 -0.359837999739 -0.125062530723 -0.059791765281 0.56323932966 0.240883716179 0.803694212807 -0.0871352604093 0.385012857337 0.386193788365 0.1076124066 -0.874130279978 0.514923616228 -0.677881314398 0.582534056438 -0.0804068871698 -0.163712383433 -0.394352559588 0.492806806229 0.149918381628 -0.4676676079 0.295671899809 0.487594923194 0.359653711449 -0.122469146709 0.568279167891 -0.120056408954
sete_reg -0.264800569486 0.342678768604 -0.34438149539 0.0378559455385 -0.664573731127 -0.222034977164 -0.274717293057 0.691285295385 0.521491145225 0.226624550343 0.301075507467 0.804940822223 0.794459210298 0.426098894346 -0.479582223716 0.324224000708 -0.40244043948 0.44984539883 -0.228335572077 -0.302084821502 0.0444083569095 0.87749163098 0.633973432092 -0.0743558829345 0.196254621887 0.195821325209 -0.069206863513 -0.605484547942 0.293050648254 -0.29594777777
movsd_reg_reg 0.28208786537 0.506016215727 -0.74790116718 0.427063182389 -0.761612072873 -0.462764715957 -0.0859569548727 0.770663354363 0.0680061818257 0.760480929143 0.106060038959 0.748008462588 0.207036236079 0.00500676906533 -0.527800379803 0.814270802038 -0.635514290325 0.434508027817 -0.211171276215 -0.495106549178 -0.355797416503 0.452588405517 0.171770834096 -0.550641150829 -0.0342437286487 0.901156264522 0.434445893431 -0.311557561455 0.628842670999 0.354933150621
addw_val_reg -0.30054694504 0.298115219805 -0.81126172088 -0.164927347994 -0.453153083418 0.006094304117 -0.173719018724 0.621423912883 0.0559816137057 0.350519109873 0.123252881106 0.026605735884 0.579133656841 -0.00771085506133 -0.588313118605 0.415860000905 -0.563442999435 0.670531449044 -0.317788567321 -0.256072994918 0.137149102386 0.366182852281 0.443370120718 0.235221817446 0.266030412249 0.166344806294 0.140395264178 -0.314193695502 0.28639380093 -0.222462666291
_string_val_name_name_reg 0.0755171057718 -0.150324890954 -0.0889368304831 -0.466670899594 0.120324963522 0.0856800278714 -0.322036050232 0.563379408123 -0.364347770916 0.326332429994 0.328998464894 0.0985242526186 0.477416240353 -0.0184219393768 -0.10611884583 0.0312882797122 -0.194426238098 0.617970208555 -0.256880990215 0.28595397891 -0.0503266160971 0.536841646343 0.0295925947864 -0.153698042082 -0.0296189344092 0.674479059531 0.165054551259 -0.151248128715 0.553714291214 0.223854609837
_byte_name 0.0998700810275 -0.374261009881 0.159956879279 0.0324361326815 0.124303109831 0.152541819934 -0.69403198582 0.6110966571 -0.699940666612 0.043000054145 0.263242152371 0.072310842949 0.240998800864 -0.077181353622 0.60898248373 -0.820480101014 0.13728979611 -0.0263081126775 0.311239425147 0.27953623992 -0.429610008586 0.302596620122 -0.230863727564 0.230526866876 0.218737703042 0.657311340365 -0.0634677682251 0.118144584515 0.235248744601 0.233755827866
bsrq_reg_reg 0.00645381625813 0.459974074344 -0.315433984819 0.221546751095 -0.827534230524 -0.377205342051 0.194046148357 0.281029513 0.0104801487907 0.368665114931 -0.0673104222963 0.367503708078 0.580391871644 0.344632663005 -0.72582193621 0.905767715726 -0.31558288946 0.252215954453 0.336400770126 -0.004995914325 -0.400751470804 0.332511133662 0.0618388034393 -0.336642686335 -0.128033656047 0.44779515549 0.167046693306 -0.203077068958 0.754873619599 -0.178989060978
_string_val_val_val -0.286468909146 0.46914206363 -0.260746345981 -0.589378256897 -0.122620797363 -0.298212742068 -0.687417642909 0.436191625236 -0.63614563472 0.629744537536 -0.0203181608472 -0.732688482153 0.326543311987 0.79422238616 0.0339803734277 0.0668118011785 -0.0326653926863 0.476039306479 -0.800310856964 -0.393916553251 0.403234478801 0.431359884614 -0.0130972817285 0.366305934034 -0.378089689055 0.459996480516 0.0927105998525 -0.410316423404 0.191553605002 -0.60111711428
movzbl_reg_reg_reg 0.085697485497 0.340540148921 -0.343136898273 0.313402049735 -0.63962824169 -0.0655227773973 0.190654260411 0.837662647276 0.353303362362 0.599890212671 -0.136790056128 0.803768324158 0.7783054162 0.020426835378 -0.519477649349 0.726648214735 -0.506929330294 0.589209323836 0.0802953446436 -0.278459694879 -0.348949999459 0.689197522097 0.480674352118 -0.428587715484 0.0357268100083 0.459407310903 0.732496263054 -0.609042619646 0.77400833794 0.349727225289
andl_reg_reg -0.253673078059 0.26060839555 -0.328376350065 0.438434724673 -0.555547049477 0.0803349613587 0.395502739507 0.484533139963 0.391271020543 0.651931583019 0.411623322847 0.364681430469 0.801524135976 0.173749370772 -0.428859390368 0.88548570375 -0.690417993376 0.557806010995 0.0778982675493 -0.652340501482 -0.48548827608 0.537411242978 0.564161401312 -0.485013147247 -0.145305067773 0.613868152426 0.317860648877 -0.558656897504 0.36987359749 0.18248635759
idivl_reg -0.1016493445 0.133019906282 -0.6753674257 -0.143673227169 0.0278879662295 -0.358064037328 -0.031221957343 0.355922093966 0.323144397033 0.0086273413195 -0.276765240176 0.421905416875 0.399198558247 0.129131527823 -0.937405569059 0.461298153014 -0.0058769976655 0.776681190747 0.32378805996 -0.353367102332 -0.22347800725 0.650580591527 -0.146975401882 -0.324318431854 -0.43798121997 0.687228136366 0.0029339523715 -0.419208140827 0.46636297568 -0.151014851757
fstp_reg 0.0727327695575 0.271918992961 -0.611636985154 -0.237214452155 -0.494373852698 -0.111405068728 0.419376341735 0.879570508445 0.629985503715 0.169520936934 0.0262322168111 -0.013155038648 0.556823996617 0.0521192898876 -0.0824009282735 0.519910459711 -0.327708036318 0.618307727641 0.299794722482 -0.0396826398755 0.202525286368 0.231341840914 0.361345034452 -0.120631329817 -0.343937542357 0.626797717379 0.576981497376 -0.627303249988 0.113604767433 -0.267040563393
cmpb_val_reg -0.109012365871 0.093935174671 -0.378847450994 0.0130080927537 -0.619323276998 0.140123297145 -0.345492530682 0.533301682037 -0.143913736529 0.369389691393 -0.03446863387 -0.229531124835 0.645244326175 0.618307583614 -0.554136305504 0.311831366819 -0.185490904025 0.256826697501 -0.487185899362 -0.195942836967 0.132647306103 0.344622832666 -0.184923551232 0.203663019843 0.227637076928 0.200990197254 0.0841081743177 -0.291816054093 0.436506270681 -0.462710737174
movsbw_reg_reg -0.126325655929 0.0145970909337 -0.800596557522 0.00908282296967 -0.512868277462 0.0559075066087 0.0577600713007 0.318930613998 0.302224169347 0.631066145867 0.0382239742967 0.838271653941 0.494130586669 -0.1539898274 -0.464698456144 0.677830859485 -0.492746039098 0.58611051342 -0.0554428453928 -0.0651455392383 -0.380872581461 0.49589868348 0.503983974781 -0.533798075239 0.0376123966673 0.737367160669 0.662677545259 -0.297762821361 0.491574211492 0.147956983535
