186 30
jns -0.61527241357 -0.42631509753 -0.763689434967 -0.387416160006 -0.381312601096 -0.63111440585 0.137972796162 0.471399590889 -0.589133448849 0.019989827133 -0.690189880346 0.95075696411 -0.359471514764 0.00902724469027 0.337553490124 -0.328867341621 -0.0497839699444 0.80335339455 0.100275476881 -0.589138670423 0.786157133049 -0.431621136836 -0.473805151016 0.0102400265486 0.23319404179 0.47448322135 -0.500276724928 -0.945738277238 -0.757628251865 0.321424121556
cmpq -0.792572270512 -0.392933760771 -0.526854566162 0.944851534981 -0.774366644891 0.471526697744 0.923943143071 0.793823622113 -0.660594763576 0.0890265240773 -0.144910156148 0.981413710819 0.903460910666 -0.387812494924 0.630547191599 -0.760097211881 -0.184411390199 0.0304730776099 0.694116669008 -0.308172962773 -0.153374266907 0.164762248355 0.911943538771 0.435919375763 0.865603272165 0.551408712293 0.0702394363636 -0.506390890012 0.727198364083 0.924356935767
movl 0.912179664258 0.719641313446 -0.353783817109 -0.175124217569 -0.295050220622 -0.979874912131 -0.242194829464 0.106729585313 -0.89559008944 0.724062497943 0.397796850455 0.298582083009 0.547241370458 -0.917229120691 0.180168178286 -0.757381441561 -0.691456555163 0.654633049521 -0.612183806968 0.695026278545 -0.476098164745 0.790450831603 0.366578036612 -0.475118704583 0.411317805034 0.834350706851 0.936308627981 -0.0069411515732 -0.630362881837 0.162879565111
sqrtsd 0.877079419659 -0.403164227873 0.968383257877 0.508746416636 0.113091991769 0.223693199937 0.379054238298 -0.238173910362 -0.392045697451 0.917571660979 0.467305688983 0.792795283262 0.189682084133 -0.360235316282 0.00997295457126 -0.673958118377 0.725311159294 -0.526449913296 0.253585710566 -0.945682076023 -0.868559666628 0.8513433988 0.916117649929 -0.518117735425 0.267637128741 0.97110482297 0.775339480996 -0.72980473226 -0.191757042697 0.22174925193
cmpw 0.154348016215 -0.208579891943 0.624505819302 -0.544464122629 0.799940965584 -0.196814992793 0.0381163075504 0.490990145625 -0.714206661999 0.599390526696 -0.185537421498 -0.86286969561 -0.771427939032 -0.833817397299 -0.893647561477 0.279865423631 0.339359683571 0.491594451181 0.492649769376 0.306740694389 -0.174136871202 -0.432510375542 -0.50072422594 0.387491136527 -0.347116515732 -0.165356084662 -0.435710784546 0.078370392947 -0.437310056712 0.284292871278
_byte -0.472222550692 0.033265787532 0.311398583027 0.913489447846 -0.203193271165 -0.497976892745 -0.883863149836 0.400343558784 -0.62360815619 0.285685878112 0.0724696761836 -0.411561889049 -0.205422435357 0.735739578713 0.866521724976 -0.956370794051 0.693325076193 -0.581306959922 0.62128032715 -0.420339162666 -0.939643271912 0.158068077306 -0.135624088962 0.680941438803 0.108675703187 0.539535924405 -0.19507507282 0.284977628439 -0.162667645637 -0.317091740336
negq 0.213436827247 0.649656966591 -0.0308998728935 0.635481731467 0.539856660165 -0.504535335895 -0.110611292145 0.225073859535 -0.252167246354 -0.870157824644 -0.573954730441 -0.336137476101 -0.148324003657 -0.541623143451 -0.780049445814 -0.634515472587 -0.463268665072 -0.0204042374804 -0.17262715238 0.589699988518 -0.122054214682 -0.950041184805 0.161566022611 -0.104409738409 0.649899194945 -0.571148150663 0.635292804685 -0.946352951456 -0.540347865212 -0.943463161671
movb 0.44874641917 -0.219016768838 -0.405830679701 0.990916708606 -0.189483183445 0.684914113735 0.274828687054 0.0761863261217 0.924148182909 0.902008880551 -0.922175950766 -0.318891550266 -0.271059450731 0.567711099841 0.307130943229 0.659447491832 -0.768115706062 0.959453255033 -0.401395666127 0.00510409275824 0.540714474178 -0.758799572994 0.911242970816 0.0887359503861 -0.760529547491 0.140717296676 -0.382945489482 -0.955551689846 0.0180788619623 -0.638164390823
movslq 0.0708541654305 -0.660494646174 -0.328615198816 -0.0166638314008 -0.94261613102 -0.382689068675 0.0226337996059 -0.961078065272 -0.252918615594 0.113091034774 -0.980008708925 -0.277673102793 -0.781921471431 -0.550943569263 0.381833666458 0.0134518006549 0.390623954379 -0.238690286692 -0.853987912912 -0.713961847423 -0.578676726706 -0.664799126997 -0.889735838191 0.268049164912 0.721719412766 0.98083888752 0.751105589233 -0.594796714484 0.500834057918 0.399023578221
jnb 0.845420528774 -0.86905218401 0.169861541117 0.496096500474 0.570944782158 -0.10807444131 -0.844327042881 0.204553905924 -0.53516030519 -0.226728786379 0.40292479358 -0.950757421587 0.92714666792 0.715998675868 -0.939539897978 0.822764340462 0.0686020056839 0.36897431428 0.819080372917 0.381910694403 -0.951579069225 0.845412197118 -0.11262340673 0.530041064161 0.398294305878 -0.0857062000692 0.461633698579 -0.416371092461 -0.932318506493 -0.632755773921
popq 0.442938125986 0.680456344524 -0.42458506087 -0.817447124786 0.0887230079149 0.817104011745 -0.750792693679 0.0536417507685 -0.352125655479 -0.953456394458 0.186813210313 -0.123156941934 -0.152791268464 -0.302600264099 0.0593567455959 0.0700334388146 -0.507767051078 -0.655425882545 0.225789991001 -0.771814401487 0.0671750832321 0.755786702574 0.0040763869713 0.0687144164797 -0.647785247026 0.221022131734 0.687263109047 0.566952323914 -0.926330798013 -0.242455214478
ret -0.789383041112 0.181936502189 0.0556094327284 -0.925708044181 0.0576987273391 0.333496546457 -0.431643465147 0.905802907511 0.736478566888 0.905370259524 0.845061494702 0.396251495052 -0.583751771071 -0.138683970421 -0.476025856705 0.478792227256 -0.925790631913 0.795140426924 0.37706906579 0.719172437472 0.944139784045 -0.732571035774 0.61136294614 -0.685176034282 0.10137767704 -0.469730142167 0.102955397112 0.072839270793 -0.534495582711 0.808522277413
negl 0.145868040517 -0.111699026464 0.238595261863 0.0789983840107 0.287447306375 -0.238657830949 -0.923238268863 0.4803602779 -0.768127661999 0.0196179437348 -0.845190928852 0.347322649394 -0.217529960735 -0.585820306103 -0.359041618242 0.94464750124 -0.386455766799 -0.581698253837 0.448992112368 0.15125502362 0.705563862142 0.297846012758 0.73359761799 -0.390760386081 0.251376524364 -0.465162582338 0.58074773054 0.325937842749 -0.615738837095 -0.699853317633
unpcklpd -0.936858046175 0.493490064043 -0.780530532095 -0.810681623942 -0.642339601982 -0.459858991039 0.834726568581 0.974034507077 -0.476346745762 0.161874212616 0.912474188296 -0.76577603574 0.363181673723 -0.0768817202665 -0.359163105674 -0.638996954777 -0.449136461117 -0.683194911427 0.762666936991 0.0577185592815 -0.575988077018 0.0879023470114 -0.579777711868 -0.838891949474 -0.423050115637 -0.419624748451 0.180540653935 0.245540188633 0.371486835388 -0.187989444889
movw 0.902488876312 0.754881350324 0.477021963859 0.699890717206 -0.110261176181 0.0702364974973 0.435601925775 -0.0221951355024 0.425895871418 0.437579952875 0.908543079891 -0.880993590152 0.944115759895 -0.252341072492 -0.310681210672 0.540386086054 -0.520381850033 -0.134154730479 0.0948214010168 -0.441512200088 0.304184856664 -0.347300323585 0.0881475066265 -0.0933275507899 -0.539186148766 0.794848955033 0.467836767851 -0.396275095163 -0.239648394429 0.00124713521823
fxch -0.320988017766 -0.220075163686 -0.45183765048 0.0604062478122 -0.782603757796 -0.375103525456 0.705519750111 0.647983045253 0.0293106616653 0.172553587205 0.811239066087 -0.68963636489 0.677319760044 -0.0486390259248 -0.39489821998 -0.252198539498 -0.87515701626 -0.48308388169 0.906291046147 0.700183177192 0.717205774427 0.198092679388 0.471748307301 -0.491881116312 -0.268741368648 0.966412947603 -0.623684348366 0.539395929569 0.0363882428049 0.514608826671
cmpl 0.382520479454 -0.0574491519946 0.806040220034 -0.81926904146 -0.40072448302 -0.571407414032 -0.216003464148 0.361994366928 0.0446850520655 0.0853118740154 0.496659733332 0.761790831614 -0.79642152456 0.169976871031 -0.826964853131 0.63480291344 -0.693074371909 0.0941089762652 0.240272779563 0.102319125024 0.414843984838 -0.0326092173576 -0.0160713632595 -0.288289318243 0.29835618601 0.308560453005 -0.449848619611 0.627728209569 0.130027607397 0.383199801548
movq -0.730415844102 -0.71863847298 -0.404361357416 -0.0235177854294 0.535366333313 0.714489385375 -0.850282035168 0.995883378412 0.331494032147 -0.513584375856 -0.663748871488 -0.818739089161 -0.403631466344 -0.243663639363 0.293905745606 0.992192424776 0.662448162574 -0.54218780173 0.788555117658 0.61242953305 -0.967801072134 -0.845896144666 -0.888146300391 0.483782575684 -0.0300298762413 -0.369140076389 -0.871056615728 -0.800175536821 -0.153941314304 0.457508259455
_cfi_startproc 0.638353755664 -0.666392534872 -0.591076528923 0.674723809495 -0.388967218122 -0.149411087975 -0.908244694812 -0.249795435062 -0.882812620941 0.517841225924 -0.45230480585 -0.625679757695 -0.879432008904 0.177229190843 0.413149375643 0.151312929838 -0.819931734733 -0.333306785598 0.128645147018 -0.915422240448 0.322120782147 0.143725742859 0.174845843768 0.484128950341 -0.692029780004 0.94468544383 0.961342836638 0.535696507553 -0.564705457665 0.470927502647
fistpq -0.0130469981977 -0.0506950949494 -0.439619116162 -0.360722619713 -0.368948471617 -0.640302926951 -0.662115220493 0.886684834225 0.166560701224 0.236162663935 -0.692527982461 0.985185489638 -0.190193710778 0.91546464282 0.251074204813 -0.206155375756 0.266660132501 -0.929951093243 0.990680662382 0.0278201767184 -0.422212547161 -0.770659990056 0.749168683543 -0.45693553223 0.502318455415 0.854154576882 0.497992792208 -0.55168066708 -0.149377498098 -0.847298059271
imulq -0.69274409619 0.692764621679 0.151019055547 -0.413907285899 0.754981863715 0.600167974987 -0.905937899515 -0.594273607399 0.477345351987 0.380522042488 -0.576808766319 0.377481591554 -0.625761157813 -0.579753843849 0.686059893347 0.351861559223 0.0818357640629 -0.179938462345 -0.701462801037 0.651065456257 -0.161819333418 -0.575582486037 -0.705328274825 -0.0263559191196 0.61135875941 0.314953397134 0.831199948818 -0.472343261339 -0.0881197819302 -0.306915128743
imull 0.0745592804368 0.0537061910667 -0.715605822057 -0.369367856842 -0.615788052868 -0.757758355769 0.675788714951 0.460168912665 -0.386683746063 0.180194554051 0.439103187307 0.858159224221 0.102365696263 -0.958740800135 0.131611962318 0.312026677908 -0.0579504155666 -0.121689848261 0.542301002307 0.897610694758 -0.503219949933 0.186677815394 -0.113281874136 -0.286518530271 -0.786005902758 0.523135740118 0.0219406625807 0.0632334320106 0.475054658314 0.174659098764
leaq -0.574902354507 0.370565416264 -0.936126174404 -0.750262575975 0.493513906217 0.353219697631 -0.576374576663 -0.0749245641393 0.161517252459 0.918623959518 -0.538116119662 -0.612755433598 -0.340508051238 0.0874690512713 -0.636157448451 -0.210088080202 -0.809455643344 0.181298646711 -0.403014991648 0.496995182592 -0.141837242476 -0.326970106319 -0.635963982649 -0.287701966715 0.652796977571 -0.365356313855 -0.40819361752 0.761152321278 -0.0402875835304 -0.802303462277
testq 0.927552863108 -0.0945841002658 0.152595642166 -0.582112951512 -0.254656457685 0.645899114764 -0.236224733819 -0.901004065627 0.703744665131 -0.310711266115 0.254241524906 -0.361571492825 0.426973399486 0.800786680939 -0.400180855386 0.514444556324 -0.433478705728 0.996062478691 0.226467497625 -0.603790216455 -0.153240422022 -0.973121307676 0.156888380426 -0.242897942249 -0.385224319401 -0.748042179706 -0.429496845075 0.25391799521 0.453686474629 -0.302065875805
_cfi_offset -0.652198047016 0.662284314647 0.86746560577 0.907121203572 0.558000067662 0.357558794616 0.755017009676 0.774108090463 0.59283349079 0.0159414424966 -0.355933313498 0.876084494869 0.600846633526 0.358075020503 -0.3417209793 0.682315887882 0.417860044728 0.174781633411 0.042682431484 0.598870976465 -0.258410729232 0.0919750378498 -0.552772288793 -0.984212840179 -0.331521908795 0.541671859671 0.438357444825 0.827893539361 -0.790057743133 -0.9401888295
testw 0.237623662704 -0.463432818909 0.485537661074 -0.59401806432 0.620626272872 -0.994071117217 0.203430982451 -0.271409546809 0.898459816471 0.603676411257 -0.151371846123 -0.903672837518 -0.733770821192 0.577244307613 0.328996942045 0.624947227109 0.620863383406 -0.4302648002 -0.954475076956 -0.0124072256652 0.369494751412 -0.424163374215 0.975558504649 0.780419353051 -0.503917061639 0.700336878666 0.496165498029 0.136130673287 -0.201258702521 -0.567545298408
fmulp 0.0113366161956 0.121381844017 0.83476911549 0.584949582628 -0.731647495169 -0.775795976238 -0.804113771195 0.702433403769 -0.536596568133 -0.439411661481 0.755378895228 -0.817112891264 -0.728749084137 -0.607540314408 -0.574458341302 -0.526533860034 0.770311725132 -0.819064660938 0.937805954001 -0.421196541776 0.753027518297 0.706131333304 -0.556354462846 -0.308831501463 0.543503732418 -0.612099216772 -0.408541814922 -0.726024104799 -0.325426943858 0.637521563682
_cfi_personality -0.203708717701 0.578827605733 -0.185133383238 -0.704500455171 0.345463100233 0.50042674338 -0.844148350963 -0.31299189005 -0.905849904804 0.638228566651 -0.337198705025 -0.974117937476 0.308942657295 0.376856083911 -0.215154382667 0.0996194660067 0.989683963458 -0.646177905338 0.00134111700792 -0.0765871906461 -0.972108605635 -0.376946248166 -0.648708656634 -0.246603508803 0.0612755697539 -0.936975908816 0.332839353152 0.441768592787 0.0666838476652 -0.28225739318
cmovge -0.024982781108 0.927536712199 -0.472031127324 -0.620406792009 -0.487354035658 -0.864482691286 0.727877145298 0.0926330070713 -0.137070491092 0.116108763579 0.861184237513 0.0830946442391 0.629863378622 0.030358492066 -0.440249327165 -0.135029818131 -0.815383549539 -0.200304453754 -0.279721721746 0.231867282274 0.854112899136 -0.927972722994 -0.746035358296 -0.290427098837 0.991227868162 0.055607905187 0.725980773005 -0.435889844025 -0.886882849211 0.857815820751
fucomip 0.773719835382 -0.474682928268 0.69537599656 0.671195059699 0.346474904504 0.141066324659 -0.977717670997 -0.875761431809 -0.93176070171 0.274898686339 -0.374107748368 -0.61166817359 -0.76086344515 -0.364473875473 0.910696826613 -0.43716046834 0.413297473702 0.116338711077 0.983110528215 -0.595210476074 -0.55339114208 -0.127480040164 -0.381801669794 -0.239977215241 0.123912778243 0.245096156335 0.745139255607 0.460834766149 -0.0657230989487 0.114302467249
testb -0.232036878872 -0.647741074526 0.353852933461 -0.675882770924 0.847839847921 -0.434666874584 0.99005428094 -0.709818286616 -0.767232058321 0.476769361515 0.236385034169 0.364887303066 0.152930933416 0.765754127583 0.328707890471 0.322224763656 -0.969630674639 0.488169146152 0.617309164148 0.724906233607 -0.937690535071 -0.709018779497 -0.0722730176108 0.69652692268 0.218165638702 -0.698235802084 -0.857964868539 -0.077923128585 0.693955207877 0.127197554066
nop 0.849283607724 0.510635473877 0.907153274976 0.265194959262 -0.844991659964 0.458121131407 -0.228575949431 -0.472019491866 -0.492264373877 0.577765073003 0.905000009871 -0.894026412142 0.40258088404 -0.856494572558 -0.0122408323774 0.666415869833 -0.176784548576 0.0421362252099 -0.86279824604 0.907038867201 0.844016986688 0.0219100572057 0.330878112504 -0.254017397762 0.257365316274 0.177412133556 0.0915854744109 -0.396035293365 -0.721917098983 0.18863301903
testl -0.718152709679 0.790204403577 0.282645094112 -0.353175913543 0.248899456627 -0.666126493159 -0.671131648742 0.400357463408 0.689973436467 -0.33983841647 0.273045369655 0.892637247183 0.408170811704 -0.986510351074 0.442846956385 0.561855008471 -0.812866314045 -0.242624333892 -0.135175044565 -0.197689815566 0.118381846362 0.0911509456749 -0.703173797766 -0.412091950621 -0.082763056275 -0.977063932144 -0.887486735991 -0.760486967933 0.258381324009 -0.996181904269
cvttsd2si 0.84041225952 0.90002682584 0.0927551241094 -0.524754363611 -0.41747491881 -0.299276938661 0.0932229680849 0.0198441795396 -0.750305324395 -0.833152389333 -0.493534086891 -0.575899651936 0.505905617912 -0.335199727197 0.4641760407 0.983321652409 -0.673669501257 0.184979993039 -0.824797127965 0.890619662764 0.945562650511 -0.118326030381 0.423783634597 0.318152022564 -0.370504317904 -0.144009439114 -0.469893801491 -0.00221893729781 -0.140329949819 -0.0195246687843
name 0.671962712747 -0.781787807295 0.00851517553076 -0.848617182483 0.451799490826 0.803060532612 -0.504200821804 0.821849755417 -0.776273177033 -0.199685769822 0.454014628559 0.556183574947 0.687420037086 -0.890102285957 0.351443242483 -0.684589407978 -0.418745483972 0.528690734567 0.00119852314487 0.979411642506 0.0804232547392 0.447125162938 -0.326103366167 -0.219887705051 0.328799702898 0.775086756324 0.0681395363699 -0.0486884594095 0.633165134839 0.784603396067
fnstcw 0.644721167281 -0.0708546697275 -0.0070868387002 0.975422813558 0.714959062979 -0.0064269988052 -0.596748934874 -0.404187359425 0.253549182569 0.435338203845 -0.875678570175 -0.59895929805 0.582908079667 -0.914622829663 0.448637321045 -0.220835364815 0.488538671101 -0.710201987212 -0.219946033293 0.841164774608 0.492110269729 -0.771233286504 -0.547602520605 -0.0764703890869 -0.188661819437 0.986672604776 0.318829272936 -0.994087503166 0.0996779581229 0.0178952839165
_zero 0.0918070285173 -0.725135833184 -0.449741467281 0.49362852194 -0.122945281577 -0.346896341448 -0.528070335398 0.469211370011 0.912293922861 -0.46160094539 0.62543817571 0.455114726972 0.112574933005 -0.423247522157 -0.150873750494 -0.968838183391 0.265698557797 0.52580057503 0.859165859922 0.090684007733 0.416360616515 -0.255157785416 -0.0869074463067 0.906389283297 -0.101436471985 -0.941448483206 -0.885891081681 -0.588005964519 -0.864079419833 -0.0883741511679
cmpb -0.332593970131 -0.777320373575 0.302491764858 0.197518829731 -0.583944389215 0.974240379987 -0.260281070618 -0.00936135430983 0.285103387538 -0.255147165264 0.0981791999351 -0.858934857806 0.664449856099 0.933999289642 -0.857434976814 0.248536408693 0.359679186911 -0.340091375587 -0.625682730445 0.676577150037 0.166148492943 -0.287915212066 -0.942780582756 0.550495434045 0.86057952858 -0.777017289344 -0.703965898875 0.462172643204 0.368688379832 -0.742465531
leave -0.0144779595164 0.417627176403 0.00274220263116 -0.347764123828 -0.0215453211088 -0.335040793898 0.940331165973 0.777681381048 0.854405216146 -0.15136406648 -0.675031535367 -0.929049310049 -0.841562768496 0.540039856304 -0.370013333257 -0.237872165451 0.797674624812 -0.0272645840015 -0.454285015242 0.0164496872055 -0.872087472699 -0.932839188556 0.931940113037 0.764314522876 -0.730440384026 -0.656615730063 0.926258260136 -0.512682748822 -0.316550446556 -0.670408148411
_hidden -0.854043993276 0.352824682932 0.382000085089 0.0680108162437 -0.302130015064 0.142547625122 -0.263918943738 -0.108326756233 -0.583570061613 0.0372663648466 -0.205215152992 0.451645898629 -0.952822873515 -0.683458103167 0.817510579864 -0.220727243624 0.222914264634 -0.76565665541 0.112419655832 0.656188105218 -0.522001859641 0.291866830832 0.299306034714 -0.901982956553 0.420580739585 0.766397616242 0.647808833044 0.659536585358 -0.724860071067 0.721822917246
pushq 0.531611947067 -0.290060051898 0.661601817203 0.742169211513 -0.836277510667 0.728097912834 -0.337010680391 -0.283968767267 -0.17637897272 -0.555236259558 0.373466708656 0.202625311052 0.840365529099 -0.62848394887 0.986753833688 -0.750786961065 -0.759633707068 0.295089415486 -0.539345882824 -0.0734729254762 0.430007183264 -0.183215404022 -0.600232015107 -0.582455761868 -0.885145768707 0.540550880714 -0.236352337678 0.0718914847198 0.023601981084 -0.617747326873
_cfi_def_cfa 0.0474261521649 -0.654884566454 0.517760535356 -0.526377450501 -0.0640048150671 0.198198905684 -0.00961680328976 0.120014034385 -0.399391853973 0.991148818547 -0.80515657842 0.371429518912 -0.523916701796 0.500545240233 -0.529315231596 -0.288337168606 0.464446738969 0.19044758611 -0.711984844584 -0.428793279204 -0.223005487638 0.379173447578 -0.166349019359 0.886422236036 0.7704280917 -0.74376771392 -0.959384396083 -0.676228052602 -0.623282846689 0.793237167658
jne 0.167833973022 0.834870212986 0.93188581412 0.847433070693 -0.747462028762 0.669062216256 -0.979242339511 -0.910771605527 0.410499636995 -0.754101602039 0.188347920414 -0.960780291192 -0.0260266002951 -0.814695918085 -0.025242156348 -0.879772601958 0.937847073268 -0.911304642623 -0.951552029835 0.970892502432 0.947089884446 -0.686005670867 0.0700952060938 -0.0391780632935 0.838491580264 0.438416300087 -0.756431262009 0.00815653421649 -0.225772137018 -0.791229992197
movsbw -0.506076624442 -0.658631860851 -0.870591435746 -0.909020725521 0.0344230730482 0.896129809626 -0.223719066918 -0.807850711124 0.345538611962 0.400739758699 -0.162038415544 0.747020956214 -0.0166976563271 -0.697337650728 0.592138023049 0.278633649569 -0.254049817443 0.192028017658 -0.328122866317 0.792695715175 -0.101397308096 -0.317694474565 0.426232796811 -0.486093368733 -0.121381531854 0.383960398572 0.50087788391 0.235271297322 -0.270402452726 0.00173671519046
movsbq 0.748288028169 0.7782527567 0.738262011691 -0.496456110168 -0.933842586659 0.857754446154 0.998842796751 0.618988051501 0.663777284953 -0.865817129131 0.0532983634092 0.964046398311 0.518103783498 0.163286029393 -0.666711074482 -0.420417875677 -0.677498845003 0.136642994444 0.228695787039 0.489121942484 0.891603550127 -0.804137974476 -0.891286919815 -0.181976907733 0.635864377145 -0.337011126963 -0.698805869607 0.623596349573 -0.954613404072 0.654657378995
jle 0.820987118312 0.28276468022 -0.475405667047 -0.444909698676 0.567616867392 -0.595625723736 -0.108538627423 0.211804831503 0.0962485064311 -0.84152436677 -0.712137013212 -0.615058760401 -0.9013415533 -0.909953224116 0.4805558324 -0.531521811666 0.324496546489 -0.220932124772 -0.928627556157 0.501492009293 0.227255808501 0.943233369603 -0.0937949757393 -0.895190126499 -0.831677818909 -0.192749887059 0.911584549839 -0.230878646097 0.292897735654 0.973916124884
movsbl -0.00871623237228 0.132057894837 0.411812598544 0.615486300087 -0.441275051012 0.360960207202 -0.0874983229925 -0.359572836207 -0.951086752629 -0.710731762925 -0.409088948554 0.844804348075 0.703038882551 -0.970708694853 0.726923982004 0.681068943062 0.683650778372 0.599379505249 0.981983546418 -0.491142944031 -0.965910868892 0.64373603233 0.870561392576 -0.610371536409 -0.608936746452 0.532733458139 0.889558438767 0.167210355083 -0.73948314908 0.513967740597
cvttss2si 0.840887140117 0.289603212319 0.624351535039 0.401963353778 0.468455364008 -0.977259008273 0.129061398299 0.377177134121 -0.299658748188 -0.186396352538 0.892790745375 -0.708110982521 0.210755254449 -0.48999059667 0.792411290782 0.15277032104 -0.36611880577 -0.763882417812 0.294080467785 -0.686479963307 -0.103661023732 -0.375495714916 -0.548032062291 0.452468483456 -0.973472141535 -0.661014235697 0.273183086221 -0.67132133281 0.280730004503 -0.278554348738
orq 0.0325150105052 0.73813280736 0.081443802902 -0.267886430148 0.893706131636 0.477114791466 0.31020765836 0.79185343848 -0.627899706381 0.697812642268 0.372230212259 0.64871241568 -0.0199701459177 0.637991330383 -0.249750013718 0.858985314044 0.811839615767 0.349858971907 -0.815654033086 0.96818931364 0.947441242183 0.74647244216 0.562843487956 -0.980300455316 0.707106561189 0.831859115565 0.996588741224 -0.657561940502 0.0250071839066 -0.282145431167
fsubrp -0.799092638057 -0.578099447933 -0.736604549852 -0.892367511553 -0.983483865972 0.803207749061 -0.362021473497 0.500963031568 -0.139081908006 -0.134772845175 -0.255476912035 0.798050324347 -0.594823786795 -0.661746030901 -0.376742199542 -0.125127835487 0.059317366967 -0.355927571261 0.72553633443 0.157597931176 -0.247446198678 0.959587254908 0.178049113484 0.349981347299 -0.688409620808 -0.997416186711 0.120363830007 -0.802247614274 0.368009590437 -0.0469139813512
setle 0.184013381148 0.774045911739 0.888087512405 0.909154465841 0.405831522628 0.965229550979 0.725132664364 0.988494808545 -0.000601179299709 -0.952872498816 0.543679579667 -0.727150296555 -0.0976544614614 0.87872413725 0.957204761412 -0.730374689998 0.814185512481 0.948117972258 -0.0705123952126 0.141222580992 -0.376285708699 0.0284656545574 0.513578715212 0.3859802884 0.747920892622 0.305540105277 0.303224877655 0.690763531798 0.658982177442 0.774306444178
addq 0.54481261463 -0.660923662088 -0.230286653747 0.843147216858 -0.259106340352 -0.475717063165 -0.918482184591 -0.605947199493 0.863310481459 0.713883767018 0.3570458943 -0.641466914761 -0.50441406957 0.231419446612 -0.671996070623 -0.479304613535 0.698606111401 0.0451560367746 -0.253502184426 -0.593730379162 0.12416786152 0.456493478442 -0.663083445556 0.8703299739 0.586320646417 0.377067978345 0.322070625684 0.83904406067 0.57395402185 -0.712719686721
rep -0.986684204357 -0.791612937605 0.65410114888 0.247566248923 -0.459586572047 0.748683250832 0.438363712859 0.580331334122 0.602381351279 -0.841922303152 0.776960237445 0.855649892682 0.455900399322 0.610188878881 -0.441945647359 -0.0844512996009 -0.0905987949354 0.721963115403 0.298554717681 -0.298863270149 0.762759020692 -0.368820688995 -0.128996344149 0.538224416461 -0.820439438139 -0.0849187435848 -0.75902777626 0.154602452243 -0.14377674347 0.447580948904
jge -0.1665941458 -0.969453504614 0.223489127253 0.132908977106 0.984522614489 0.0387072813888 0.277632471702 -0.960979421038 -0.895367227958 -0.788969977956 0.382369043831 -0.755208032996 -0.231959678881 0.0961631236078 -0.64683489876 0.950386989667 -0.156309640145 -0.0873416977849 0.615702870789 0.695971105886 -0.217760972013 -0.167466123978 0.718421235297 -0.880677640168 -0.522915735261 0.34466993589 -0.0154624930335 0.911936673285 0.555535243338 0.0991459301943
leal -0.890203267842 -0.76438861643 -0.452662722988 0.0776801141717 -0.97851815433 -0.273521853961 0.420070439723 -0.517768203924 -0.505675959298 0.836618038006 0.916736714936 -0.691341940052 0.806913039898 0.889961685343 -0.343765503886 0.160334174758 -0.612723072083 0.992665308491 -0.179722200341 -0.686321401279 0.799233439591 -0.811080295212 0.403041770223 -0.0758214044988 -0.617233684828 -0.0489067090426 -0.61575275235 0.0597535244133 0.560675899919 -0.152218997919
fdivrp -0.407842121665 -0.37423216171 -0.639934507529 0.908498935316 0.390504438237 0.354282473745 0.564679025113 -0.460723849881 0.256273349241 -0.179778686211 -0.693225022625 0.169248485126 0.390196219456 -0.637130853307 0.813905417859 0.306775504777 -0.00290103275908 0.967839249628 0.411774725263 0.707562379944 -0.86907197043 0.329825275514 -0.772062374535 0.816070370257 0.265222981568 -0.0749042286854 0.896945343196 -0.0106156544447 -0.39444064611 -0.608033768815
addb 0.132529672165 -0.613466155973 0.444861731083 0.11126029517 0.652609621394 0.482670795469 -0.651023129811 0.407687949744 -0.85194176743 -0.550874897314 0.239079895825 0.351497926247 -0.131101014114 0.172413203338 0.340518379979 0.627018616505 -0.059711660951 -0.798756187123 -0.608032368813 -0.541611185827 -0.0189245025944 0.532202762785 -0.738342679274 0.917055453144 -0.597022621303 0.748442751339 0.294263022627 0.218671176947 -0.797621967542 -0.1512674889
addl -0.454934312761 -0.840647946257 0.0819137842176 0.140194616215 -0.209420256289 0.692184209051 0.973143544477 0.537733072753 0.814338830171 -0.649953448474 -0.253671471589 -0.164908814576 0.99546883056 0.795510150281 0.604948146821 0.272530013674 -0.841756490388 0.659793133605 -0.526956075722 -0.129594310612 -0.221576894697 0.701762774817 0.203775611403 0.868341797222 0.088808832752 -0.862367574146 -0.484953269046 0.20478244123 -0.00209379413294 -0.621171186043
reg 0.0635498283277 0.351211566826 -0.76559911841 0.468134597215 -0.786513952717 -0.3642036449 0.19849964041 0.882321276559 0.280566948039 0.746229339451 0.138355169217 0.883897002804 0.749544708167 0.117684084264 -0.993116695741 0.877429464443 -0.612094149925 0.783151761301 0.0808971650693 -0.494066166445 -0.520610218144 0.902695262503 0.542859563766 -0.557650428492 0.117109360928 0.914070541718 0.743577375933 -0.564279880702 0.872562543601 0.221067117708
_weak 0.872797472669 -0.00295905888372 0.0624219811758 -0.590075136112 -0.616943462105 0.0487897801499 -0.496239210003 -0.00407226421568 0.353851581806 -0.491057593153 0.985511695428 -0.711712492116 -0.880591612133 -0.173358019777 -0.251886129908 0.849385453924 -0.148557945089 0.478158481182 -0.675222748436 -0.426648161131 -0.745855712313 0.231170575757 0.0856431861565 0.888003025024 -0.196012509312 0.0020348490647 -0.706155159287 -0.69795940866 0.267232024091 -0.146858240727
_cfi_def_cfa_register -0.164375105046 0.113551371525 0.555099455894 0.707960544781 0.229425882557 -0.700293850186 -0.0190008371349 0.865826850407 -0.42637768126 0.718148037446 0.266107861922 0.796170208279 0.587651734116 -0.915996805638 0.591942918764 -0.0584841906408 -0.773650588095 0.512979512708 0.0764365190864 0.433389123879 0.419705765569 0.184994097244 -0.807128891331 -0.328078096892 0.81532327398 0.389262214523 -0.626721382875 -0.144234747711 -0.553404809109 0.902443659867
mull -0.881415213522 0.715128014231 0.864695564802 -0.0684664520624 -0.703886866478 -0.587178162037 -0.492413537347 0.596140715219 0.137262165083 0.845267321846 -0.560950051031 -0.613597010932 0.622741255203 0.341242494742 0.627895593202 -0.646017668605 -0.776885443877 -0.122676798826 -0.537606881386 -0.701075911967 0.623727947666 -0.438315401405 -0.580291086223 -0.845500886417 -0.940440952587 -0.0310022855356 0.051525470672 0.648171995499 -0.196965393737 0.91348882938
jp 0.276150412377 -0.0212060010874 0.723285012604 0.606723266831 -0.240689406419 0.546151074273 -0.440509823889 0.0928566106035 0.104097108865 -0.61873466678 0.737009756882 -0.199692800053 -0.507443157413 -0.0659250854215 -0.270586456574 0.964383655955 -0.823632946405 -0.471835980255 -0.273935654488 0.0124163670211 -0.824791508624 0.144496705762 -0.457327592223 -0.335964116287 -0.600282460037 0.40605328953 -0.684825217465 -0.559857934224 0.555972258863 -0.528965024896
fstpt -0.0223438049644 -0.156616826392 0.344047727939 -0.802449447284 0.296055868862 -0.324692502992 0.248074467155 0.0914116496988 0.224617373602 -0.214058226132 0.0712212787797 0.848331740837 -0.385104654162 0.594850098662 0.0940516748199 -0.263146220169 0.110356254437 0.721132557343 0.817407843051 0.472308406076 -0.435238858212 -0.179400670267 0.868846045204 -0.177387184395 0.436248246063 0.0823218041816 -0.516611399321 0.982754125752 0.700682951696 0.373588794751
ucomisd -0.551781747858 -0.421501624766 0.124210133724 0.289988402512 -0.85949081486 -0.779409530484 0.748698830517 -0.986656779297 0.198959698542 0.464165786214 -0.59676360718 0.39772680719 -0.707998114674 0.881292139361 -0.4362489544 -0.482158120608 -0.0284014604463 -0.600184548073 0.76580066569 0.659313980395 0.179787136628 0.157196504621 0.357614863442 -0.37176123524 0.0684336715121 -0.483555970455 -0.573067235146 -0.380136354533 0.924796387013 0.384611909883
jl -0.177280824207 -0.79475088841 -0.836371979193 -0.59396780488 0.982572222912 0.409671952649 0.1220692955 -0.266627957218 -0.828664179566 0.440897599508 0.528475303227 -0.5231294942 -0.00910756620653 0.826370199492 -0.669154415995 0.161591524492 0.714288634014 0.461408893597 -0.199561902521 0.17498122749 -0.207106955357 0.933588254782 -0.775849905752 -0.654038372743 0.21928501208 0.281648954142 0.596768836125 -0.836249897917 -0.336611829353 0.910339412435
bsrq -0.107738207881 0.677499089381 0.584896282364 -0.271628941144 -0.909574786138 -0.403208736354 0.18513916425 -0.921554014117 -0.529693449706 -0.386463334109 -0.478641605323 -0.665282881373 0.242086198598 0.798529820486 -0.191232417149 0.962444218292 0.277439631471 -0.809655659242 0.84740798024 0.973144589915 -0.161033976123 -0.807857124019 -0.900202717214 0.105372797978 -0.618319689998 -0.484755616967 -0.986014671948 0.51932855453 0.519495771594 -0.979101418349
_string -0.971896769153 -0.247174737767 0.977319614362 -0.477625581532 0.972051277738 -0.623850437314 0.174417913876 -0.436068870639 0.44765209661 0.66771745017 0.938548168897 -0.790087370102 -0.259041994833 0.76717141383 -0.428506774418 0.838662522754 0.781511676438 0.921898105548 -0.450927029724 0.735352270477 -0.644273015331 0.468174195772 0.412159777207 -0.389208425791 -0.628025780046 0.442233903902 -0.267296738275 0.678757080727 0.56141075418 0.195732937571
ucomiss -0.838114778071 0.123373044129 -0.0747843763838 -0.859240899976 -0.105627788901 -0.0281577948393 -0.324248079047 -0.803263109037 0.295264796232 0.612960929807 0.756316579702 0.171398616898 0.239344449325 0.835065052155 -0.523107240361 -0.448983491193 0.986801988126 0.341696313586 0.108418993495 -0.772493879981 0.842837462864 0.913859329746 -0.387384049167 -0.65661365457 -0.00206416597562 -0.604916181762 0.230522478739 -0.454474304508 0.416925003294 0.84357080579
je 0.490755772368 -0.305553289347 0.65251847777 0.432954178145 -0.255803164911 0.785805050764 -0.279546122766 -0.770436999291 0.0854644832569 0.426367644263 0.673197543184 -0.56811827859 0.509246518467 0.0322327029573 -0.354748846634 -0.631787185177 -0.639395545191 -0.758445525249 -0.59363628031 0.32921310043 0.426254314191 0.333656910316 -0.545367613905 -0.916523928776 -0.0603011078114 -0.25127388897 -0.903389241379 0.396259978332 -0.0954057146368 0.0643879961654
mulq 0.883520811092 0.703313024274 -0.712616649562 -0.965441595983 -0.737557239416 -0.569335588031 -0.242590956544 0.995248869934 -0.673854154432 0.778531613873 -0.880891889972 0.576153483152 0.500302964268 0.955304966753 0.40671359155 0.00718968915516 -0.393215003931 0.920651602491 -0.572442151476 -0.0278035882151 -0.0994229362754 0.546065106063 0.902227585991 -0.463094324253 -0.581117832941 0.0537913094699 0.64833668766 -0.594711684184 -0.652064509463 -0.851161397094
orb 0.406880575261 0.309818140806 -0.0862566744864 -0.0623857872298 0.978444629772 0.72556288685 -0.513302680259 -0.784111303225 0.483379846798 0.377324569309 0.255775052525 0.321462802128 0.110492353939 -0.402952674213 -0.0874972024681 0.733410585375 0.843821378462 -0.358827652456 0.720097878181 -0.367248906787 -0.667769126546 0.919078984174 -0.728805790925 -0.228223533491 -0.254109212519 -0.246326567341 0.302773390803 0.339773509134 0.0330358234508 0.748776174201
ja 0.306626759821 -0.963449591754 -0.21845408274 0.528569133948 0.629539140493 -0.655803253625 0.0556226589407 -0.766272872768 -0.843277397512 0.956872199945 0.413083639981 0.979484274078 0.113594561561 -0.209485808294 0.566962995005 -0.326409517378 -0.332520496084 -0.119576317158 0.189020928723 0.0993572277368 -0.198342370888 0.0693369598564 0.0728808872364 -0.356437215015 0.768454939239 -0.552478092464 0.0618469401444 -0.449208355426 -0.0668586323645 -0.916295534749
cmovbe 0.227317497051 0.312683124455 -0.524652777077 -0.633344107749 0.0339756323966 -0.92435265573 -0.754360377985 -0.125712306755 -0.663245820853 0.446414651073 -0.651922073135 -0.877740522763 0.434846974478 0.822921803026 -0.869002886005 -0.0211475537929 0.193061712626 0.0222287731189 -0.194634255865 -0.107960718857 -0.961963249271 0.222934875371 -0.239361312711 0.929717853047 0.21343827717 -0.537204546385 0.209567469116 0.617679326022 0.798488351528 0.698119294339
cqto -0.421607763978 -0.297872247165 0.289221200782 -0.332357849842 0.584341851006 0.312659567848 -0.13972226453 0.260477271562 -0.35395029487 -0.431733449284 -0.246965133684 0.940102832091 0.0428548943175 -0.425444950358 -0.0657968785154 0.330759441704 -0.186914684291 0.736654923235 -0.838414548318 0.461795176153 0.941615110625 0.265069264812 0.29767804568 0.505992370116 -0.75653805583 0.0889711769359 0.712160982125 0.334494165191 -0.623538266231 0.146479050813
val -0.0579929558097 0.707914330762 -0.673434999429 -0.626629148685 -0.487511489063 -0.189666843653 -0.974696161837 0.726945123861 -0.997411545163 0.617086899992 -0.339940270762 -0.713555519503 0.52173841426 0.803239376936 0.188142756043 -0.19047177268 -0.304057749061 0.32741970679 -0.916772132711 -0.770339494494 0.752403643511 0.419088447562 -0.154849634707 0.618144053976 -0.294777658724 0.465917339387 0.212713045895 -0.773340924781 0.0682678886088 -0.86673379823
movsd 0.719163939456 0.815625513528 -0.712505264721 0.344920352736 -0.711808313186 -0.659886858072 -0.654870145438 0.547347509971 -0.357115350601 0.788984108527 0.0414697784437 0.476231382157 -0.877980708097 -0.220347861332 0.402832252074 0.687953477228 -0.682354571124 -0.262779439151 -0.795308158783 -0.497187314645 -0.0261718132205 -0.447625308455 -0.570406625243 -0.536622595503 -0.336949907802 0.875327710129 -0.183817071574 0.193887077039 0.141402925796 0.622665216446
cmovs -0.619667638812 -0.885059624752 -0.991434183845 -0.532699058402 0.252575670162 0.751297264054 -0.45924429506 0.164676304219 0.928374913706 0.917193364322 -0.22885993227 -0.80749565679 0.74293738275 0.861024825009 -0.945587728832 -0.225475562765 -0.965063203781 -0.74067151301 -0.189056638647 -0.0214838150775 0.326006336912 0.662024765722 0.785571061984 0.60764556074 0.316195133118 0.422198759758 0.44278366933 0.849076818847 0.648418229743 0.915014591611
_long -0.352898477118 0.165894135982 0.128135640995 -0.47916308426 -0.673161230722 0.813126491178 -0.997402787194 -0.289696409338 0.96140945616 -0.306944304005 0.874048192386 0.450484036263 0.677309373895 -0.830140568044 -0.146065865547 0.892134037561 -0.909239999867 0.0901875776257 -0.0202322174867 -0.535539485452 -0.868347310233 -0.100516205256 0.117863582957 0.260661925491 0.248539303053 0.624368348574 -0.78834037007 -0.672239828013 0.331245146934 -0.078559138875
orl -0.811025007915 0.175072322905 -0.339026974454 0.721767416895 0.24682023498 -0.988268330737 0.709678307376 -0.813795258906 -0.652394913967 -0.225384180453 -0.12140321143 0.435009844207 0.907139065436 -0.548103967433 -0.834664818091 0.422238021538 0.795642413863 -0.192086662101 -0.0717823630764 0.921941449676 -0.00579123528815 -0.130967872963 -0.939739286234 -0.147958697292 -0.590872386925 -0.13982301273 -0.274439310777 -0.971293675696 0.372472605494 0.0616979653683
xorpd -0.886304870973 -0.946772142951 -0.838613957487 0.185172139231 0.591469856962 0.99463815538 -0.840637612846 -0.981804037072 -0.479832548074 0.682183941486 0.170399304883 -0.244416064447 0.621619108038 0.280900631264 0.083797829275 0.909122171738 -0.263193665325 0.451364127145 0.0608721984015 0.774589842597 -0.655622421462 0.278410254481 -0.380180596199 -0.781528180065 0.166114011404 -0.616106318094 0.794893156134 -0.720256328672 -0.317239293938 0.573441247657
cmovl 0.325226394122 0.508427040799 -0.972732837596 -0.0272014355212 -0.655584307791 -0.258916288802 -0.324316270833 0.314539704754 0.445075494821 -0.532086437357 -0.613546553277 -0.584531688834 0.138668303681 -0.562109736801 -0.0558890008403 0.317545270368 0.172428903026 0.517417865389 -0.974032157411 0.34996263159 -0.719906505354 0.210955648415 0.770249604739 -0.230671655897 -0.84862083717 0.995425082268 0.694128137875 -0.456146307129 -0.534154086006 0.186614613528
xorps -0.583463931951 0.908750369844 0.924389668492 0.17442109552 -0.0547734756964 -0.0180239111161 -0.545682632407 -0.920637027363 -0.808589927366 -0.93321587749 -0.583208699601 0.288195700862 -0.210660218921 -0.539812290374 -0.804158035416 -0.721825133323 -0.993429699951 0.263394663212 0.496693494497 0.304124137362 -0.4720411764 0.211918674223 0.983366440332 0.42001204399 0.340826714911 -0.349178258274 -0.420744300912 -0.935499329483 -0.372787001155 -0.902523216396
cmovb 0.251233209709 -0.0485822459594 -0.00993990734268 0.567291976659 -0.473838849188 0.621049696515 -0.529915137551 0.574077784538 0.405547038652 0.647848738674 -0.629356332446 -0.42246607921 -0.755560357772 0.115304384094 -0.593105769913 0.519092448001 -0.407237027201 -0.516695523522 -0.00190376836993 -0.936224348465 -0.0887590117445 0.055612806664 -0.720959828547 0.502569178848 0.752122431794 -0.379278206037 -0.294341190434 0.403310637809 0.182312295461 0.680017286243
movss -0.607202420775 0.79875429279 0.980546186644 0.487657136237 -0.220254264478 -0.913349984866 -0.290554709512 0.438031673012 -0.849653502003 0.379884380243 0.268474360099 -0.1098157343 0.326385245174 -0.456068654367 -0.825112597308 0.755901022745 0.233275716939 0.420064650656 0.0823412963207 -0.0929043483631 0.587244191541 -0.577669438688 0.0725294001607 -0.617031685951 0.788829722497 0.700612446116 -0.0637739619951 -0.626711867555 0.538753637252 0.415904694593
movzwl 0.177711696471 0.311458793782 0.71345782308 0.299519548453 -0.810049793656 -0.69195352932 -0.505723415407 -0.0368084905238 0.000117245618961 -0.0447747774957 0.669282988818 -0.0251556445046 0.837984509605 0.795993070523 -0.192015235986 0.210494113555 -0.71002101999 -0.825878604831 0.63580015798 0.530289563165 -0.187871428957 0.490469318554 0.313850166666 0.587220004214 -0.262476243501 0.950167968827 -0.955256441435 0.804887461703 0.614492182227 0.724918276035
subw 0.0758850367664 -0.573192075186 -0.212393010975 -0.926316293413 0.217890992315 0.544824558778 0.903997892587 0.119935670893 0.104471006315 -0.837104827029 0.864784924096 -0.289299334681 0.94397153372 -0.779043673253 -0.248531800096 0.110481621926 0.832334033558 0.131609675059 0.14660672654 -0.174135072404 0.981462634371 0.936576067756 -0.973869326813 0.819805324752 -0.727912979982 0.165681784956 -0.441673442587 0.0808924924975 0.277920313082 -0.400666324308
cltq -0.162825267709 0.268536770045 -0.939463160312 0.419498514594 0.319894064162 0.937005700899 0.979653134418 -0.644160768371 0.695464265261 -0.53881439727 0.176179834154 -0.370241960637 0.146358463802 -0.157646449927 0.305757922337 -0.550133667414 0.11147780172 -0.0597804648875 0.61430432155 -0.667709787 0.427394066602 0.584840790407 0.143060443757 -0.890336248903 -0.369765295075 0.339982813698 0.220792266249 0.802123811511 0.0603867626724 0.511410245793
shrb 0.343019948697 0.146056472645 0.86542474251 -0.287337883624 -0.284889121281 -0.44630302607 0.8897838068 -0.815432150244 0.390901213835 -0.0844943340515 0.635913764813 -0.915336731064 -0.0704140086506 -0.597043336837 0.555911552841 0.055801628567 0.649494840694 -0.141569989698 0.407918621839 -0.268482076043 0.380317450492 -0.995057433921 0.0866640933536 0.55272230415 -0.258776913897 0.920229166085 -0.357237581596 -0.513864058067 0.756884522667 0.648431402375
subq -0.106374347558 0.987116326866 0.193044217833 0.57889363324 -0.899485001618 0.724878705159 0.0576665962101 0.762595682568 -0.46251243288 -0.556217124627 -0.879834603697 0.277088874856 -0.517655061135 -0.564339643264 -0.258819639639 -0.715236486215 -0.918288934449 -0.393002393379 0.683933452772 0.395248469045 0.650108919412 0.712325973164 0.0193732433338 -0.0925340646886 0.487445554917 -0.688544962724 0.556726396227 0.248158874595 0.319672909491 -0.532249480727
idivq -0.753787250567 0.202753292979 0.586870338724 -0.568379988271 0.927949077684 0.409240944602 0.130121881573 0.375838511923 0.0806744938685 -0.249494524774 -0.419982435531 0.454750550178 -0.691693948946 -0.00794394162739 -0.604078316821 -0.219814987593 -0.563285251952 0.0743846894963 -0.460366479838 0.43100616049 0.381914190464 0.418318580642 0.501945664704 -0.02999797418 -0.715304567346 -0.458352569536 0.101868721048 -0.424226517202 0.397705878555 0.528898031908
shrl 0.612368045843 0.909039662246 0.514123270511 -0.712487950782 0.503729385202 0.0969614575961 -0.239730340565 0.334613066545 -0.0077825967907 0.471037432463 0.764184596707 -0.0637121181772 -0.22301292128 0.954346009612 -0.904627702954 0.53534199805 0.53245964749 -0.937488857629 -0.0657413045456 -0.138508901193 0.364984189268 -0.433428149282 -0.668301313024 -0.683853499185 0.133329084767 0.473221161257 0.997388502893 0.741760142917 0.246448676358 -0.97918578612
fildq -0.960748680236 -0.103273575473 0.502931382227 0.691994713815 0.925973110873 -0.671691202659 0.700370114124 0.284519674062 -0.557305307989 -0.310088252148 -0.0187738654916 0.0882665108948 -0.769682633843 0.616534346778 0.38196109491 -0.477353096613 -0.309830089885 -0.829368944149 0.130813654826 0.467333922096 0.269308692127 -0.426093799891 -0.949914675852 -0.25904894354 -0.655720525593 0.206244087216 -0.168128794928 0.947220148917 -0.314961051265 -0.144841680037
shrw -0.554197757876 0.268927616633 0.598425723746 0.206729331974 -0.0452163322098 0.202106412253 0.552914992606 0.661825893661 0.931554773569 0.0703021417871 -0.60947298992 -0.780943271725 -0.832298186754 -0.156759439701 -0.226840755994 -0.544896683757 0.214237823241 0.192923049349 0.0356841966838 -0.538255643331 -0.0327672331066 0.878368645466 0.183397086363 0.844511206404 -0.902486940507 -0.128405650936 -0.161309577658 -0.508045681084 0.725515175277 -0.355399190731
cltd -0.748174094491 0.349562302913 -0.406995674894 -0.983211459618 0.426895957559 -0.311752505 -0.463750018547 0.0909517765207 0.616144418851 -0.0428445217082 0.379087042737 0.401650999249 0.208889661841 -0.809289844524 -0.828441036136 -0.37909444213 -0.797398763693 0.279122233606 -0.658785630531 0.226359804678 0.733703627829 -0.0477448667144 -0.866343874815 0.659147245155 0.462913764642 -0.873838665019 -0.625610727052 -0.646687076076 -0.824069375108 0.878172261001
shrq 0.604007480671 -0.999106907507 0.575872604497 0.53604930784 -0.787584911379 0.365076984691 0.836512932517 -0.156841776873 0.69027141288 -0.726795384997 0.997079938412 -0.667312176374 -0.9367113409 -0.255820286168 -0.894436931699 0.94098546303 -0.454807036169 -0.330674299925 0.011351615307 -0.277222998656 0.382996156439 0.410476934861 0.346872620494 0.0491106941053 -0.618167991456 0.614201251566 -0.860492511381 -0.917633150373 0.272359405785 -0.520490305922
subb 0.668641612228 0.986236427769 -0.522666726075 0.205990047595 0.063865214228 -0.732851632882 0.473842151583 0.0963733855417 0.422692360667 0.0968334881609 -0.607884514174 0.843462078488 -0.690117805594 0.691012277966 0.0209998565828 -0.111011503226 0.888441554587 0.351691341588 0.884587747522 0.457387591462 -0.403962358314 0.741152994553 0.231537206036 0.278429132254 -0.35151731303 -0.882475841117 0.318761508836 0.00738020287175 -0.117658756515 -0.55028718288
setge 0.0624897257938 -0.529520561798 -0.376809901233 0.517685908993 0.923160660363 0.768192733081 -0.00729237029497 0.0143041219961 -0.469570476215 0.673802614221 -0.22407908834 -0.40792296255 0.797905090433 -0.744268181924 0.145813871404 0.216284003424 0.696278891993 0.349267908863 -0.279859614116 -0.158709060891 0.282558772456 -0.0410309117335 0.988655829588 0.0348631410673 0.916815452723 0.725384350659 -0.374976879647 0.566282770298 0.660212543621 -0.442985822257
unpcklps 0.507257441124 0.708723018947 0.026195333357 0.0453956336764 -0.00618111428455 -0.889927643423 -0.600028536537 0.934506400658 -0.595101812955 0.650579765849 0.684178654352 -0.42826432648 0.398082416848 -0.595606915028 0.855663168958 0.783508813716 -0.613756370799 0.993980489281 -0.413809427779 -0.305613676556 0.582743676753 -0.950758517933 -0.402434602128 0.879184059883 -0.301506675606 -0.206678812043 -0.813640312758 0.0810659744746 0.352855487902 0.478840663285
idivl -0.266848517328 -0.0851717542622 -0.58513573299 -0.755481051553 0.842289885176 -0.351924429756 -0.260943555096 -0.170477088627 0.365721846027 -0.728974656812 -0.691885649568 -0.040086169054 0.0488524083279 0.140578971381 -0.881694442377 0.0451668415853 0.600340154594 0.770210620194 0.56667895485 -0.212668038218 0.0736542036438 0.398465920551 -0.83681036753 -0.0909864352162 -0.993071800867 0.460385731014 -0.73770947119 -0.274136400952 0.0601634077585 -0.523096821222
cvtps2pd 0.0113342137251 -0.872322605064 -0.25193706223 -0.0544993418033 -0.722227962944 0.190930985822 -0.19420961873 -0.82906013101 0.230000789215 0.180443779859 -0.627723228461 -0.0424745314682 -0.816875249199 -0.897689416413 0.272220668662 0.188820719837 -0.767265480819 0.0414933823177 -0.38095132214 0.464104666813 -0.0260552056546 -0.135965309043 -0.758581114814 -0.998151160625 -0.663138292775 -0.670963072663 0.15958465963 -0.0818100876464 0.703675650973 -0.914753472531
subl 0.313418366774 0.0836914860442 0.987147772919 0.72619965434 -0.675208475083 -0.581883596073 0.267721053973 -0.665241663069 0.0704297005073 0.163238111773 0.513197492634 -0.513576726621 0.36519982138 -0.230020619235 0.569688518823 -0.0894130697377 0.597740536683 0.94330589927 -0.477672947097 -0.73880770517 -0.169728476523 -0.594127858008 0.0770881536135 0.912281399217 0.706204883836 -0.0273100923192 0.455702595355 -0.901025654337 0.976875909467 0.835649096797
movzbl 0.152140457005 0.308525895207 0.924249762138 -0.150795592706 -0.198971108608 0.830519825111 0.167118120414 0.703686759427 0.57151260533 0.160872832332 -0.962225732164 0.563382288221 0.864587540298 -0.27134491128 0.901439489828 0.27430446561 -0.191434871401 0.00738201143995 0.0784898833665 0.368359719819 0.166030656597 0.0487043008803 0.294118717176 -0.0413995764614 -0.208420842751 -0.904582381543 0.699252924418 -0.743330836477 0.478345720956 0.735707548033
_comm 0.560902624854 0.00216294064197 0.932837952173 0.916740044803 0.464946821267 0.49584251662 -0.585076202104 -0.13797217942 0.474322415969 -0.424957385763 -0.434618241635 0.602983639366 0.94111055688 0.273392454934 0.0266146774564 0.0304877706795 -0.812458930165 -0.722949735078 0.817796794874 -0.363983411254 -0.624600728524 0.826756991577 -0.859296445162 -0.182655395309 -0.346978594942 -0.418427698009 -0.544885675257 -0.966496080794 -0.59880120504 -0.0435667547018
andl -0.888118890833 0.079402052998 0.546069186626 0.379034979589 -0.093613242998 0.969412173876 0.7895089377 -0.31104313323 0.612679165551 0.463336070155 0.958159630107 -0.673749714202 0.905482991595 0.285879943789 0.699655220378 0.901598182365 -0.847065680278 0.107114510384 0.0719004725092 -0.968889171556 -0.415244391953 -0.193156796073 0.606765076404 -0.339738584757 -0.670133925175 0.0134633738415 -0.533572805236 -0.547410931108 -0.635504294733 0.105324837354
subsd -0.305963805255 0.363308263082 -0.820211992575 0.825321035647 0.156547835172 0.917105024597 -0.379934627214 0.442226033884 0.0656237638948 -0.212213208279 0.601972700777 0.380904232867 0.886276175804 -0.828708952393 -0.739829728799 -0.583996787131 0.99813755292 0.440000458469 0.0699799191398 -0.892750845844 0.369530504719 -0.867505902229 -0.431898862297 -0.409088584946 0.335665421546 -0.380668425457 0.795391024849 0.896587660031 -0.395779264802 0.625372841346
jg -0.829931096081 -0.622498781505 0.657927204441 -0.0918000278571 -0.578411336804 -0.954845415627 0.156055660172 -0.176769525294 -0.456459413778 -0.0565620607853 -0.41565566355 -0.810414067754 -0.105584160483 0.338315736906 0.894016603208 0.91951036222 0.465705185698 -0.788689292518 0.601778433069 -0.0120542647498 0.522587357216 0.129197746598 0.726131249319 -0.107410111537 -0.851412025723 -0.609528510285 -0.32711701768 0.0986477307854 0.318819167461 0.165636148516
_local 0.0398256007333 0.982776325436 0.945424911388 0.652968242569 -0.35525783421 0.744724454586 0.156916655197 -0.0248290352456 0.62532681763 -0.152625704987 -0.232577038253 -0.10685441693 -0.961135387502 -0.157948258126 -0.507598306264 -0.696508642125 -0.768877926721 -0.107065469636 0.787231019076 0.794166209753 0.406822192417 -0.992826482642 0.881464014191 -0.484971742876 0.839514203949 0.287167467636 -0.629769756635 -0.973778334822 -0.612963679493 0.191982411624
sarl -0.354314493937 0.484779250486 0.250515944776 -0.622025999048 -0.912551595729 0.53668277139 -0.456439203621 0.772731726792 -0.215478760586 -0.371736734946 -0.0696106772031 -0.792012358291 0.43761279191 -0.635700823033 -0.35202464166 -0.212732007888 -0.133251911191 0.825644981067 -0.967595480195 -0.63609480596 -0.555899690113 0.524942083544 0.296059794669 0.424731571984 -0.274260368392 0.660819852815 -0.154835868649 0.569905781406 -0.660469103005 0.14916271794
setne 0.165995833101 -0.961379908164 0.481519964534 0.0172831418556 0.744714130168 0.11927400976 0.385468832285 0.120876400066 -0.636921921614 -0.853208457892 -0.836925994217 -0.11659461553 -0.665442159892 0.771157629638 0.598787369487 0.361434556914 -0.408571613195 0.742366962669 -0.600424972585 0.794105505769 0.819440957121 0.888893350475 -0.752780171796 0.855949116948 0.3839759561 0.788095224462 0.895203998175 0.321632523889 0.730274190865 0.565188913268
faddp 0.652201057935 -0.774262024709 0.592655701743 -0.0107383342651 -0.476925866324 -0.965533977188 0.64576411544 -0.560718634324 0.595741906191 -0.593714148627 0.535812658849 -0.71159223514 0.408271932834 0.208949641627 0.919617044087 0.331772722274 0.0271791352365 0.143774711996 0.391392712991 0.212493835774 -0.823211749876 0.563288833014 0.513846985452 0.776673556936 0.0842881876961 0.974141412718 -0.436714874568 0.971502410099 -0.850074286059 -0.516608122732
setnb 0.0207255740764 -0.850527832689 -0.433423107962 0.957505207763 -0.00308657573951 -0.0652876332643 -0.657116456722 0.182932348303 -0.585407265299 -0.769564836435 0.366791203514 0.899318185217 0.648260036525 0.973639936174 -0.882962925209 0.18352917922 -0.233045245775 0.71913218423 0.869999702602 -0.56532906469 0.00107854514009 -0.0861435340335 0.516235085934 -0.0346635827052 -0.401111953744 -0.0628709555964 -0.0616561071488 0.596243689872 0.788320581249 -0.203063018453
xorl -0.453184881654 -0.754196055302 0.37588504353 -0.0503934678252 0.851805261861 0.33641122479 0.655794841422 -0.802527722465 0.252441105949 0.414223974744 -0.518912510369 0.27583532884 0.0279125089387 0.43745875636 -0.852071133781 -0.756742094435 0.0768459521443 -0.888143376448 -0.79367124567 -0.562693165424 0.676238698491 0.204399416359 0.455005399451 -0.625581648588 -0.506591483215 0.642160736364 0.210073182847 -0.54769810893 0.0412694681827 0.354897165312
cvtsi2ssq -0.0419696437409 -0.795640352603 0.893983034083 0.224381305381 -0.192686444544 0.569520631028 0.427382229748 -0.651134476816 -0.534946494286 -0.435555487852 0.476885721134 -0.138302073098 0.883107138808 -0.257686738332 0.489231472032 0.745229607311 -0.0024777641058 0.100327839458 -0.288312875111 0.893972711844 0.541904807136 -0.74422650715 -0.27251657303 -0.620910589966 -0.156191885046 -0.10296907571 0.954011060679 -0.64916819265 -0.759402029585 -0.332192559163
call -0.558377676886 0.667958125521 0.827465845898 -0.150107574068 0.630652069537 -0.44079077453 0.579874893201 -0.280558111857 -0.562447751541 0.0816645718002 0.942798554594 0.154337457393 0.752837862996 0.229699526808 -0.543829767868 0.969631748601 0.222016147177 -0.910979143469 0.162052448554 -0.476901977918 -0.946878145709 -0.236985566366 0.51123173248 0.519184554779 0.538839969929 -0.854210807212 0.894640964183 0.772214379176 -0.268675078086 -0.221055510889
jb 0.191276044486 -0.810211170426 -0.778476858192 -0.230262582668 0.543203306212 -0.273823591409 0.0157039446571 0.615093258368 -0.663903773579 -0.790114841191 -0.617626296091 -0.545099022296 0.217269377156 -0.302307390855 0.0689844365163 0.0466771054186 0.520100569731 -0.522388743634 -0.0660016405045 0.930316157158 0.660715434488 -0.725478275956 -0.237874933567 -0.0774963015374 -0.290561908693 0.0206840557145 -0.525960295766 0.522061396456 -0.135087705096 -0.193471633368
sarq 0.230611576699 -0.82753180303 -0.0592686154868 0.0793173023993 0.933714745298 0.471285197891 -0.429161485304 0.416206471464 0.522323191195 -0.388996410191 0.593530856045 -0.805070178956 0.761396894711 -0.827427119928 0.0103055770596 0.0876829637721 0.378887659724 0.881315710546 0.190757427475 -0.336434234336 -0.529468353803 -0.574056475516 0.769887548108 0.0201503490168 0.812892482954 -0.579121625585 0.96747113422 -0.720843041099 0.919178083303 0.883606156202
andq 0.557485556054 0.273786802995 0.880820745619 -0.323569054976 -0.587478803925 -0.820464673798 -0.645611126626 -0.580471156994 -0.867587499862 -0.856372601061 -0.495769557396 0.34688028723 -0.608799868602 0.345764091741 0.203325648338 0.644013962837 -0.740407635217 0.286097832139 -0.944583093467 -0.892416249892 -0.153083640375 0.22063780531 0.582390861715 -0.979083141103 -0.184490177215 0.795605912763 -0.0817173620333 -0.892945478168 0.718777542143 -0.792644493949
fldt -0.363222732642 0.52549243611 0.495669637192 0.306955213298 -0.72627761033 -0.63851622385 -0.251358367078 0.70445937463 0.397789352119 -0.254618823539 -0.349032953282 0.503927808034 -0.942171819745 0.809430393785 -0.520108811783 0.087109711137 0.606657151922 0.319962287057 -0.360721255975 -0.982795036637 -0.203982199862 0.0498689270254 0.865126097046 -0.817932984332 0.92840993522 -0.873854430169 -0.694186673901 -0.11716711181 0.13764077741 0.427138838163
subss 0.454670476425 0.751837548739 0.538382289734 -0.421710163723 0.248003082394 -0.984927453944 -0.503124686452 -0.200879208072 0.0753579321797 0.025718512161 -0.0470186934539 -0.554468660246 0.447497871968 -0.721291415596 0.550191649529 -0.484964486495 0.761708329076 -0.919295314686 0.9816941518 0.61235562642 -0.618050859637 -0.343776287673 -0.691624999734 -0.648731550975 0.536638042693 0.258963533685 -0.526820577811 0.615139251207 -0.361258454612 -0.833391016033
cvttsd2siq 0.911583927736 0.686329903902 0.671169418196 0.944229273502 -0.0412942648283 -0.887379989406 -0.831001251381 -0.28508845768 -0.734835090646 0.0197736556033 0.177487935358 0.783949311968 0.444121492787 0.476179650237 -0.942979432517 0.984035905313 -0.745260967726 0.0330523658593 -0.735059661903 -0.733443686929 0.570175900667 -0.20249816356 -0.163408620606 -0.0515349568067 -0.119535851613 0.373322692546 0.565553495306 -0.50529534111 0.601781313457 0.9296690654
jmp -0.658857514882 0.601098371738 0.859658882678 -0.124557631095 0.614612223298 -0.995049677215 0.777612454927 -0.454939278789 -0.90416139404 -0.454995820737 -0.0410340993434 0.2209161144 0.315192939002 0.419680082853 0.84739188482 0.394301807229 -0.897101391572 0.841598309149 0.771518519435 0.498290707805 0.0345361332804 0.970724186816 -0.825526314659 -0.545730884325 0.125145995951 0.270916731884 -0.431928487416 -0.807790185131 -0.31144369643 0.137001326184
movabsq 0.514977674391 -0.232751101149 -0.680934336437 0.928369149554 0.170148973927 -0.79202434732 0.04801138563 0.289503049719 0.417747801254 0.816632471638 -0.204886849332 -0.515161368094 -0.286651024734 0.928371313745 0.392000995985 0.718496673162 0.35440555848 -0.251259320446 0.454596804644 0.598766442621 0.984421834848 -0.961915850369 -0.389203494267 -0.156608489082 -0.738703989518 0.230343853078 0.200427885056 -0.979972826201 -0.894862720855 -0.00583227833646
sall -0.384290659231 0.312766663501 0.909115046795 -0.346217949666 -0.377975115524 0.162786968509 0.0158137192626 -0.740455104744 0.855140978308 -0.00795084887005 0.300007430191 -0.0393548707077 0.502923097047 0.601314015779 0.80040124811 0.307730228442 0.754585755322 -0.888802117734 0.764503804169 -0.453935899989 0.950685062571 0.602351337057 -0.266554385544 -0.880757425013 0.859817890716 0.431601095095 -0.946951605986 0.978128305485 -0.479779621206 0.945453618367
js -0.0395084065622 -0.609987935514 -0.626183436487 -0.917655923191 0.64786718348 -0.66411577204 -0.763259861664 0.305858500071 -0.713400609052 0.90166190889 0.0680477281334 -0.541999405723 0.0444414552012 -0.768305493914 -0.0244226791296 -0.204643993091 -0.972335685685 0.757390525429 0.803764547022 -0.558873427341 0.361506509185 -0.369241812398 -0.135000260532 -0.12818847502 0.518398084328 0.949362344355 0.391558504388 -0.304420304366 0.0228630627098 0.972178839342
_cfi_endproc 0.752725940981 -0.107590430696 0.787741359568 0.37793163815 0.465369411513 -0.440182783941 0.257821998419 0.204464219568 -0.646346831346 -0.40881516709 0.917197735625 0.490465598473 -0.717016961655 0.431705688289 0.20554930307 0.920605942456 -0.131594929153 0.767568941432 -0.0367545274784 0.393148674045 -0.414614334421 0.965830069251 0.520807362622 0.810434870986 -0.9678159316 0.46926928589 -0.330170357583 0.721970858569 0.667991330385 -0.60171390289
cmovle 0.0946816696943 0.0793737994842 -0.988715955126 -0.985988662604 -0.291196128252 0.965051424874 -0.477867016898 -0.898885139348 0.142477491693 0.353613272435 -0.0315410733197 0.12177368798 0.0220770065103 0.578434361662 -0.836523579795 0.148463424311 -0.0511392006175 -0.261238464546 0.810708277141 0.287845928126 0.670919697065 0.210758470751 0.628045372701 -0.985848384431 0.808193404964 -0.0578230410221 0.89886437319 -0.6232584976 -0.134313562717 0.305227089895
fucomi 0.217518263898 -0.783141973451 -0.886211207231 -0.479035479156 0.159907464456 -0.267765235058 0.249605737275 -0.722320569123 -0.591099872957 0.612322119608 0.388802454295 0.652704642045 -0.103784539891 -0.27364739633 0.199393072528 -0.829969024167 0.593983612163 -0.351231937047 -0.331797013042 0.759915660774 0.888957181528 0.0496742962537 0.759712640282 -0.466151311381 0.0570800256044 0.343428066034 0.846071250459 -0.275480919511 -0.733604145489 -0.349015911141
fldcw 0.682796494071 0.934373991732 0.326082237243 0.561087149449 0.905326960301 0.592214414378 -0.72400397819 0.932737154741 -0.264787132231 0.42129569131 0.250379984092 0.288673476496 -0.694679624901 0.153148571915 -0.0301175483373 0.571010873993 0.936198224076 0.410340454221 -0.437126076848 0.653204053298 -0.2835106211 -0.744038722499 0.20242200945 -0.924307630654 0.233403431617 -0.850132412636 -0.187830836308 -0.478392362119 0.736541390152 0.00337213567477
setnp -0.287355391357 0.801194232268 -0.894995483631 0.731755119206 0.790524823435 0.0560551775978 -0.852154031035 -0.0718320584078 0.755920585926 -0.665688511015 -0.473261724291 0.5664480138 -0.191584305864 0.188943499056 -0.138293781466 0.146283188697 0.563412160048 -0.461237014496 -0.504666592302 0.961140750892 0.352792688777 0.810801194422 -0.760814299079 0.603175510201 0.712823641326 -0.343630755243 -0.0209941722824 0.437218177567 0.723579757879 -0.692998209361
_set -0.406394886221 0.772080509055 -0.955429146096 -0.862954119026 0.488181731031 0.0307912041237 -0.377425861567 0.29825070645 -0.285269737566 0.974287363712 -0.283659585027 -0.73427496287 0.269156702496 -0.851070997622 -0.0952736832924 0.703908420061 -0.106488289523 0.913332852668 -0.936177495367 0.865329501632 0.1278226826 0.370555798492 -0.554722349743 0.856291825699 0.42200695718 -0.791420095016 0.735602539191 0.51762005046 -0.78216704677 -0.0917094604272
addsd -0.537945200248 -0.575267352128 -0.439367078689 0.156595797481 0.839042898284 -0.00352559370831 -0.242141595931 -0.490396504319 0.435807362214 0.262500730287 0.996842269179 -0.746896991308 -0.0283182121278 0.359156276475 0.0430966633717 -0.921995605849 0.934819987661 -0.390610331751 0.071346451923 0.484604728779 0.702120365832 0.760800880467 -0.286263124921 -0.874331226131 0.664657476251 0.234042706177 0.804487716516 -0.110092901637 -0.107466196906 0.58446985441
movswq 0.441612868473 0.161164338998 -0.386773910235 0.194052672084 -0.519105833693 0.250171998664 0.608427600879 0.315672998047 0.415513406231 -0.00902112250446 -0.124831062695 -0.585262621986 0.706003002497 0.277868077258 0.965984552918 0.32260438254 -0.154179282586 -0.0895140738823 0.698698783429 0.912442669865 -0.192909206794 -0.430763055112 -0.100082605005 -0.623427427078 0.133274894265 -0.5217399153 -0.281114699709 0.337096913794 0.971841126397 -0.326880128324
fldz -0.377648818902 0.293734659732 -0.644819193882 -0.568729643979 -0.794321625977 -0.615961013181 -0.257566784368 0.830279324397 -0.681455816394 -0.721794448381 0.764963383153 -0.636025199149 -0.699161580793 -0.79773909532 0.34830116139 0.135078558263 -0.874139841112 0.22465715538 0.223165840557 0.95102018171 0.210866552865 -0.73755803439 0.742536239056 0.918662391007 0.739992033863 0.420788778543 -0.65619487452 -0.308661032553 0.429391182208 -0.770835905537
movaps 0.991198241802 0.470908694724 -0.0958392999312 -0.16031553959 -0.592375927619 -0.33684369118 0.854521947173 -0.38609398415 0.866185735976 -0.312874949484 0.581063414605 -0.0672490337337 -0.71293780071 0.587691249689 -0.364023145594 0.898742143517 0.699563226241 0.754429449018 -0.330628251493 0.523994050997 -0.948812866341 0.926813105239 0.353070253269 -0.493108284308 -0.50564801367 0.918874159911 -0.753876217795 -0.929460935363 -0.237288395125 0.848351415241
cvttss2siq -0.114959836768 -0.164661245209 -0.656668797442 0.561420212012 -0.157349066529 0.850712099646 -0.528982943603 0.532972935625 -0.719653259709 -0.269339407812 0.369696512891 0.0812788569845 0.300636441846 0.853095761976 -0.149441303405 -0.962316238439 -0.754119484795 -0.812213364717 0.0699772616988 -0.814738120443 0.929406772648 0.527212055845 -0.375437516675 -0.354639190604 0.661170852116 -0.0344609280519 0.0214844957835 0.291193850601 -0.46637816339 0.75671404144
andpd -0.925945439198 0.493350811436 0.506027442918 0.297859528484 0.866956931173 0.686723628239 -0.563569142191 0.953692135751 -0.417109772608 -0.426936958687 0.194538281432 0.8147221631 -0.95063679579 -0.429601490659 -0.211332489248 0.759994046044 -0.404425485212 -0.377676999215 0.767016180557 -0.66676533413 0.82469143051 -0.238931606232 0.838525808833 -0.495535919398 -0.899467564218 -0.928625835584 -0.853130115702 0.418999814323 -0.235181044608 -0.807687661269
cvtsi2ss 0.502049165876 -0.583172322018 0.638786772282 0.758935437975 0.776125737461 0.503047258395 0.773920153573 0.91255829122 0.422082184682 0.823207337534 -0.256288435154 -0.315329721301 -0.613046545038 -0.212865769972 -0.906608228494 0.521774658635 0.666854794271 -0.320831719023 0.0588288316232 0.265007893829 0.306693029827 -0.328008628002 0.433156230447 -0.0512181934592 -0.311876735439 0.614267709092 -0.113172073654 0.143441489951 -0.958302746081 -0.211004662255
movapd -0.877994808727 0.973293501013 -0.910513260943 -0.210045207788 -0.585823917102 0.746014699542 0.503452619859 0.462228184025 0.691614264343 0.000730855660438 -0.307353356151 0.0569219485588 0.274772103853 -0.738263901268 0.937053232683 0.305034723879 0.00417880189189 0.385051527184 0.647598567794 -0.66364734558 0.553683385731 -0.135840546328 -0.945300462086 -0.591690151683 -0.00686984280282 0.637312101219 -0.735568193005 -0.899240081789 0.931094231845 0.598327974633
fldl -0.813533197136 0.800096840409 -0.860258586653 -0.546313744146 -0.0336364027394 0.813171701743 0.818264544939 0.350461246183 0.723302749551 0.0234323256936 0.478406912429 0.922662629254 -0.632126629519 -0.789438004085 0.589652876504 -0.744509916578 -0.7015978667 0.966358265378 -0.223831926421 -0.773112672317 0.397722989536 0.790847309496 0.116122393974 0.187526227085 0.140982722932 -0.616858673659 -0.298378596754 -0.332364564152 -0.53386996279 0.920612670243
cvtpd2ps -0.567910142437 -0.869392171015 0.708278535412 0.313492663999 -0.794542587263 0.0625243998645 0.447177772585 0.476567379754 -0.446361700792 -0.317817217702 -0.358633855243 0.662827465256 -0.201486999901 0.280640099531 -0.579857234749 0.836814392944 0.735844747657 -0.573687879352 -0.386702169647 0.133180395838 -0.259933529788 -0.359654821056 -0.72540880741 -0.153901225833 0.586804754925 0.556603873996 0.0249976795354 -0.130667683396 -0.416187329982 0.759822658271
addss -0.882081209598 0.939567030099 -0.0399678590307 -0.073358963592 0.750786020325 -0.577451785662 -0.594605631134 0.396322194462 0.990511559648 0.943818034658 0.24339825821 -0.444809469252 -0.716384930978 -0.890102625268 0.839284986272 -0.290641484217 0.74401514931 0.644065607625 -0.100781588528 -0.200919216981 -0.916399232222 -0.627076799908 -0.662745415127 -0.0578731008254 -0.818935948099 -0.568949081034 0.0658745869243 -0.791202836089 0.842900085633 -0.659754130444
_cfi_def_cfa_offset 0.177512440914 -0.772715016655 0.996348242598 0.661460528668 0.292681125189 -0.612564223694 -0.296644042533 0.118244298588 -0.63938164936 -0.681766259451 -0.26660432201 -0.479518265214 -0.858599450088 0.674438098756 0.382093836098 0.665024172255 -0.205451365613 -0.647014567415 0.303811757128 -0.220372401052 0.882309252235 -0.584749362152 0.443091166239 0.180694774814 0.749095069145 -0.671678869782 0.321058031945 -0.336693322419 0.0096159738467 0.5651304789
cvtsi2sd 0.0991749571222 0.149771860128 0.0744278308898 -0.415732048957 -0.544815012758 0.106926642997 0.458786038165 -0.146548513636 -0.981376119259 -0.925275626851 0.178049067313 -0.0171348796056 -0.83037600239 -0.639012917375 -0.539808015245 -0.517983092245 0.752251838489 0.14303474326 -0.891296918852 -0.49757255726 -0.287333797468 -0.901687673632 -0.00192745222305 -0.498854392179 -0.400762760624 0.592974332427 -0.300201356495 0.420863227145 0.426818972159 -0.315049086351
movswl 0.0471690587835 0.154586841572 0.947811296473 -0.137786607739 -0.842081879362 -0.160876174701 -0.224130629197 -0.684335784725 0.7359062203 -0.610547955545 0.895742739744 0.650762256252 0.617758213562 0.444585584699 0.736080785918 -0.368273307823 -0.319616241106 -0.542754099574 -0.473697186088 -0.544003950129 -0.488032391445 0.661037415714 -0.622143769392 -0.227214012645 0.894185255086 -0.16076156874 -0.0144358365517 0.80557867018 -0.404602396636 -0.897516782343
asm -0.140746776006 0.592591758991 -0.0323599646807 0.983516111349 0.262755132933 -0.0803487170464 -0.329376264546 0.637775006785 0.604948185609 0.4509811615 -0.349888550148 0.86083776526 -0.891877488082 -0.181537812856 -0.767999565057 0.479787664168 0.662051126291 0.957882844674 0.640641851561 0.652581706105 0.731756288737 -0.437377865854 -0.720856244571 -0.910860858091 -0.792577550389 0.227354721112 -0.689233021707 -0.800046356904 0.283221566164 0.860550584648
mulss -0.640383350726 0.243602193851 0.0977367039084 0.459815467341 0.323484013245 0.557658305913 0.163322025039 0.190708371727 -0.0898162714417 0.610455107968 -0.788836179925 0.461565333257 0.22746887285 -0.929885370652 -0.576892933482 -0.678437918305 0.402758956662 0.283360164571 0.201980755047 -0.652273642465 -0.759422940846 0.842263765045 -0.340020615386 -0.947003363547 0.0101530139906 0.448998027727 -0.0320092739169 -0.46490036791 0.658096245071 -0.0381123946833
setbe -0.290640877231 0.765863598084 -0.163980686367 -0.776713082567 0.0458748177775 -0.150545265186 0.825354993398 0.456740269465 -0.800663158689 -0.0324674242171 -0.899326203885 -0.665854345882 -0.515755089785 0.843466092012 -0.364371721295 -0.484666866908 0.472892096955 0.6127212665 0.63360591813 0.0801191920096 -0.847493524253 0.252989688313 0.0259424478323 0.0707456094814 -0.21681068837 -0.591050080128 0.227220879472 -0.59303038207 0.468250028891 -0.0349830081919
fildl 0.121801608939 -0.14198003335 0.579400133375 0.759804849549 0.735375942497 0.210935283583 0.0223528420794 -0.809416957922 0.805408713458 -0.392318873782 -0.781460815203 -0.0824025967039 0.512739346508 -0.537350666015 0.662302240711 -0.100768959466 0.159118796522 0.593909979854 0.648080123348 0.0649262327732 -0.506488182338 -0.0354040135114 0.126882138604 -0.105927492286 0.0150545046479 0.0780403766872 -0.873800115324 -0.848263217411 -0.107951176518 0.745869262605
_cfi_lsda -0.0353063441241 0.0812941011221 -0.528287369922 0.82580823168 0.725899623799 0.0827758955386 -0.694010759619 0.0277358264545 0.347585664863 -0.994437451714 -0.891820395661 -0.609405797499 -0.130486557595 -0.797810495489 0.88990657671 0.583294083841 -0.0273792390704 0.351558802932 -0.608908038859 0.224943074029 -0.0445777168809 -0.831336858113 0.658251557407 0.143994405624 -0.254489538124 -0.319511659682 -0.1520075411 0.939558759421 -0.22423387253 -0.43120065113
_uleb128 -0.020875113584 0.570805979134 -0.85004929076 0.184467714114 -0.224947786575 -0.39352869936 0.49080972138 -0.238011415093 -0.0545690125551 0.530852783594 -0.660902406948 -0.88538746696 -0.102212753272 -0.118322584687 0.296720477074 0.766794544664 -0.932715292058 -0.0764824998803 0.243977068898 0.904625428009 -0.416994838902 0.118734390143 -0.836838015854 0.197903868354 -0.892165790693 -0.485813263943 0.407858451119 0.538943965718 -0.983535603779 0.682986589607
mulsd 0.102670487163 -0.95658890013 0.646099053631 -0.207480968684 -0.0350060034982 -0.413260609756 -0.666426112096 0.578009698399 -0.970221527245 0.739554936755 -0.98127770359 -0.260897832914 0.535726060282 -0.937999713347 0.558868468153 -0.0953966646217 0.829460824736 0.211949352735 -0.875879992527 -0.519028751777 0.820982466519 -0.693157191843 -0.0203285211876 0.66751996394 0.732028556763 -0.905732350856 -0.914281702517 0.0638114801874 -0.474072931723 -0.355399608772
_quad -0.374862790707 0.876372527444 -0.58474119096 0.639988802469 -0.971651635707 0.923430830678 0.821103336615 0.722084850888 0.657390668026 -0.259511976901 0.339198643898 -0.746271060799 -0.401192906063 0.190166008672 0.603670181983 0.547424229103 -0.505925812203 -0.495087047679 -0.372911328861 0.786334461857 -0.5870781745 0.208055122977 0.525033635116 0.576137425073 0.256582872977 0.339675427136 -0.574165579146 -0.332288021436 0.0833002156423 0.483739907547
notl -0.242535389299 0.327451231157 0.179521412197 0.736238234836 -0.718877532416 0.844595076481 0.739157122565 0.0725487718247 -0.734046090183 -0.0391498159064 0.79261589702 0.676083181037 -0.89696702696 -0.648650627611 0.502244548638 -0.83700353351 0.500888944868 0.264517931224 -0.907660358662 -0.0286456551368 -0.693327826534 0.968932513464 0.58650722381 0.220921549382 0.486091080618 -0.779384259911 0.148045722584 0.546646433982 -0.589261440534 -0.154017016587
xorq 0.827824603195 0.0533010521525 0.731126135123 -0.270835028831 0.437301131529 0.709860951894 -0.60366618954 0.779871775359 0.342438985816 0.428811234611 -0.293697543742 0.829510048361 0.385513606146 -0.905364043844 0.586546691478 0.537342168774 0.145265691774 -0.976369787161 0.977434161941 -0.478080884885 0.801086413578 0.799039213469 0.541552293724 -0.262287342327 0.873228327987 -0.294263890646 0.423875321313 -0.581824651078 0.669188602702 -0.940146050488
addw -0.907197707637 -0.164780238173 -0.9947510448 -0.336287492512 -0.0854338084736 0.572153400904 0.255039465256 0.255005338229 0.884789438241 -0.311758909824 0.571343744862 -0.0905242756489 0.466117848096 -0.944056026384 -0.959965416117 0.560622310953 -0.774177099318 0.90102287904 -0.117490734322 0.496186676184 0.17965388179 -0.223235153222 0.942100433095 0.645171826853 0.975759534543 -0.880953462223 -0.535104629294 0.395039718978 -0.08164902942 -0.0217213183503
divl 0.444628621788 -0.778332527757 0.558719127173 0.290267531038 -0.198112968494 -0.776673161625 0.868430758343 -0.729938989386 0.226508354066 0.0183353614023 -0.217875240022 0.268183645437 -0.244800234297 0.370076381924 0.932909149164 -0.0085536766958 -0.525756295144 -0.352408231617 0.0953610769779 0.358300923619 -0.448101132783 0.567019115278 0.368770708091 0.496883237207 0.385734549012 0.878656565921 -0.982496269809 0.461748455303 0.427462254265 -0.901868588109
cvtsi2sdq -0.259136865584 0.855325075968 -0.929827670234 0.0124695589671 -0.773013800769 0.413416743087 0.342390234043 -0.0101457499773 0.36092451081 0.383111614686 0.978937347195 0.486097802716 -0.511080797431 -0.79403704585 -0.767415249008 0.0861006644194 -0.234497769638 0.061084560375 -0.346834912725 -0.726143729218 -0.955434587902 0.775498631269 -0.0585101536581 -0.568669039349 -0.0156082288356 -0.895814037464 -0.0409561440963 0.103394711437 0.938384850523 0.615417529455
fld1 0.437804491668 0.656552578923 -0.0346233514436 0.508590276855 0.161679946811 0.62113899601 0.974817524566 0.113490456808 0.169113291396 -0.637813069688 -0.250068447561 -0.391148255631 0.117336001041 0.662285675029 -0.595878040842 0.786087063502 0.339618460754 0.930537914022 0.297704257553 0.576297704072 0.0818189034926 -0.557430833496 0.798429027442 -0.598550050795 -0.470235021765 -0.762411360847 -0.670074056602 -0.962329238378 0.723040668014 -0.787076609636
fstp 0.0819157107872 0.192626419095 -0.457674851899 -0.942563501525 -0.202233752679 0.141393507444 0.64025304306 0.876819740332 0.97940405939 -0.407187465584 -0.0858907355948 -0.9102070801 0.364103285067 -0.0134455044888 0.828314839194 0.16239145498 -0.043321922712 0.45346369398 0.518692279894 0.414700886694 0.92566079088 -0.440011580676 0.179830505137 0.316387768857 -0.804984445642 0.339524893041 0.410385618819 -0.690326619274 -0.645353008735 -0.755148244494
_data -0.260434040929 0.659399873206 0.262140308769 0.631084098963 0.829858443626 0.37844848047 0.0336965611503 0.821585899725 -0.764408972357 0.733467424832 -0.905370959927 0.0241724335971 0.703402709793 -0.941693546565 -0.85449276356 -0.0519474743353 0.833611255446 0.859547642685 0.805332862783 -0.151518826448 -0.93830986728 -0.234608947737 0.772319444172 -0.752039380377 -0.272655685813 0.102110088732 0.465104883161 0.251290804657 0.507155419805 -0.747796223986
_bss -0.0659306891751 -0.715827486843 0.0532570438101 -0.937359900265 0.0771616442999 -0.383719675356 -0.514875687577 -0.095835684398 0.0705749304596 0.569981611826 0.734338216361 0.97056707087 -0.143865009096 0.746115325123 -0.197047572909 0.775925893962 0.122369422962 0.206127872445 0.682258729704 0.927977215332 -0.976598273004 -0.25852416473 -0.0935227687614 -0.696210554899 -0.365260271833 0.276015997084 0.265971467752 0.934272721147 0.56806063787 -0.930872851233
divq -0.413230549075 0.189301867303 -0.586472330836 0.946722660153 0.492962180172 0.038299611751 0.641991631666 -0.380671571777 -0.499440708844 0.3856779786 0.314040454192 0.9540759668 0.906606117732 -0.578115297819 -0.554570087595 -0.494557831993 0.0973780084105 -0.96504672726 0.433067076036 -0.424139780917 0.691512697865 -0.0286169449705 -0.527129571924 0.069370239692 -0.250134637632 0.479259781204 -0.32759933438 0.0937603004817 0.369770750957 0.219412417475
sete -0.5931509673 0.334145970382 0.0768361276296 -0.392422706138 -0.542633509537 -0.0798663094271 -0.747934226525 0.500249314212 0.762415342412 -0.292980238766 0.463795845716 0.725984641642 0.839373712429 0.734513704428 0.0339522483081 -0.228981463026 -0.192786729035 0.116539036359 -0.537568309224 -0.110103476558 0.609426931963 0.852287999456 0.725087300417 0.408938662623 0.275399882846 -0.5224278913 -0.881991102959 -0.646689215183 -0.286461247093 -0.812962673248
cwtl 0.168770768971 0.553347860135 -0.495804869186 -0.70964188987 -0.00703177895366 -0.716026414429 0.402725621726 -0.739726287754 0.94797561728 -0.269763004817 -0.716422817419 -0.743744999947 -0.826013340578 -0.457044325051 -0.0603617492615 -0.475427725726 0.710596194551 0.434742749794 -0.692409664023 -0.0702590058294 -0.593083091766 -0.103221289151 -0.812792160557 0.618659999079 0.653596272415 -0.870196318745 0.787266098646 0.626326794144 -0.928596410463 -0.264127257839
setg 0.0049633486944 -0.530482294814 0.799155684517 -0.74718229761 -0.701639526185 -0.539889542198 -0.450942200096 -0.703924408822 0.784611504943 -0.224287328637 -0.809753957887 0.886913561239 -0.383521791176 -0.663138141987 -0.847167782618 -0.264332223741 0.867434605289 0.189857342318 0.0262295002099 0.617571169617 -0.462132504762 -0.212034726234 -0.394079272071 0.138432566914 -0.0289586270463 0.66331410398 0.739899110432 -0.0331575842621 0.52116403737 -0.167303390257
_align -0.255091635455 0.260907843047 -0.683678685542 -0.193627238118 0.293200069564 -0.310707327923 0.0683977107509 -0.740427579717 -0.221621258273 0.879261576762 0.84332653199 -0.649907473316 -0.304509216569 0.032642278509 -0.139765685229 0.238764757036 -0.796016527703 -0.611044784969 -0.485748204321 -0.568642480755 -0.755210520881 -0.22754357456 -0.953007671131 0.428800747713 -0.895900862245 0.606313994043 -0.132744760884 0.622080606407 -0.561248163282 -0.581977517742
seta -0.557630154323 -0.0922605559407 -0.235765175036 -0.801460092428 0.240518516983 0.411320908724 -0.223323996657 -0.460380486097 -0.386127319911 -0.993907571961 -0.148274098821 -0.269607682228 -0.937938619596 -0.643701840286 0.688419921842 0.971239031873 0.0814595990373 0.405648276083 -0.421592185698 0.809348215075 0.579265006325 -0.659369476901 -0.80230637518 0.903497549384 0.482467593198 0.744560881077 -0.190394658064 0.595080378729 0.413012382339 0.772359275863
setb 0.367643773686 0.819914441859 0.00137115533396 -0.903445653799 -0.844241658382 -0.936266035546 -0.512751612757 0.775264024594 -0.243118560536 0.142973569754 -0.487497481708 -0.238205729042 -0.947674461732 -0.840166788813 -0.804429832495 0.388012135412 -0.831913265546 0.204363435446 0.410838855137 0.347642409525 0.977793508553 0.214267792136 0.205836803147 0.315677321211 0.499888872727 -0.519489133651 -0.532582636549 0.661505640024 -0.774069274102 0.122060508478
setl -0.383795128952 0.945953763735 -0.634952994886 -0.52857782393 -0.699225490942 0.970340954185 -0.588614491252 0.683898859001 -0.151180030542 -0.458182405341 -0.121291842154 0.216997848734 0.669588805838 0.427479991739 0.56092865387 -0.563386836076 0.00275765881423 -0.329112635436 -0.0525748324857 -0.0570976918425 -0.796373113832 0.346772352283 -0.701465860118 -0.450540702004 -0.729856845476 -0.0994384678058 0.492964906764 -0.528378814808 -0.171073369101 0.396388861244
divsd -0.934694723778 0.765054344407 -0.183483604218 0.63308269678 -0.743915487694 0.403881254426 -0.108243480712 -0.595321389568 0.697248153576 -0.64584608913 -0.5819241842 0.409124812466 -0.403453629751 -0.306992807407 -0.141522903511 -0.0701149700513 0.124022177389 0.399032231255 0.781108795724 0.687395855113 -0.762899921894 0.247742067329 0.18303197559 -0.190878141975 0.185995874751 0.808439176288 0.634982810059 0.649017723517 -0.755629204917 -0.570409411639
cmove 0.485884873773 0.641654926717 -0.0763053902894 -0.37291848495 -0.932311304972 0.85199409303 0.558513732935 0.247757338028 0.836923868068 -0.923647337955 -0.31074949484 0.430150358011 -0.787561627289 0.330070347609 -0.493668780573 0.88878712606 0.321686525457 -0.0485359217751 -0.343137060341 -0.970786811832 0.308067801849 -0.114191269218 0.347810402656 0.51006678764 0.566696485083 -0.92108926627 -0.625886081113 -0.898293315145 -0.587664642551 0.997494704307
jbe 0.540761114127 -0.454224858409 0.642860028654 -0.79040546342 -0.706590557368 -0.20256355833 -0.298204792885 0.455512421647 -0.143358214286 0.345336699649 -0.795403446333 -0.120608151176 -0.427806678522 0.672807827779 -0.304475665344 -0.964517521192 -0.740048920921 -0.693891996508 -0.80373261595 -0.186829335774 -0.050469092051 -0.0113889770799 -0.666649985346 -0.499762319293 -0.416788694656 -0.148428470602 -0.209591307671 -0.738980639594 0.178697046509 -0.440957263249
setp -0.0991489612458 -0.537090546786 -0.159064003353 -0.667052941598 0.893927038434 -0.440446495618 0.977541473478 -0.768088729711 0.578232772617 -0.954722285047 0.102609192899 -0.86758157745 -0.260368768352 -0.450619893173 -0.268439535272 -0.183518860962 0.616016280161 -0.300196520245 -0.249958716242 0.259903025521 0.0662677675137 0.103295092226 0.603292570228 -0.679286046071 -0.192970570344 0.932965898174 -0.383112064703 -0.655924739006 0.42462849214 0.451375732719
salq 0.89464816448 0.447921652381 0.577497149737 -0.527474618982 -0.165067194776 0.71692863821 0.206354738066 -0.773872159079 0.89876002208 0.0368938297465 0.201989909388 0.953130262018 -0.738180509668 -0.848126535155 -0.433295271801 0.240558315853 0.9701634373 0.829320550697 -0.404921161348 -0.0785330174946 -0.211944768248 -0.057772197784 -0.378468133085 -0.321173185509 0.0936466942736 0.863895777464 -0.793662633345 0.356010889689 0.683776421047 0.574155682715
cmovg 0.49308514447 -0.925081285802 -0.218961907237 0.0976677533453 0.448413345084 0.8309324532 -0.0213579836131 -0.904429591055 0.890054780376 0.275552829795 0.902448585509 0.828730976311 -0.459244527664 -0.320751734634 -0.867101679908 -0.493814317561 0.0556757381638 0.22359303972 0.305633100726 0.768946183867 0.132753257003 0.62141550867 -0.0177738649841 0.0170252112454 0.471383644191 -0.877309083106 0.948991950952 0.829810578028 0.946803981139 -0.259030448642
cmovnb 0.0933476001255 0.21355088639 0.899748313221 -0.752368798968 0.71457561639 -0.417126045804 0.585718089501 0.496388782026 -0.0526422534005 0.48312062399 0.998799368783 -0.224811146509 -0.942345002908 0.610026097345 -0.374251289864 -0.378908201061 0.398659329992 0.680191535841 -0.982100075737 -0.771149024017 0.169610434092 0.618701440095 -0.842939238349 0.276208817113 -0.304192799687 -0.607598848755 -0.667400771773 -0.526669034494 -0.960339228545 0.434050294089
divss -0.809651682813 0.929964527494 -0.955657835428 -0.281676315945 0.967772285699 -0.300057887289 -0.678560135356 -0.436520220218 -0.658520318312 0.797072044064 0.312548546577 0.880823811265 0.495241286302 0.0546968200389 -0.394924712968 -0.0183260335739 -0.333669761767 -0.530211425478 0.819691139804 0.876497710997 0.436385194579 0.326190198343 0.980874690127 -0.813296090793 0.795676890819 -0.218558855644 -0.381054355878 -0.640672335437 0.607133360427 0.490433496285
g_return -0.581400074317 -0.815972894761 -0.585922833 -0.411410941918 -0.677223460997 -0.101005701627 0.372732889753 0.208335969703 -0.313357775864 0.739439052177 0.575888150051 0.855404181157 -0.0996589245523 -0.775210551251 -0.216681574633 0.706185362947 0.752589096319 0.96232376592 -0.744950900985 0.226641064727 -0.63117100948 0.862717437943 0.142308874592 0.568619559599 0.452919448514 0.652329883951 0.422480648895 0.554425425805 0.439394221579 0.103787931538
g_call -0.288746752566 -0.508932347237 0.192641319992 0.389448732647 0.449615224043 -0.582560172711 -0.776186609793 0.692161181354 -0.177263806623 0.81915594777 -0.396702072969 0.320684067768 0.775493008054 0.0953913641447 0.321339741384 0.244210010692 0.302915078742 -0.484290793507 -0.621503899063 -0.714735364706 -0.894595842326 0.386485212156 0.802209026435 -0.118292704771 0.797315049917 0.38360780363 0.218664989889 0.448258076769 0.120762020154 0.286665592155
g_control 0.631022464604 -0.461693293888 -0.0994078844603 -0.356464572636 -0.792535521767 0.253597060977 -0.748060017033 0.996489600024 -0.0573190493562 -0.902765373523 0.665693386955 0.174589083423 0.980159001289 0.856249525171 -0.0171454129683 -0.210229469973 -0.959118897407 0.427298067704 0.531183145178 0.0730698448151 -0.756672297836 0.946027989052 -0.439185566908 0.0938363704668 0.507397204647 0.243681796712 0.996176390385 0.823180800166 -0.822017242771 0.331051515711
g_data -0.170430965231 0.207176129606 0.562525690426 -0.0240154811634 0.126038251305 -0.791759900368 0.912090918654 -0.818904937979 -0.0464948521504 0.747555867122 0.111425097101 -0.855445296068 0.225870365063 0.53861358762 -0.463055104097 -0.531686002656 -0.849641567905 0.177657460575 0.0127799639985 0.722624903863 -0.566653623072 -0.0395205733963 0.00301884536557 -0.0126150931385 0.831150694793 0.439490070772 0.417171968454 -0.278571042793 -0.458052261328 0.979399489669
g_arithmetic -0.209248472556 0.260639657998 -0.248081720232 -0.725272095276 0.892657192998 -0.578068417602 -0.296388342183 -0.49682754803 0.126237711896 -0.615019010164 0.53725787875 0.467757891985 0.593487565339 0.437032474571 0.559405612195 0.734069975114 -0.97211986957 -0.410671147381 -0.0353607634277 -0.855615659771 -0.540104918514 0.353957453905 0.45106338241 0.486678728403 -0.410451837683 0.871613228794 -0.846288112218 0.838342823106 -0.626345501477 -0.240082795991
g_jump 0.19293131799 0.47988904298 -0.389967139375 -0.225852731567 0.65947384033 -0.601828527308 -0.651170180888 0.217069711903 -0.0555832739247 -0.471224175688 -0.144980207966 -0.832902987685 -0.0114180582274 0.0949145073915 0.268331861651 -0.512045723031 0.183607423385 -0.0810808199469 -0.176436527853 0.490890788987 -0.689338889459 -0.103351223472 -0.529439133176 -0.935881060223 -0.591193622355 -0.388090912619 0.65569821542 0.607703738175 0.210667667936 0.189638563144
g_cond_jump 0.971808467433 -0.90833295376 0.700595636287 -0.679880347807 -0.745678285916 0.397893339659 -0.718814570161 0.784697694226 -0.967514314479 0.571640163877 -0.65365804283 -0.464247305028 -0.435174228434 -0.320953494861 0.792704697557 -0.829868113746 0.0740498955178 -0.106614508405 0.483549047768 0.930880828375 0.215775166051 -0.224997085148 -0.146180626112 0.50967625836 -0.592193548342 0.683235470879 0.522025143735 0.692261988129 0.164551976209 -0.390965118788
g_move -0.627521580948 0.67084726404 0.398834696422 -0.888366770396 0.853576198857 -0.218449994947 -0.780352169229 -0.726021867465 -0.193417904023 0.256229683951 0.589186077263 -0.00290692537095 -0.485897396234 0.198558011762 -0.566428956406 0.217436604535 0.399153760714 0.782570835666 0.182155605295 -0.780887056504 0.803064556469 -0.0558328663315 -0.56358930027 -0.515022736305 0.677757908512 -0.947315549927 0.950998805975 -0.149963807997 -0.269101737145 0.548073585646
